{"learner":{"attributes":{"best_iteration":"107","best_ntree_limit":"108","scikit_learn":"{\"use_label_encoder\": false, \"n_estimators\": 108, \"objective\": \"binary:logistic\", \"max_depth\": 3, \"max_leaves\": 374, \"max_bin\": null, \"grow_policy\": \"lossguide\", \"learning_rate\": 0.0662727581562135, \"verbosity\": null, \"booster\": null, \"tree_method\": \"hist\", \"gamma\": 0.2272850582970521, \"min_child_weight\": null, \"max_delta_step\": null, \"subsample\": 0.7157203112651603, \"sampling_method\": null, \"colsample_bytree\": 0.9375330704445337, \"colsample_bylevel\": null, \"colsample_bynode\": null, \"reg_alpha\": 0.16351108983073742, \"reg_lambda\": 0.19945208168911685, \"scale_pos_weight\": 1.417733783285986, \"base_score\": null, \"missing\": NaN, \"num_parallel_tree\": null, \"random_state\": 42, \"n_jobs\": null, \"monotone_constraints\": null, \"interaction_constraints\": null, \"importance_type\": null, \"gpu_id\": null, \"validate_parameters\": null, \"predictor\": null, \"enable_categorical\": false, \"feature_types\": null, \"max_cat_to_onehot\": null, \"max_cat_threshold\": null, \"eval_metric\": \"logloss\", \"early_stopping_rounds\": null, \"callbacks\": null, \"classes_\": [0, 1], \"n_classes_\": 2, \"_estimator_type\": \"classifier\"}"},"feature_names":[],"feature_types":[],"gradient_booster":{"model":{"gbtree_model_param":{"num_parallel_tree":"1","num_trees":"108","size_leaf_vector":"0"},"tree_info":[0,0,0,0,0,0,0,0,0,0,0,0,0,0,0,0,0,0,0,0,0,0,0,0,0,0,0,0,0,0,0,0,0,0,0,0,0,0,0,0,0,0,0,0,0,0,0,0,0,0,0,0,0,0,0,0,0,0,0,0,0,0,0,0,0,0,0,0,0,0,0,0,0,0,0,0,0,0,0,0,0,0,0,0,0,0,0,0,0,0,0,0,0,0,0,0,0,0,0,0,0,0,0,0,0,0,0,0],"trees":[{"base_weights":[3.52972E-1,-1.2379745E0,1.018391E0,5.4197945E-2,1.2738968E0,-1.8063211E0,-6.876774E-1,-1.00070655E-1,-3.448478E-3,5.439535E-2,9.89308E-2,1.301315E-1,-4.207552E-3,-1.21908575E-1,-9.876935E-2],"categories":[],"categories_nodes":[],"categories_segments":[],"categories_sizes":[],"default_left":[0,0,0,0,0,0,0,0,0,0,0,0,0,0,0],"id":0,"left_children":[1,5,3,11,9,13,7,-1,-1,-1,-1,-1,-1,-1,-1],"loss_changes":[1.8928666E3,1.6424817E2,3.1036316E2,5.975889E1,9.821094E1,1.624939E0,1.3999268E2,0E0,0E0,0E0,0E0,0E0,0E0,0E0,0E0],"parents":[2147483647,0,0,2,2,1,1,6,6,4,4,3,3,5,5],"right_children":[2,6,4,12,10,14,8,-1,-1,-1,-1,-1,-1,-1,-1],"split_conditions":[4.4229676E-4,1.107388E-3,9.320843E-3,9.954375E-1,3.8199227E-3,3.8199227E-3,1.3469301E-4,-1.00070655E-1,-3.448478E-3,5.439535E-2,9.89308E-2,1.301315E-1,-4.207552E-3,-1.21908575E-1,-9.876935E-2],"split_indices":[34,33,16,34,41,41,35,0,0,0,0,0,0,0,0],"split_type":[0,0,0,0,0,0,0,0,0,0,0,0,0,0,0],"sum_hessian":[1.787604E3,5.270547E2,1.2605493E3,2.6424802E2,9.963014E2,2.5890518E2,2.681495E2,1.1667734E2,1.5147215E2,3.2506845E2,6.712329E2,1.5240638E1,2.4900737E2,2.3296527E2,2.5939901E1],"tree_param":{"num_deleted":"0","num_feature":"46","num_nodes":"15","size_leaf_vector":"0"}},{"base_weights":[3.4189826E-1,-1.1000903E0,9.429474E-1,7.9738654E-2,1.1803747E0,-1.5277065E0,-3.5321495E-1,4.8887096E-2,9.214063E-2,-5.6108788E-2,2.7447911E-2,1.21839E-1,-8.0286944E-4,-1.21043175E-1,-7.781541E-2],"categories":[],"categories_nodes":[],"categories_segments":[],"categories_sizes":[],"default_left":[0,0,0,0,0,0,0,0,0,0,0,0,0,0,0],"id":1,"left_children":[1,5,3,11,7,13,9,-1,-1,-1,-1,-1,-1,-1,-1],"loss_changes":[1.5485957E3,1.6745032E2,2.5824634E2,4.430983E1,9.13656E1,3.4360718E1,7.2750275E1,0E0,0E0,0E0,0E0,0E0,0E0,0E0,0E0],"parents":[2147483647,0,0,2,2,1,1,4,4,6,6,3,3,5,5],"right_children":[2,6,4,12,8,14,10,-1,-1,-1,-1,-1,-1,-1,-1],"split_conditions":[4.4229676E-4,1.4315277E-2,9.320843E-3,9.954375E-1,3.8199227E-3,1.3469301E-4,3.8199227E-3,4.8887096E-2,9.214063E-2,-5.6108788E-2,2.7447911E-2,1.21839E-1,-8.0286944E-4,-1.21043175E-1,-7.781541E-2],"split_indices":[34,14,16,34,41,35,41,0,0,0,0,0,0,0,0],"split_type":[0,0,0,0,0,0,0,0,0,0,0,0,0,0,0],"sum_hessian":[1.7863519E3,5.25405E2,1.2609469E3,2.722154E2,9.887315E2,3.3384042E2,1.9156458E2,3.1859848E2,6.7013306E2,1.16712135E2,7.485244E1,1.34116125E1,2.5880377E2,1.8024403E2,1.535964E2],"tree_param":{"num_deleted":"0","num_feature":"46","num_nodes":"15","size_leaf_vector":"0"}},{"base_weights":[3.105186E-1,-1.106123E0,8.947044E-1,5.9552662E-2,1.1300275E0,-1.4016988E0,-1.7301668E-1,8.7843396E-2,4.785063E-2,1.27087105E-2,-9.667203E-2,5.600551E-2,-9.697379E-3,-1.09387666E-1,-7.598928E-2],"categories":[],"categories_nodes":[],"categories_segments":[],"categories_sizes":[],"default_left":[0,0,0,0,0,0,0,0,0,0,0,0,0,0,0],"id":2,"left_children":[1,5,3,11,7,13,9,-1,-1,-1,-1,-1,-1,-1,-1],"loss_changes":[1.4640808E3,1.4214124E2,2.4597198E2,4.473044E1,7.7394165E1,2.4054932E1,5.8702484E1,0E0,0E0,0E0,0E0,0E0,0E0,0E0,0E0],"parents":[2147483647,0,0,2,2,1,1,4,4,6,6,3,3,5,5],"right_children":[2,6,4,12,8,14,10,-1,-1,-1,-1,-1,-1,-1,-1],"split_conditions":[4.4229676E-4,1.1370466E0,9.320843E-3,-1.2436585E0,-5.8852154E-1,1.3469301E-4,1.5816199E0,8.7843396E-2,4.785063E-2,1.27087105E-2,-9.667203E-2,5.600551E-2,-9.697379E-3,-1.09387666E-1,-7.598928E-2],"split_indices":[34,44,16,43,43,35,43,0,0,0,0,0,0,0,0],"split_type":[0,0,0,0,0,0,0,0,0,0,0,0,0,0,0],"sum_hessian":[1.7687107E3,5.1628046E2,1.2524303E3,2.755302E2,9.769E2,3.9187317E2,1.2440728E2,6.599154E2,3.1698465E2,9.694428E1,2.7462997E1,5.7253925E1,2.1827628E2,1.9747664E2,1.9439655E2],"tree_param":{"num_deleted":"0","num_feature":"46","num_nodes":"15","size_leaf_vector":"0"}},{"base_weights":[2.7923715E-1,-9.968818E-1,8.155269E-1,5.6246072E-2,1.0251997E0,-1.3409084E0,-2.0471598E-1,3.698637E-2,8.319008E-2,-6.341949E-2,1.8198531E-2,1.1576696E-1,-1.6523118E-3,-1.03978656E-1,-7.342646E-2],"categories":[],"categories_nodes":[],"categories_segments":[],"categories_sizes":[],"default_left":[0,0,0,0,0,0,0,0,0,0,0,0,0,0,0],"id":3,"left_children":[1,5,3,11,7,13,9,-1,-1,-1,-1,-1,-1,-1,-1],"loss_changes":[1.2071471E3,1.4191663E2,1.9754102E2,3.7226536E1,1.0413672E2,1.8536133E1,5.7274956E1,0E0,0E0,0E0,0E0,0E0,0E0,0E0,0E0],"parents":[2147483647,0,0,2,2,1,1,4,4,6,6,3,3,5,5],"right_children":[2,6,4,12,8,14,10,-1,-1,-1,-1,-1,-1,-1,-1],"split_conditions":[4.4229676E-4,9.7171813E-1,9.891154E-3,9.954375E-1,3.8199227E-3,1.3469301E-4,1.3469301E-4,3.698637E-2,8.319008E-2,-6.341949E-2,1.8198531E-2,1.1576696E-1,-1.6523118E-3,-1.03978656E-1,-7.342646E-2],"split_indices":[34,44,25,34,41,35,35,0,0,0,0,0,0,0,0],"split_type":[0,0,0,0,0,0,0,0,0,0,0,0,0,0,0],"sum_hessian":[1.763489E3,5.216736E2,1.2418156E3,2.6894107E2,9.728744E2,3.6347632E2,1.5819727E2,3.2150974E2,6.513647E2,6.162558E1,9.657169E1,1.2227072E1,2.56714E2,1.827463E2,1.8073E2],"tree_param":{"num_deleted":"0","num_feature":"46","num_nodes":"15","size_leaf_vector":"0"}},{"base_weights":[2.815976E-1,-9.4328374E-1,7.7666444E-1,3.1147279E-2,9.806014E-1,-1.2754889E0,-1.9100481E-1,3.9454162E-2,7.7764586E-2,3.1953435E-3,-1.0645153E-1,4.457496E-2,-1.4502578E-2,-9.529561E-2,-4.9920995E-2],"categories":[],"categories_nodes":[],"categories_segments":[],"categories_sizes":[],"default_left":[0,0,0,0,0,0,0,0,0,0,0,0,0,0,0],"id":4,"left_children":[1,5,3,11,7,13,9,-1,-1,-1,-1,-1,-1,-1,-1],"loss_changes":[1.070906E3,1.2673242E2,1.9105493E2,4.348371E1,7.29173E1,2.9318665E1,5.311223E1,0E0,0E0,0E0,0E0,0E0,0E0,0E0,0E0],"parents":[2147483647,0,0,2,2,1,1,4,4,6,6,3,3,5,5],"right_children":[2,6,4,12,8,14,10,-1,-1,-1,-1,-1,-1,-1,-1],"split_conditions":[4.4229676E-4,9.7171813E-1,9.320843E-3,-1.16608E0,3.8199227E-3,9.320843E-3,1.622566E0,3.9454162E-2,7.7764586E-2,3.1953435E-3,-1.0645153E-1,4.457496E-2,-1.4502578E-2,-9.529561E-2,-4.9920995E-2],"split_indices":[34,44,16,43,41,16,43,0,0,0,0,0,0,0,0],"split_type":[0,0,0,0,0,0,0,0,0,0,0,0,0,0,0],"sum_hessian":[1.765616E3,5.0806473E2,1.2575513E3,2.703359E2,9.8721533E2,3.5218454E2,1.5588022E2,3.2981436E2,6.5740094E2,1.3340758E2,2.2472631E1,7.5897705E1,1.944382E2,2.6812073E2,8.406381E1],"tree_param":{"num_deleted":"0","num_feature":"46","num_nodes":"15","size_leaf_vector":"0"}},{"base_weights":[2.702622E-1,-9.248689E-1,7.6263994E-1,6.624181E-2,9.626259E-1,-1.2299435E0,-2.4455631E-1,7.615771E-2,3.9551016E-2,-3.1424293E-3,-1.050977E-1,1.1159164E-1,-1.1066791E-3,-9.865786E-2,-6.40301E-2],"categories":[],"categories_nodes":[],"categories_segments":[],"categories_sizes":[],"default_left":[0,0,0,0,0,0,0,0,0,0,0,0,0,0,0],"id":5,"left_children":[1,5,3,11,7,13,9,-1,-1,-1,-1,-1,-1,-1,-1],"loss_changes":[1.0331987E3,1.060112E2,1.7300824E2,3.755368E1,6.549078E1,2.3432068E1,4.1761166E1,0E0,0E0,0E0,0E0,0E0,0E0,0E0,0E0],"parents":[2147483647,0,0,2,2,1,1,4,4,6,6,3,3,5,5],"right_children":[2,6,4,12,8,14,10,-1,-1,-1,-1,-1,-1,-1,-1],"split_conditions":[4.4229676E-4,9.534376E-1,9.320843E-3,9.954375E-1,-6.294676E-1,1.3469301E-4,1.622566E0,7.615771E-2,3.9551016E-2,-3.1424293E-3,-1.050977E-1,1.1159164E-1,-1.1066791E-3,-9.865786E-2,-6.40301E-2],"split_indices":[34,44,16,34,43,35,43,0,0,0,0,0,0,0,0],"split_type":[0,0,0,0,0,0,0,0,0,0,0,0,0,0,0],"sum_hessian":[1.7553862E3,5.1203485E2,1.2433514E3,2.7763712E2,9.6571423E2,3.5323227E2,1.5880255E2,6.3902014E2,3.266941E2,1.3873923E2,2.0063324E1,1.344976E1,2.6418738E2,1.7754703E2,1.7568526E2],"tree_param":{"num_deleted":"0","num_feature":"46","num_nodes":"15","size_leaf_vector":"0"}},{"base_weights":[2.3729074E-1,-8.5418457E-1,6.804158E-1,-1.0117167E-2,8.7684757E-1,-1.1723135E0,-6.923392E-2,3.239836E-2,7.088617E-2,5.378277E-2,-1.5831076E-2,-5.1519364E-2,2.7191E-2,-8.812101E-2,-5.722244E-2],"categories":[],"categories_nodes":[],"categories_segments":[],"categories_sizes":[],"default_left":[0,0,0,0,0,0,0,0,0,0,0,0,0,0,0],"id":6,"left_children":[1,5,3,9,7,13,11,-1,-1,-1,-1,-1,-1,-1,-1],"loss_changes":[8.233738E2,1.225166E2,1.6439276E2,5.0353466E1,7.016101E1,1.6403992E1,4.8380478E1,0E0,0E0,0E0,0E0,0E0,0E0,0E0,0E0],"parents":[2147483647,0,0,2,2,1,1,4,4,3,3,6,6,5,5],"right_children":[2,6,4,10,8,14,12,-1,-1,-1,-1,-1,-1,-1,-1],"split_conditions":[4.4229676E-4,1.0116029E0,9.320843E-3,-1.2436585E0,3.8199227E-3,1.107388E-3,1.3469301E-4,3.239836E-2,7.088617E-2,5.378277E-2,-1.5831076E-2,-5.1519364E-2,2.7191E-2,-8.812101E-2,-5.722244E-2],"split_indices":[34,44,16,43,41,33,35,0,0,0,0,0,0,0,0],"split_type":[0,0,0,0,0,0,0,0,0,0,0,0,0,0,0],"sum_hessian":[1.7020009E3,4.9130295E2,1.2106979E3,2.6798495E2,9.4271295E2,3.4939258E2,1.4191037E2,3.1342548E2,6.292875E2,5.809575E1,2.098892E2,5.7383987E1,8.452638E1,2.3068182E2,1.18710754E2],"tree_param":{"num_deleted":"0","num_feature":"46","num_nodes":"15","size_leaf_vector":"0"}},{"base_weights":[1.943154E-1,-8.316376E-1,6.1596775E-1,1.465312E-1,8.985254E-1,5.146402E-2,-2.15728E-2,-1.0736367E0,-2.0552392E-1,7.954193E-2,3.8829837E-2,-5.8886122E-2,1.6812524E-2,-8.935984E-2,-5.3360593E-2],"categories":[],"categories_nodes":[],"categories_segments":[],"categories_sizes":[],"default_left":[0,0,0,0,0,0,0,0,0,0,0,0,0,0,0],"id":7,"left_children":[1,7,3,5,9,-1,-1,13,11,-1,-1,-1,-1,-1,-1],"loss_changes":[7.389349E2,7.512262E1,1.6039633E2,1.3555222E2,7.082648E1,0E0,0E0,2.5877075E1,4.3780922E1,0E0,0E0,0E0,0E0,0E0,0E0],"parents":[2147483647,0,0,2,2,3,3,1,1,4,4,8,8,7,7],"right_children":[2,8,4,6,10,-1,-1,14,12,-1,-1,-1,-1,-1,-1],"split_conditions":[4.4229676E-4,1.0352278E0,1.4315277E-2,-1.16608E0,-7.523058E-1,5.146402E-2,-2.15728E-2,1.3469301E-4,1.3469301E-4,7.954193E-2,3.8829837E-2,-5.8886122E-2,1.6812524E-2,-8.935984E-2,-5.3360593E-2],"split_indices":[34,44,14,43,43,0,0,35,35,0,0,0,0,0,0],"split_type":[0,0,0,0,0,0,0,0,0,0,0,0,0,0,0],"sum_hessian":[1.7077887E3,4.9726804E2,1.2105208E3,4.5517764E2,7.553431E2,1.9505928E2,2.6011838E2,3.5835617E2,1.3891188E2,3.838311E2,3.71512E2,5.591499E1,8.2996895E1,1.7641643E2,1.8193973E2],"tree_param":{"num_deleted":"0","num_feature":"46","num_nodes":"15","size_leaf_vector":"0"}},{"base_weights":[2.1030645E-1,-5.2659774E-1,6.346061E-1,1.7570615E-1,9.241393E-1,-2.2591731E-1,-1.2205454E0,4.6435554E-2,-1.8206386E-2,2.9091327E-3,-4.8688635E-2,1.06842004E-1,5.368822E-2,-8.625104E-2,-4.6150733E-2],"categories":[],"categories_nodes":[],"categories_segments":[],"categories_sizes":[],"default_left":[0,0,0,0,0,0,0,0,0,0,0,0,0,0,0],"id":8,"left_children":[1,5,3,7,11,9,13,-1,-1,-1,-1,-1,-1,-1,-1],"loss_changes":[5.235711E2,1.2735106E2,1.4098804E2,9.742977E1,5.0443604E1,5.8762455E1,7.3266907E0,0E0,0E0,0E0,0E0,0E0,0E0,0E0,0E0],"parents":[2147483647,0,0,2,2,1,1,3,3,5,5,4,4,6,6],"right_children":[2,6,4,8,12,10,14,-1,-1,-1,-1,-1,-1,-1,-1],"split_conditions":[9.891154E-3,9.995577E-1,3.8199227E-3,-6.294676E-1,9.848893E-1,1E0,1.3705661E0,4.6435554E-2,-1.8206386E-2,2.9091327E-3,-4.8688635E-2,1.06842004E-1,5.368822E-2,-8.625104E-2,-4.6150733E-2],"split_indices":[25,36,41,43,41,35,44,0,0,0,0,0,0,0,0],"split_type":[0,0,0,0,0,0,0,0,0,0,0,0,0,0,0],"sum_hessian":[1.674057E3,6.11536E2,1.062521E3,4.113813E2,6.511398E2,4.2701483E2,1.8452116E2,1.9008769E2,2.2129361E2,2.7894116E2,1.4807365E2,9.199815E1,5.591416E2,1.5932089E2,2.5200277E1],"tree_param":{"num_deleted":"0","num_feature":"46","num_nodes":"15","size_leaf_vector":"0"}},{"base_weights":[2.0807026E-1,-5.369291E-1,6.185344E-1,9.282932E-1,2.274376E-1,-2.5938556E-1,-1.2040085E0,-1.5933461E-2,4.0712938E-2,3.535676E-2,-2.5562545E-2,6.933892E-2,3.4344226E-2,-8.535613E-2,-4.5101404E-2],"categories":[],"categories_nodes":[],"categories_segments":[],"categories_sizes":[],"default_left":[0,0,0,0,0,0,0,0,0,0,0,0,0,0,0],"id":9,"left_children":[1,5,3,11,7,9,13,-1,-1,-1,-1,-1,-1,-1,-1],"loss_changes":[5.050718E2,1.08304855E2,1.2878882E2,2.8371857E1,8.538136E1,4.1554195E1,7.066757E0,0E0,0E0,0E0,0E0,0E0,0E0,0E0,0E0],"parents":[2147483647,0,0,2,2,1,1,4,4,5,5,3,3,6,6],"right_children":[2,6,4,12,8,10,14,-1,-1,-1,-1,-1,-1,-1,-1],"split_conditions":[9.320843E-3,9.998653E-1,-6.294676E-1,9.882934E-1,3.8199227E-3,-1.2436585E0,1.3622568E0,-1.5933461E-2,4.0712938E-2,3.535676E-2,-2.5562545E-2,6.933892E-2,3.4344226E-2,-8.535613E-2,-4.5101404E-2],"split_indices":[16,36,43,37,41,43,44,0,0,0,0,0,0,0,0],"split_type":[0,0,0,0,0,0,0,0,0,0,0,0,0,0,0],"sum_hessian":[1.6512056E3,5.8640704E2,1.0647986E3,5.938007E2,4.709978E2,4.144811E2,1.7192593E2,2.1303195E2,2.5796585E2,5.669734E1,3.5778375E2,4.6058636E2,1.3321437E2,1.4764569E2,2.4280233E1],"tree_param":{"num_deleted":"0","num_feature":"46","num_nodes":"15","size_leaf_vector":"0"}},{"base_weights":[2.1094747E-1,-7.1157223E-1,5.7481176E-1,-2.6418693E-2,7.5110865E-1,-1.1711744E0,-3.1719002E-1,-6.945707E-2,1.2893635E-2,6.8466485E-2,3.4914892E-2,1.0503991E-1,-6.358268E-3,-8.0054745E-2,-5.6358572E-2],"categories":[],"categories_nodes":[],"categories_segments":[],"categories_sizes":[],"default_left":[0,0,0,0,0,0,0,0,0,0,0,0,0,0,0],"id":10,"left_children":[1,5,3,11,9,13,7,-1,-1,-1,-1,-1,-1,-1,-1],"loss_changes":[5.48875E2,8.350188E1,1.2442792E2,2.9573868E1,5.7001434E1,1.9751892E0,9.343556E1,0E0,0E0,0E0,0E0,0E0,0E0,0E0,0E0],"parents":[2147483647,0,0,2,2,1,1,6,6,4,4,3,3,5,5],"right_children":[2,6,4,12,10,14,8,-1,-1,-1,-1,-1,-1,-1,-1],"split_conditions":[4.4229676E-4,1.107388E-3,9.891154E-3,1E0,-9.979822E-1,3.8199227E-3,1.3469301E-4,-6.945707E-2,1.2893635E-2,6.8466485E-2,3.4914892E-2,1.0503991E-1,-6.358268E-3,-8.0054745E-2,-5.6358572E-2],"split_indices":[34,33,25,34,43,41,35,0,0,0,0,0,0,0,0],"split_type":[0,0,0,0,0,0,0,0,0,0,0,0,0,0,0],"sum_hessian":[1.6347771E3,4.6222913E2,1.172548E3,2.6569226E2,9.068558E2,2.1309113E2,2.49138E2,1.0264862E2,1.4648938E2,4.0108994E2,5.0576584E2,1.0711937E1,2.5498032E2,1.9021675E2,2.2874372E1],"tree_param":{"num_deleted":"0","num_feature":"46","num_nodes":"15","size_leaf_vector":"0"}},{"base_weights":[1.8655016E-1,-4.8929805E-1,5.6420094E-1,9.073973E-1,2.0393418E-1,2.9635562E-2,-3.850059E-2,-2.405258E-1,-1.1500685E0,4.371554E-4,-4.7845107E-2,4.1309405E-2,6.9375075E-2,-8.112529E-2,-4.812102E-2],"categories":[],"categories_nodes":[],"categories_segments":[],"categories_sizes":[],"default_left":[0,0,0,0,0,0,0,0,0,0,0,0,0,0,0],"id":11,"left_children":[1,7,3,11,5,-1,-1,9,13,-1,-1,-1,-1,-1,-1],"loss_changes":[4.146128E2,9.5416016E1,1.2864127E2,2.0723633E1,9.71947E1,0E0,0E0,5.04861E1,4.495117E0,0E0,0E0,0E0,0E0,0E0,0E0],"parents":[2147483647,0,0,2,2,4,4,1,1,7,7,3,3,8,8],"right_children":[2,8,4,12,6,-1,-1,10,14,-1,-1,-1,-1,-1,-1],"split_conditions":[9.320843E-3,9.998653E-1,-7.523058E-1,1.20842524E-1,9.856847E-1,2.9635562E-2,-3.850059E-2,1E0,1.3622568E0,4.371554E-4,-4.7845107E-2,4.1309405E-2,6.9375075E-2,-8.112529E-2,-4.812102E-2],"split_indices":[16,36,43,44,13,0,0,35,44,0,0,0,0,0,0],"split_type":[0,0,0,0,0,0,0,0,0,0,0,0,0,0,0],"sum_hessian":[1.6239749E3,5.8197455E2,1.0420004E3,5.332554E2,5.08745E2,3.8860596E2,1.2013905E2,4.2317404E2,1.588005E2,2.795379E2,1.4363612E2,1.762956E2,3.5695975E2,1.3454126E2,2.425925E1],"tree_param":{"num_deleted":"0","num_feature":"46","num_nodes":"15","size_leaf_vector":"0"}},{"base_weights":[1.7588016E-1,-6.703979E-1,5.129595E-1,1.5469874E-1,7.889524E-1,-8.890115E-1,3.7534887E-3,4.0233947E-2,-8.761921E-3,9.7416274E-2,4.4823587E-2,1.5878465E-2,-8.599497E-2,-7.943399E-2,-4.135318E-2],"categories":[],"categories_nodes":[],"categories_segments":[],"categories_sizes":[],"default_left":[0,0,0,0,0,0,0,0,0,0,0,0,0,0,0],"id":12,"left_children":[1,5,3,7,9,13,11,-1,-1,-1,-1,-1,-1,-1,-1],"loss_changes":[4.572388E2,6.742122E1,1.1317792E2,6.491062E1,4.908249E1,2.7849762E1,3.419996E1,0E0,0E0,0E0,0E0,0E0,0E0,0E0,0E0],"parents":[2147483647,0,0,2,2,1,1,3,3,4,4,6,6,5,5],"right_children":[2,6,4,8,10,14,12,-1,-1,-1,-1,-1,-1,-1,-1],"split_conditions":[4.4229676E-4,1.1875494E0,3.8199227E-3,-1.0798744E0,9.954375E-1,1.3469301E-4,1.622566E0,4.0233947E-2,-8.761921E-3,9.7416274E-2,4.4823587E-2,1.5878465E-2,-8.599497E-2,-7.943399E-2,-4.135318E-2],"split_indices":[34,44,41,43,41,35,43,0,0,0,0,0,0,0,0],"split_type":[0,0,0,0,0,0,0,0,0,0,0,0,0,0,0],"sum_hessian":[1.6025189E3,4.562831E2,1.1462358E3,4.9917313E2,6.470627E2,3.4468704E2,1.1159606E2,1.9385304E2,3.0532007E2,9.1265594E1,5.5579706E2,9.471881E1,1.687725E1,1.5837184E2,1.863152E2],"tree_param":{"num_deleted":"0","num_feature":"46","num_nodes":"15","size_leaf_vector":"0"}},{"base_weights":[1.7001204E-1,-6.1548084E-1,4.7916856E-1,6.42003E-2,7.429137E-1,4.0467594E-2,-2.2005916E-2,-1.047356E0,-2.6672676E-1,-2.3832671E-2,1.742202E-1,6.3606106E-2,2.9498922E-2,-7.303854E-2,-4.1193336E-2],"categories":[],"categories_nodes":[],"categories_segments":[],"categories_sizes":[],"default_left":[0,0,0,0,0,0,0,0,0,0,0,0,0,0,0],"id":13,"left_children":[1,7,3,5,11,-1,-1,13,9,-1,-1,-1,-1,-1,-1],"loss_changes":[3.8466592E2,6.709569E1,1.24277954E2,9.583546E1,4.45531E1,0E0,0E0,4.2317963E0,6.649943E1,0E0,0E0,0E0,0E0,0E0,0E0],"parents":[2147483647,0,0,2,2,3,3,1,1,8,8,4,4,7,7],"right_children":[2,8,4,6,12,-1,-1,14,10,-1,-1,-1,-1,-1,-1],"split_conditions":[4.4229676E-4,1.107388E-3,1.4315277E-2,-1.16608E0,-5.8852154E-1,4.0467594E-2,-2.2005916E-2,3.8199227E-3,1.659248E-2,-2.3832671E-2,1.742202E-1,6.3606106E-2,2.9498922E-2,-7.303854E-2,-4.1193336E-2],"split_indices":[34,33,14,43,43,0,0,41,31,0,0,0,0,0,0],"split_type":[0,0,0,0,0,0,0,0,0,0,0,0,0,0,0],"sum_hessian":[1.5836787E3,4.4706552E2,1.1366132E3,4.4202036E2,6.9459283E2,1.8593068E2,2.5608966E2,1.9934314E2,2.4772238E2,2.4024655E2,7.4758344E0,4.0134976E2,2.9324307E2,1.7601567E2,2.3327461E1],"tree_param":{"num_deleted":"0","num_feature":"46","num_nodes":"15","size_leaf_vector":"0"}},{"base_weights":[1.5274268E-1,-5.8656913E-1,4.4022977E-1,-1.19487695E-1,6.113995E-1,-8.199996E-1,7.1114555E-2,8.288339E-3,4.9091138E-2,3.8849484E-2,-1.9744577E-2,1.8765472E-2,-8.214285E-2,-6.4416714E-2,-2.9293656E-2],"categories":[],"categories_nodes":[],"categories_segments":[],"categories_sizes":[],"default_left":[0,0,0,0,0,0,0,0,0,0,0,0,0,0,0],"id":14,"left_children":[1,5,3,9,7,13,11,-1,-1,-1,-1,-1,-1,-1,-1],"loss_changes":[3.3128223E2,6.711484E1,1.0763243E2,3.3082375E1,5.3927307E1,1.8194E1,3.1673792E1,0E0,0E0,0E0,0E0,0E0,0E0,0E0,0E0],"parents":[2147483647,0,0,2,2,1,1,4,4,3,3,6,6,5,5],"right_children":[2,6,4,10,8,14,12,-1,-1,-1,-1,-1,-1,-1,-1],"split_conditions":[4.4229676E-4,1.1875494E0,9.320843E-3,-1.2436585E0,5.5057993E-3,1.3536257E-3,1.622566E0,8.288339E-3,4.9091138E-2,3.8849484E-2,-1.9744577E-2,1.8765472E-2,-8.214285E-2,-6.4416714E-2,-2.9293656E-2],"split_indices":[34,44,16,43,38,19,43,0,0,0,0,0,0,0,0],"split_type":[0,0,0,0,0,0,0,0,0,0,0,0,0,0,0],"sum_hessian":[1.5583335E3,4.3609085E2,1.1222427E3,2.6261334E2,8.5962933E2,3.220025E2,1.1408835E2,1.8094226E2,6.786871E2,5.2725243E1,2.0988809E2,9.844235E1,1.5645994E1,2.2912206E2,9.288044E1],"tree_param":{"num_deleted":"0","num_feature":"46","num_nodes":"15","size_leaf_vector":"0"}},{"base_weights":[1.30608E-1,-4.53186E-1,4.7213247E-1,9.3905106E-2,7.2076696E-1,1.24992184E-1,-1.0358092E-3,-2.3130853E-1,-1.0477462E0,-1.8801142E-2,1.3352443E-1,9.4580345E-2,4.0487595E-2,-7.647627E-2,-3.632504E-2],"categories":[],"categories_nodes":[],"categories_segments":[],"categories_sizes":[],"default_left":[0,0,0,0,0,0,0,0,0,0,0,0,0,0,0],"id":15,"left_children":[1,7,3,5,11,-1,-1,9,13,-1,-1,-1,-1,-1,-1],"loss_changes":[3.037112E2,7.388986E1,9.024338E1,7.524464E1,4.4468353E1,0E0,0E0,4.804505E1,7.6881104E0,0E0,0E0,0E0,0E0,0E0,0E0],"parents":[2147483647,0,0,2,2,3,3,1,1,7,7,4,4,8,8],"right_children":[2,8,4,6,12,-1,-1,10,14,-1,-1,-1,-1,-1,-1],"split_conditions":[9.891154E-3,9.995577E-1,3.8199227E-3,1E0,9.954375E-1,1.24992184E-1,-1.0358092E-3,1.1417983E-2,1.3837276E0,-1.8801142E-2,1.3352443E-1,9.4580345E-2,4.0487595E-2,-7.647627E-2,-3.632504E-2],"split_indices":[25,36,41,25,41,0,0,36,44,0,0,0,0,0,0],"split_type":[0,0,0,0,0,0,0,0,0,0,0,0,0,0,0],"sum_hessian":[1.5228499E3,5.6186566E2,9.6098413E2,3.8152847E2,5.794557E2,2.1875538E1,3.5965292E2,4.0957343E2,1.5229222E2,4.004802E2,9.093258E0,7.745898E1,5.0199667E2,1.2510732E2,2.7184893E1],"tree_param":{"num_deleted":"0","num_feature":"46","num_nodes":"15","size_leaf_vector":"0"}},{"base_weights":[1.15983E-1,-5.483377E-1,3.7803203E-1,-1.4271131E-1,5.574084E-1,-1.0101788E0,-1.8617128E-1,-5.10709E-2,1.34707065E-2,3.402562E-3,-6.6791646E-2,4.282657E-3,4.4528224E-2,-7.082424E-2,-3.5145395E-2],"categories":[],"categories_nodes":[],"categories_segments":[],"categories_sizes":[],"default_left":[0,0,0,0,0,0,0,0,0,0,0,0,0,0,0],"id":16,"left_children":[1,5,3,9,11,13,7,-1,-1,-1,-1,-1,-1,-1,-1],"loss_changes":[2.595046E2,7.027888E1,9.99604E1,4.614426E1,4.4754105E1,4.819931E0,5.4002304E1,0E0,0E0,0E0,0E0,0E0,0E0,0E0,0E0],"parents":[2147483647,0,0,2,2,1,1,6,6,3,3,4,4,5,5],"right_children":[2,6,4,10,12,14,8,-1,-1,-1,-1,-1,-1,-1,-1],"split_conditions":[4.4229676E-4,1.107388E-3,5.5057993E-3,9.986464E-1,9.891154E-3,3.8199227E-3,1.3469301E-4,-5.10709E-2,1.34707065E-2,3.402562E-3,-6.6791646E-2,4.282657E-3,4.4528224E-2,-7.082424E-2,-3.5145395E-2],"split_indices":[34,33,38,21,25,41,35,0,0,0,0,0,0,0,0],"split_type":[0,0,0,0,0,0,0,0,0,0,0,0,0,0,0],"sum_hessian":[1.4904042E3,4.2136343E2,1.0690408E3,2.7367386E2,7.953669E2,1.8484169E2,2.3652176E2,9.466976E1,1.4185199E2,2.2353233E2,5.0141518E1,1.5027338E2,6.450935E2,1.6423471E2,2.0606972E1],"tree_param":{"num_deleted":"0","num_feature":"46","num_nodes":"15","size_leaf_vector":"0"}},{"base_weights":[1.2973553E-1,-2.4161874E-1,5.545385E-1,-7.411636E-2,-9.4969034E-1,1.4695059E0,4.1430086E-1,-1.3232636E-3,4.0840082E-2,5.6305635E-3,-3.6275383E-2,-7.1710706E-2,-1.6660841E-2,1.15972735E-1,8.983645E-2],"categories":[],"categories_nodes":[],"categories_segments":[],"categories_sizes":[],"default_left":[0,0,0,0,0,0,0,0,0,0,0,0,0,0,0],"id":17,"left_children":[1,3,5,9,11,13,7,-1,-1,-1,-1,-1,-1,-1,-1],"loss_changes":[2.336426E2,9.350604E1,8.8216354E1,4.820625E1,1.3676376E1,1.9455414E0,5.2671844E1,0E0,0E0,0E0,0E0,0E0,0E0,0E0,0E0],"parents":[2147483647,0,0,1,1,2,2,6,6,3,3,4,4,5,5],"right_children":[2,4,6,10,12,14,8,-1,-1,-1,-1,-1,-1,-1,-1],"split_conditions":[3.8199227E-3,9.998653E-1,9.954375E-1,9.986464E-1,1.3622568E0,8.4560436E-1,1.3536257E-3,-1.3232636E-3,4.0840082E-2,5.6305635E-3,-3.6275383E-2,-7.1710706E-2,-1.6660841E-2,1.15972735E-1,8.983645E-2],"split_indices":[41,36,41,35,44,16,19,0,0,0,0,0,0,0,0],"split_type":[0,0,0,0,0,0,0,0,0,0,0,0,0,0,0],"sum_hessian":[1.4803785E3,7.897211E2,6.9065735E2,6.390078E2,1.5071332E2,9.138274E1,5.992746E2,1.9001797E2,4.0925662E2,4.7811377E2,1.6089404E2,1.2640839E2,2.4304926E1,2.5161911E1,6.6220825E1],"tree_param":{"num_deleted":"0","num_feature":"46","num_nodes":"15","size_leaf_vector":"0"}},{"base_weights":[1.2676251E-1,-5.2862495E-1,3.706988E-1,-1.4542877E-2,6.25491E-1,-9.872494E-1,-1.9282453E-1,-1.7932333E-2,1.6953942E-1,6.6642417E-3,-5.433813E-2,4.6556342E-2,1.4588982E-2,-7.1685515E-2,-4.8833378E-2],"categories":[],"categories_nodes":[],"categories_segments":[],"categories_sizes":[],"default_left":[0,0,0,0,0,0,0,0,0,0,0,0,0,0,0],"id":18,"left_children":[1,5,3,9,11,13,7,-1,-1,-1,-1,-1,-1,-1,-1],"loss_changes":[2.3835214E2,6.2029533E1,1.06771484E2,4.023177E1,2.024411E1,3.577942E0,4.9786953E1,0E0,0E0,0E0,0E0,0E0,0E0,0E0,0E0],"parents":[2147483647,0,0,2,2,1,1,6,6,3,3,4,4,5,5],"right_children":[2,6,4,10,12,14,8,-1,-1,-1,-1,-1,-1,-1,-1],"split_conditions":[4.4229676E-4,1.107388E-3,1.4315277E-2,-1.9325022E-1,9.944942E-1,4.4229676E-4,1.659248E-2,-1.7932333E-2,1.6953942E-1,6.6642417E-3,-5.433813E-2,4.6556342E-2,1.4588982E-2,-7.1685515E-2,-4.8833378E-2],"split_indices":[34,33,14,44,37,27,31,0,0,0,0,0,0,0,0],"split_type":[0,0,0,0,0,0,0,0,0,0,0,0,0,0,0],"sum_hessian":[1.4906039E3,4.0407263E2,1.0865312E3,4.323585E2,6.541728E2,1.704306E2,2.3364203E2,2.2745224E2,6.1897798E0,3.7826932E2,5.4089157E1,5.492775E2,1.04895226E2,1.2280526E2,4.7625343E1],"tree_param":{"num_deleted":"0","num_feature":"46","num_nodes":"15","size_leaf_vector":"0"}},{"base_weights":[1.0785379E-1,-4.302481E-1,4.0965337E-1,7.85932E-1,1.921476E-1,1.09094456E-1,6.613802E-3,-2.5495407E-1,-1.0126886E0,-1.9289764E-2,1.21880285E-1,6.0424216E-2,3.884004E-2,-7.208711E-2,-4.2734105E-2],"categories":[],"categories_nodes":[],"categories_segments":[],"categories_sizes":[],"default_left":[0,0,0,0,0,0,0,0,0,0,0,0,0,0,0],"id":19,"left_children":[1,7,3,11,5,-1,-1,9,13,-1,-1,-1,-1,-1,-1],"loss_changes":[2.3564102E2,5.295659E1,7.590643E1,8.204697E0,7.887103E1,0E0,0E0,3.0186367E1,2.8977585E0,0E0,0E0,0E0,0E0,0E0,0E0],"parents":[2147483647,0,0,2,2,4,4,1,1,7,7,3,3,8,8],"right_children":[2,8,4,12,6,-1,-1,10,14,-1,-1,-1,-1,-1,-1],"split_conditions":[9.320843E-3,9.998653E-1,-9.979822E-1,7.107552E-1,9.998653E-1,1.09094456E-1,6.613802E-3,1.1417983E-2,1.3622568E0,-1.9289764E-2,1.21880285E-1,6.0424216E-2,3.884004E-2,-7.208711E-2,-4.2734105E-2],"split_indices":[16,36,43,13,16,0,0,36,44,0,0,0,0,0,0],"split_type":[0,0,0,0,0,0,0,0,0,0,0,0,0,0,0],"sum_hessian":[1.450606E3,5.210172E2,9.2958875E2,3.4004602E2,5.895427E2,3.490251E1,5.546402E2,4.009215E2,1.2009572E2,3.9437027E2,6.5512447E0,2.0774245E2,1.3230357E2,9.9053925E1,2.1041798E1],"tree_param":{"num_deleted":"0","num_feature":"46","num_nodes":"15","size_leaf_vector":"0"}},{"base_weights":[1.1826614E-1,-3.622855E-1,3.983347E-1,1.6118098E0,3.3449087E-1,-2.1906972E-2,3.17155E-2,-1.7262948E-1,-9.6017605E-1,-2.7130438E-2,1.7721402E-2,-7.0675254E-2,-3.234421E-2,1.3852745E-1,9.467897E-2],"categories":[],"categories_nodes":[],"categories_segments":[],"categories_sizes":[],"default_left":[0,0,0,0,0,0,0,0,0,0,0,0,0,0,0],"id":20,"left_children":[1,7,3,13,5,-1,-1,9,11,-1,-1,-1,-1,-1,-1],"loss_changes":[1.9386943E2,5.990207E1,7.009181E1,2.8006592E0,8.2944275E1,0E0,0E0,4.2023857E1,6.034561E0,0E0,0E0,0E0,0E0,0E0,0E0],"parents":[2147483647,0,0,2,2,4,4,1,1,7,7,8,8,3,3],"right_children":[2,8,4,14,6,-1,-1,10,12,-1,-1,-1,-1,-1,-1],"split_conditions":[9.891154E-3,9.995577E-1,9.995577E-1,4.4229676E-4,9.320843E-3,-2.1906972E-2,3.17155E-2,3.6656624E-3,1.3536257E-3,-2.7130438E-2,1.7721402E-2,-7.0675254E-2,-3.234421E-2,1.3852745E-1,9.467897E-2],"split_indices":[25,36,25,34,16,0,0,30,19,0,0,0,0,0,0],"split_type":[0,0,0,0,0,0,0,0,0,0,0,0,0,0,0],"sum_hessian":[1.4400153E3,5.299926E2,9.1002264E2,4.5115665E1,8.64907E2,1.5375491E2,7.1115204E2,4.027632E2,1.2722942E2,2.6212158E2,1.4064162E2,1.0336864E2,2.3860786E1,1.1668931E1,3.3446735E1],"tree_param":{"num_deleted":"0","num_feature":"46","num_nodes":"15","size_leaf_vector":"0"}},{"base_weights":[1.2590913E-1,-2.0679054E-1,4.9781927E-1,2.4585329E-1,-4.9410212E-1,1.4201611E0,3.616001E-1,-1.6988002E-2,3.378018E-2,-4.248562E-2,-1.6670999E-4,3.43255E-3,5.4096047E-2,1.2484141E-1,8.757718E-2],"categories":[],"categories_nodes":[],"categories_segments":[],"categories_sizes":[],"default_left":[0,0,0,0,0,0,0,0,0,0,0,0,0,0,0],"id":21,"left_children":[1,3,5,11,9,13,7,-1,-1,-1,-1,-1,-1,-1,-1],"loss_changes":[1.7687454E2,9.8138916E1,8.441261E1,3.2252472E1,3.3244354E1,2.943451E0,5.3934853E1,0E0,0E0,0E0,0E0,0E0,0E0,0E0,0E0],"parents":[2147483647,0,0,1,1,2,2,6,6,4,4,3,3,5,5],"right_children":[2,4,6,12,10,14,8,-1,-1,-1,-1,-1,-1,-1,-1],"split_conditions":[3.8199227E-3,-7.1135974E-1,9.954375E-1,1.9895025E-1,1.1108813E0,4.4229676E-4,9.891154E-3,-1.6988002E-2,3.378018E-2,-4.248562E-2,-1.6670999E-4,3.43255E-3,5.4096047E-2,1.2484141E-1,8.757718E-2],"split_indices":[41,43,41,44,44,34,25,0,0,0,0,0,0,0,0],"split_type":[0,0,0,0,0,0,0,0,0,0,0,0,0,0,0],"sum_hessian":[1.4287198E3,7.539276E2,6.747922E2,2.9252695E2,4.6140067E2,8.6438126E1,5.8835406E2,1.1351568E2,4.7483838E2,3.5490207E2,1.0649862E2,2.186458E2,7.388115E1,1.4248085E1,7.219004E1],"tree_param":{"num_deleted":"0","num_feature":"46","num_nodes":"15","size_leaf_vector":"0"}},{"base_weights":[9.51868E-2,-5.023588E-1,3.191127E-1,-9.534766E-2,4.7401902E-1,-7.183219E-1,7.880856E-2,2.7453966E-2,9.456719E-2,9.201998E-3,-4.219261E-2,1.7256433E-2,-7.380899E-2,-5.8181174E-2,-2.8452514E-2],"categories":[],"categories_nodes":[],"categories_segments":[],"categories_sizes":[],"default_left":[0,0,0,0,0,0,0,0,0,0,0,0,0,0,0],"id":22,"left_children":[1,5,3,9,7,13,11,-1,-1,-1,-1,-1,-1,-1,-1],"loss_changes":[1.8715514E2,4.795417E1,6.541248E1,3.518619E1,4.1789185E1,1.25372925E1,2.2272814E1,0E0,0E0,0E0,0E0,0E0,0E0,0E0,0E0],"parents":[2147483647,0,0,2,2,1,1,4,4,3,3,6,6,5,5],"right_children":[2,6,4,10,8,14,12,-1,-1,-1,-1,-1,-1,-1,-1],"split_conditions":[4.4229676E-4,1.2143507E0,5.5057993E-3,-5.8852154E-1,7.183161E-3,9.320843E-3,1.622566E0,2.7453966E-2,9.456719E-2,9.201998E-3,-4.219261E-2,1.7256433E-2,-7.380899E-2,-5.8181174E-2,-2.8452514E-2],"split_indices":[34,44,38,43,37,16,43,0,0,0,0,0,0,0,0],"split_type":[0,0,0,0,0,0,0,0,0,0,0,0,0,0,0],"sum_hessian":[1.3984913E3,3.8094977E2,1.01754156E3,2.7657394E2,7.409676E2,2.779115E2,1.0303825E2,6.976713E2,4.329631E1,1.9294247E2,8.3631485E1,8.9676865E1,1.3361391E1,1.7841786E2,9.949365E1],"tree_param":{"num_deleted":"0","num_feature":"46","num_nodes":"15","size_leaf_vector":"0"}},{"base_weights":[9.5983565E-2,-4.2105615E-1,2.905718E-1,-8.146864E-3,4.8532522E-1,2.7483797E-2,-2.7302837E-2,-8.421985E-1,-1.319789E-1,-4.4150393E-2,1.2415675E-2,4.1723497E-2,7.915908E-3,-6.563449E-2,-4.1902196E-2],"categories":[],"categories_nodes":[],"categories_segments":[],"categories_sizes":[],"default_left":[0,0,0,0,0,0,0,0,0,0,0,0,0,0,0],"id":23,"left_children":[1,7,3,5,11,-1,-1,13,9,-1,-1,-1,-1,-1,-1],"loss_changes":[1.4170428E2,4.6686073E1,5.963118E1,6.899688E1,3.2583984E1,0E0,0E0,4.4754944E0,3.9123863E1,0E0,0E0,0E0,0E0,0E0,0E0],"parents":[2147483647,0,0,2,2,3,3,1,1,8,8,4,4,7,7],"right_children":[2,8,4,6,12,-1,-1,14,10,-1,-1,-1,-1,-1,-1],"split_conditions":[4.4229676E-4,1.107388E-3,1.4315277E-2,-1.0798744E0,-9.716878E-2,2.7483797E-2,-2.7302837E-2,1.4693389E-2,1.3469301E-4,-4.4150393E-2,1.2415675E-2,4.1723497E-2,7.915908E-3,-6.563449E-2,-4.1902196E-2],"split_indices":[34,33,14,43,43,0,0,4,35,0,0,0,0,0,0],"split_type":[0,0,0,0,0,0,0,0,0,0,0,0,0,0,0],"sum_hessian":[1.4082233E3,3.8477274E2,1.02345056E3,4.0365848E2,6.197921E2,1.9698418E2,2.0667429E2,1.5622662E2,2.285461E2,8.561331E1,1.429328E2,4.4411194E2,1.7568015E2,9.0693695E1,6.553293E1],"tree_param":{"num_deleted":"0","num_feature":"46","num_nodes":"15","size_leaf_vector":"0"}},{"base_weights":[8.9977205E-2,-4.4077635E-1,2.8411263E-1,6.02801E-1,1.0343532E-1,-2.915272E-2,2.386284E-2,-8.483872E-1,-1.7792492E-1,-1.7709136E-2,1.5151578E-1,2.0323342E-2,5.074637E-2,-6.3252136E-2,-4.1872066E-2],"categories":[],"categories_nodes":[],"categories_segments":[],"categories_sizes":[],"default_left":[0,0,0,0,0,0,0,0,0,0,0,0,0,0,0],"id":24,"left_children":[1,7,3,11,5,-1,-1,13,9,-1,-1,-1,-1,-1,-1],"loss_changes":[1.41115E2,3.908396E1,5.763099E1,1.7270615E1,8.93609E1,0E0,0E0,2.9143677E0,4.8944904E1,0E0,0E0,0E0,0E0,0E0,0E0],"parents":[2147483647,0,0,2,2,4,4,1,1,8,8,3,3,7,7],"right_children":[2,8,4,12,6,-1,-1,14,10,-1,-1,-1,-1,-1,-1],"split_conditions":[4.4229676E-4,1.107388E-3,-1.0798744E0,5.5057993E-3,1.4315277E-2,-2.915272E-2,2.386284E-2,4.0137198E-2,1.659248E-2,-1.7709136E-2,1.5151578E-1,2.0323342E-2,5.074637E-2,-6.3252136E-2,-4.1872066E-2],"split_indices":[34,33,43,38,14,0,0,13,31,0,0,0,0,0,0],"split_type":[0,0,0,0,0,0,0,0,0,0,0,0,0,0,0],"sum_hessian":[1.3693492E3,3.6643747E2,1.00291174E3,3.6237106E2,6.4054065E2,2.0524147E2,4.3529922E2,1.4324194E2,2.2319554E2,2.1562634E2,7.5691967E0,1.2916508E2,2.3320596E2,9.5198326E1,4.8043613E1],"tree_param":{"num_deleted":"0","num_feature":"46","num_nodes":"15","size_leaf_vector":"0"}},{"base_weights":[5.7967912E-2,-2.3670435E-1,3.9723477E-1,1.3623556E0,2.5473332E-1,2.8974152E-1,-4.259782E-1,-2.0441303E-2,2.586107E-2,-4.2818468E-2,-9.454939E-3,9.041871E-3,4.948977E-2,1.151225E-1,8.483887E-2],"categories":[],"categories_nodes":[],"categories_segments":[],"categories_sizes":[],"default_left":[0,0,0,0,0,0,0,0,0,0,0,0,0,0,0],"id":25,"left_children":[1,5,3,13,7,11,9,-1,-1,-1,-1,-1,-1,-1,-1],"loss_changes":[1.3509816E2,7.207175E1,8.60729E1,1.5473175E0,4.1838985E1,1.3220684E1,3.3028145E1,0E0,0E0,0E0,0E0,0E0,0E0,0E0,0E0],"parents":[2147483647,0,0,2,2,1,1,4,4,6,6,5,5,3,3],"right_children":[2,6,4,14,8,12,10,-1,-1,-1,-1,-1,-1,-1,-1],"split_conditions":[3.8199227E-3,-1.0389283E0,9.954375E-1,4.4229676E-4,9.320843E-3,1.4315277E-2,3.6656624E-3,-2.0441303E-2,2.586107E-2,-4.2818468E-2,-9.454939E-3,9.041871E-3,4.948977E-2,1.151225E-1,8.483887E-2],"split_indices":[41,43,41,34,16,14,30,0,0,0,0,0,0,0,0],"split_type":[0,0,0,0,0,0,0,0,0,0,0,0,0,0,0],"sum_hessian":[1.3507032E3,7.226337E2,6.280695E2,8.043717E1,5.476323E2,1.9084583E2,5.317879E2,1.05916214E2,4.4171613E2,2.9880286E2,2.3298505E2,1.4336916E2,4.7476673E1,1.3390936E1,6.7046234E1],"tree_param":{"num_deleted":"0","num_feature":"46","num_nodes":"15","size_leaf_vector":"0"}},{"base_weights":[6.96099E-2,-3.0281875E-1,2.7891794E-1,1.5651225E0,2.1100749E-1,2.7350446E-2,-1.0154666E-2,1.8160975E-1,-4.2871305E-1,-3.9513033E-2,-0E0,6.733307E-3,6.6387385E-2,1.291752E-1,9.1163576E-2],"categories":[],"categories_nodes":[],"categories_segments":[],"categories_sizes":[],"default_left":[0,0,0,0,0,0,0,0,0,0,0,0,0,0,0],"id":26,"left_children":[1,7,3,13,5,-1,-1,11,9,-1,-1,-1,-1,-1,-1],"loss_changes":[1.0415041E2,2.9358494E1,7.4380875E1,2.0339813E0,5.9784794E1,0E0,0E0,6.294257E0,2.7402145E1,0E0,0E0,0E0,0E0,0E0,0E0],"parents":[2147483647,0,0,2,2,4,4,1,1,8,8,7,7,3,3],"right_children":[2,8,4,14,6,-1,-1,12,10,-1,-1,-1,-1,-1,-1],"split_conditions":[9.891154E-3,-1.0798744E0,1E0,4.4229676E-4,-2.6095304E-1,2.7350446E-2,-1.0154666E-2,5.063955E-1,1.0293475E0,-3.9513033E-2,-0E0,6.733307E-3,6.6387385E-2,1.291752E-1,9.1163576E-2],"split_indices":[25,43,25,34,43,0,0,44,44,0,0,0,0,0,0],"split_type":[0,0,0,0,0,0,0,0,0,0,0,0,0,0,0],"sum_hessian":[1.3357131E3,4.8027457E2,8.554386E2,4.2559956E1,8.128786E2,5.234497E2,2.8942892E2,9.87825E1,3.8149207E2,2.7423535E2,1.072567E2,9.038791E1,8.394591E0,1.3167494E1,2.9392464E1],"tree_param":{"num_deleted":"0","num_feature":"46","num_nodes":"15","size_leaf_vector":"0"}},{"base_weights":[6.8294086E-2,-3.1785658E-1,2.8577828E-1,1.5331749E0,2.1316196E-1,3.063898E-2,-3.9504236E-3,4.0248758E-1,-4.1497412E-1,-3.6679693E-2,-2.4076619E-3,3.1279713E-2,-1.2429833E-1,1.4016369E-1,8.991327E-2],"categories":[],"categories_nodes":[],"categories_segments":[],"categories_sizes":[],"default_left":[0,0,0,0,0,0,0,0,0,0,0,0,0,0,0],"id":27,"left_children":[1,7,3,13,5,-1,-1,11,9,-1,-1,-1,-1,-1,-1],"loss_changes":[1.13185425E2,3.3989273E1,7.7770164E1,3.7146454E0,5.548417E1,0E0,0E0,9.060147E0,2.234262E1,0E0,0E0,0E0,0E0,0E0,0E0],"parents":[2147483647,0,0,2,2,4,4,1,1,8,8,7,7,3,3],"right_children":[2,8,4,14,6,-1,-1,12,10,-1,-1,-1,-1,-1,-1],"split_conditions":[9.320843E-3,-1.2436585E0,1E0,4.4229676E-4,-6.294676E-1,3.063898E-2,-3.9504236E-3,6.100074E-1,8.9693415E-1,-3.6679693E-2,-2.4076619E-3,3.1279713E-2,-1.2429833E-1,1.4016369E-1,8.991327E-2],"split_indices":[16,43,16,34,43,0,0,40,44,0,0,0,0,0,0],"split_type":[0,0,0,0,0,0,0,0,0,0,0,0,0,0,0],"sum_hessian":[1.347387E3,4.851473E2,8.622396E2,4.7088814E1,8.151508E2,4.262583E2,3.8889255E2,5.736281E1,4.2778452E2,3.128382E2,1.1494633E2,5.5887733E1,1.4750769E0,1.0233111E1,3.6855705E1],"tree_param":{"num_deleted":"0","num_feature":"46","num_nodes":"15","size_leaf_vector":"0"}},{"base_weights":[6.884459E-2,-2.908295E-1,2.8046066E-1,1.5033965E0,2.206173E-1,2.7482921E-2,-8.653896E-3,-1.5493532E-1,-7.6628417E-1,-1.2719784E-2,1.2604298E-1,-4.056043E-2,-7.566012E-2,1.258451E-1,8.8425025E-2],"categories":[],"categories_nodes":[],"categories_segments":[],"categories_sizes":[],"default_left":[0,0,0,0,0,0,0,0,0,0,0,0,0,0,0],"id":28,"left_children":[1,7,3,13,5,-1,-1,9,11,-1,-1,-1,-1,-1,-1],"loss_changes":[1.0042903E2,3.1388306E1,6.0467323E1,1.5484467E0,5.4078945E1,0E0,0E0,2.874121E1,5.843075E0,0E0,0E0,0E0,0E0,0E0,0E0],"parents":[2147483647,0,0,2,2,4,4,1,1,7,7,8,8,3,3],"right_children":[2,8,4,14,6,-1,-1,10,12,-1,-1,-1,-1,-1,-1],"split_conditions":[9.891154E-3,9.995577E-1,1E0,4.4229676E-4,-2.6095304E-1,2.7482921E-2,-8.653896E-3,1.1417983E-2,1.5816199E0,-1.2719784E-2,1.2604298E-1,-4.056043E-2,-7.566012E-2,1.258451E-1,8.8425025E-2],"split_indices":[25,36,25,34,43,0,0,36,43,0,0,0,0,0,0],"split_type":[0,0,0,0,0,0,0,0,0,0,0,0,0,0,0],"sum_hessian":[1.3190851E3,4.8829877E2,8.3078625E2,3.840538E1,7.9238086E2,5.1062915E2,2.817517E2,3.8023E2,1.0806878E2,3.737675E2,6.4625278E0,7.727263E1,3.0796154E1,1.0603759E1,2.7801622E1],"tree_param":{"num_deleted":"0","num_feature":"46","num_nodes":"15","size_leaf_vector":"0"}},{"base_weights":[5.0375637E-2,-3.9307928E-1,2.1325366E-1,9.7273104E-2,1.6957383E-1,1.4952177E-2,-6.1420776E-2,-1.2923972E-1,-7.7776515E-1,-1.5668506E-2,1.7676945E-1,-6.6472374E-2,-3.9790135E-2],"categories":[],"categories_nodes":[],"categories_segments":[],"categories_sizes":[],"default_left":[0,0,0,0,0,0,0,0,0,0,0,0,0],"id":29,"left_children":[1,7,3,-1,5,-1,-1,9,11,-1,-1,-1,-1],"loss_changes":[9.388446E1,3.525501E1,5.1804253E1,0E0,5.64246E1,0E0,0E0,6.193065E1,5.278679E0,0E0,0E0,0E0,0E0],"parents":[2147483647,0,0,2,2,4,4,1,1,7,7,8,8],"right_children":[2,8,4,-1,6,-1,-1,10,12,-1,-1,-1,-1],"split_conditions":[4.4229676E-4,9.8625445E-1,1E0,9.7273104E-2,8.855368E-1,1.4952177E-2,-6.1420776E-2,7.183161E-3,1.3469301E-4,-1.5668506E-2,1.7676945E-1,-6.6472374E-2,-3.9790135E-2],"split_indices":[34,37,34,0,43,0,0,37,35,0,0,0,0],"split_type":[0,0,0,0,0,0,0,0,0,0,0,0,0],"sum_hessian":[1.2997917E3,3.488151E2,9.509766E2,3.165237E1,9.193243E2,8.7490967E2,4.4414566E1,2.0731685E2,1.4149825E2,1.9989636E2,7.4204955E0,6.1520027E1,7.9978226E1],"tree_param":{"num_deleted":"0","num_feature":"46","num_nodes":"13","size_leaf_vector":"0"}},{"base_weights":[6.133385E-2,-2.3547748E-1,2.9376838E-1,2.3966667E-1,-4.8341012E-1,3.3954084E-1,-9.9080634E-1,5.754829E-3,3.2860152E-2,-4.2931847E-2,-5.6658736E-3,2.1271994E-2,-3.0933514E-2,-7.331849E-2,-7.320966E-3],"categories":[],"categories_nodes":[],"categories_segments":[],"categories_sizes":[],"default_left":[0,0,0,0,0,0,0,0,0,0,0,0,0,0,0],"id":30,"left_children":[1,3,5,11,9,7,13,-1,-1,-1,-1,-1,-1,-1,-1],"loss_changes":[9.076834E1,6.809209E1,4.3357903E1,1.1374243E1,2.4711395E1,2.8054497E1,2.3516064E0,0E0,0E0,0E0,0E0,0E0,0E0,0E0,0E0],"parents":[2147483647,0,0,1,1,2,2,5,5,4,4,3,3,6,6],"right_children":[2,4,6,12,10,8,14,-1,-1,-1,-1,-1,-1,-1,-1],"split_conditions":[1.4315277E-2,-1.0798744E0,1.5816199E0,-3.2453766E-1,1.3469301E-4,3.8199227E-3,1.6929681E0,5.754829E-3,3.2860152E-2,-4.2931847E-2,-5.6658736E-3,2.1271994E-2,-3.0933514E-2,-7.331849E-2,-7.320966E-3],"split_indices":[14,43,43,44,35,41,44,0,0,0,0,0,0,0,0],"split_type":[0,0,0,0,0,0,0,0,0,0,0,0,0,0,0],"sum_hessian":[1.3151517E3,5.7727905E2,7.378727E2,1.9771683E2,3.795622E2,7.127497E2,2.512296E1,2.7288367E2,4.3986606E2,2.6821555E2,1.1134666E2,1.7761378E2,2.0103052E1,2.1999508E1,3.1234517E0],"tree_param":{"num_deleted":"0","num_feature":"46","num_nodes":"15","size_leaf_vector":"0"}},{"base_weights":[3.8374458E-2,-2.033668E-1,3.225253E-1,1.3133327E0,1.8907498E-1,2.2839233E-1,-3.4355792E-1,-4.1473147E-2,-1.9958492E-3,-1.332597E-2,2.4864472E-2,4.268333E-2,6.5381043E-3,1.0870573E-1,8.252089E-2],"categories":[],"categories_nodes":[],"categories_segments":[],"categories_sizes":[],"default_left":[0,0,0,0,0,0,0,0,0,0,0,0,0,0,0],"id":31,"left_children":[1,5,3,13,9,11,7,-1,-1,-1,-1,-1,-1,-1,-1],"loss_changes":[8.778934E1,4.1805634E1,7.740656E1,6.7134094E-1,3.767612E1,8.978824E0,4.600733E1,0E0,0E0,0E0,0E0,0E0,0E0,0E0,0E0],"parents":[2147483647,0,0,2,2,1,1,6,6,4,4,5,5,3,3],"right_children":[2,6,4,14,10,12,8,-1,-1,-1,-1,-1,-1,-1,-1],"split_conditions":[3.8199227E-3,-1.0798744E0,9.954375E-1,4.4229676E-4,1.3536257E-3,9.980079E-1,1.107388E-3,-4.1473147E-2,-1.9958492E-3,-1.332597E-2,2.4864472E-2,4.268333E-2,6.5381043E-3,1.0870573E-1,8.252089E-2],"split_indices":[41,43,41,34,19,4,33,0,0,0,0,0,0,0,0],"split_type":[0,0,0,0,0,0,0,0,0,0,0,0,0,0,0],"sum_hessian":[1.2773594E3,6.8990454E2,5.8745483E2,6.937662E1,5.1807825E2,1.6878633E2,5.211182E2,2.7382974E2,2.4728848E2,1.6702919E2,3.5104904E2,3.966235E1,1.2912398E2,1.0761079E1,5.8615543E1],"tree_param":{"num_deleted":"0","num_feature":"46","num_nodes":"15","size_leaf_vector":"0"}},{"base_weights":[5.026305E-2,-2.1913156E-1,2.6684475E-1,5.457403E-1,8.313501E-3,2.5348327E-1,-3.9860308E-1,-1.7219918E-2,1.6596422E-2,-4.1620195E-2,-1.4458639E-2,2.0767039E-2,-8.737485E-2,6.1173376E-2,3.0813916E-2],"categories":[],"categories_nodes":[],"categories_segments":[],"categories_sizes":[],"default_left":[0,0,0,0,0,0,0,0,0,0,0,0,0,0,0],"id":32,"left_children":[1,5,3,13,7,11,9,-1,-1,-1,-1,-1,-1,-1,-1],"loss_changes":[7.432719E1,4.8167595E1,5.084323E1,1.0036247E1,2.3844103E1,1.4602221E1,1.6869148E1,0E0,0E0,0E0,0E0,0E0,0E0,0E0,0E0],"parents":[2147483647,0,0,2,2,1,1,4,4,6,6,5,5,3,3],"right_children":[2,6,4,14,8,12,10,-1,-1,-1,-1,-1,-1,-1,-1],"split_conditions":[1.4315277E-2,-1.16608E0,-3.8379124E-1,-1.2436585E0,3.8199227E-3,-1.450561E-1,1.4693389E-2,-1.7219918E-2,1.6596422E-2,-4.1620195E-2,-1.4458639E-2,2.0767039E-2,-8.737485E-2,6.1173376E-2,3.0813916E-2],"split_indices":[14,43,43,43,41,44,4,0,0,0,0,0,0,0,0],"split_type":[0,0,0,0,0,0,0,0,0,0,0,0,0,0,0],"sum_hessian":[1.2733721E3,5.6715735E2,7.0621466E2,3.3931647E2,3.668982E2,1.5582343E2,4.1133395E2,1.7376158E2,1.931366E2,1.8047318E2,2.3086078E2,1.503599E2,5.463524E0,5.9113785E1,2.8020267E2],"tree_param":{"num_deleted":"0","num_feature":"46","num_nodes":"15","size_leaf_vector":"0"}},{"base_weights":[6.8512484E-2,2.2764339E-1,-2.9719615E-1,1.5292785E-1,1.5028536E0,-1.6320776E-2,2.0245377E-2,8.304628E-2,-5.4806924E-1,1.2419946E-2,-6.360698E-2,-4.8005525E-2,-1.6180817E-2,1.4944817E-1,8.980418E-2],"categories":[],"categories_nodes":[],"categories_segments":[],"categories_sizes":[],"default_left":[0,0,0,0,0,0,0,0,0,0,0,0,0,0,0],"id":33,"left_children":[1,3,7,5,13,-1,-1,9,11,-1,-1,-1,-1,-1,-1],"loss_changes":[7.430603E1,8.449019E1,3.6992397E1,5.1252525E1,4.260689E0,0E0,0E0,1.6637627E1,1.2310913E1,0E0,0E0,0E0,0E0,0E0,0E0],"parents":[2147483647,0,0,1,1,3,3,2,2,7,7,8,8,4,4],"right_children":[2,4,8,6,14,-1,-1,10,12,-1,-1,-1,-1,-1,-1],"split_conditions":[9.9067914E-1,7.183161E-3,-9.160901E-1,9.320843E-3,4.4229676E-4,-1.6320776E-2,2.0245377E-2,8.5928845E-1,1.3469301E-4,1.2419946E-2,-6.360698E-2,-4.8005525E-2,-1.6180817E-2,1.4944817E-1,8.980418E-2],"split_indices":[37,37,43,16,34,0,0,21,18,0,0,0,0,0,0],"split_type":[0,0,0,0,0,0,0,0,0,0,0,0,0,0,0],"sum_hessian":[1.2765978E3,8.8989844E2,3.8669934E2,8.4097656E2,4.8921864E1,2.3219719E2,6.0877936E2,1.5350981E2,2.3318953E2,1.3983614E2,1.3673672E1,1.4706602E2,8.6123505E1,7.384718E0,4.1537148E1],"tree_param":{"num_deleted":"0","num_feature":"46","num_nodes":"15","size_leaf_vector":"0"}},{"base_weights":[5.561508E-2,-3.7646562E-1,1.7325896E-1,1.6233375E0,1.082458E-1,1.6325148E-2,-1.6185697E-2,-6.487174E-1,-3.9414212E-2,1.22444585E-1,-1.3772533E-2,-3.2796938E-2,-7.8032434E-2,1.3867112E-1,9.880834E-2],"categories":[],"categories_nodes":[],"categories_segments":[],"categories_sizes":[],"default_left":[0,0,0,0,0,0,0,0,0,0,0,0,0,0,0],"id":34,"left_children":[1,7,3,13,5,-1,-1,11,9,-1,-1,-1,-1,-1,-1],"loss_changes":[6.3312893E1,2.4328243E1,9.204556E1,1.3953934E0,4.5667557E1,0E0,0E0,1.157415E1,3.778754E1,0E0,0E0,0E0,0E0,0E0,0E0],"parents":[2147483647,0,0,2,2,4,4,1,1,8,8,7,7,3,3],"right_children":[2,8,4,14,6,-1,-1,12,10,-1,-1,-1,-1,-1,-1],"split_conditions":[6.379043E-3,1.3536257E-3,9.972379E-1,4.4229676E-4,9.9067914E-1,1.6325148E-2,-1.6185697E-2,9.8067236E-1,9.5682627E-1,1.22444585E-1,-1.3772533E-2,-3.2796938E-2,-7.8032434E-2,1.3867112E-1,9.880834E-2],"split_indices":[6,19,6,34,37,0,0,40,19,0,0,0,0,0,0],"split_type":[0,0,0,0,0,0,0,0,0,0,0,0,0,0,0],"sum_hessian":[1.2457389E3,2.662032E2,9.7953577E2,4.1719185E1,9.378166E2,6.742093E2,2.636073E2,1.468866E2,1.1931658E2,9.533265E0,1.0978332E2,1.1431938E2,3.2567223E1,8.26158E0,3.3457603E1],"tree_param":{"num_deleted":"0","num_feature":"46","num_nodes":"15","size_leaf_vector":"0"}},{"base_weights":[2.3943765E-2,-3.2321164E-1,1.7845485E-1,1.0417542E-1,1.5408587E0,1.378359E-2,-3.311078E-2,-4.4959346E-3,-5.1464856E-1,-4.585612E-2,-1.3568353E-2,5.4082065E-3,-4.67402E-2,1.5925027E-1,8.8283226E-2],"categories":[],"categories_nodes":[],"categories_segments":[],"categories_sizes":[],"default_left":[0,0,0,0,0,0,0,0,0,0,0,0,0,0,0],"id":35,"left_children":[1,7,3,5,13,-1,-1,11,9,-1,-1,-1,-1,-1,-1],"loss_changes":[6.726817E1,2.3470108E1,8.758409E1,5.1611313E1,6.8076553E0,0E0,0E0,8.886221E0,1.3059067E1,0E0,0E0,0E0,0E0,0E0,0E0],"parents":[2147483647,0,0,2,2,3,3,1,1,8,8,7,7,4,4],"right_children":[2,8,4,6,14,-1,-1,12,10,-1,-1,-1,-1,-1,-1],"split_conditions":[5.5057993E-3,-9.5703614E-1,7.183161E-3,9.7502834E-1,4.4229676E-4,1.378359E-2,-3.311078E-2,7.9451555E-1,1.3469301E-4,-4.585612E-2,-1.3568353E-2,5.4082065E-3,-4.67402E-2,1.5925027E-1,8.8283226E-2],"split_indices":[38,43,37,40,34,0,0,21,18,0,0,0,0,0,0],"split_type":[0,0,0,0,0,0,0,0,0,0,0,0,0,0,0],"sum_hessian":[1.2541097E3,3.8586728E2,8.6824243E2,8.236699E2,4.457247E1,7.031768E2,1.2049314E2,1.4519543E2,2.4067186E2,1.5260367E2,8.806819E1,1.2925706E2,1.5938379E1,8.127207E0,3.6445267E1],"tree_param":{"num_deleted":"0","num_feature":"46","num_nodes":"15","size_leaf_vector":"0"}},{"base_weights":[3.974587E-2,-1.5313749E-1,2.7764446E-1,1.293392E0,1.4277385E-1,-1.8853797E-2,2.3792524E-2,9.205528E-2,-3.4485686E-1,-4.560638E-2,-3.0878058E-3,-3.3316747E-3,3.0023068E-2,1.0514867E-1,8.0696166E-2],"categories":[],"categories_nodes":[],"categories_segments":[],"categories_sizes":[],"default_left":[0,0,0,0,0,0,0,0,0,0,0,0,0,0,0],"id":36,"left_children":[1,7,3,13,5,-1,-1,11,9,-1,-1,-1,-1,-1,-1],"loss_changes":[5.718045E1,3.2369156E1,7.618808E1,6.0559845E-1,4.558667E1,0E0,0E0,1.555978E1,3.9426617E1,0E0,0E0,0E0,0E0,0E0,0E0],"parents":[2147483647,0,0,2,2,4,4,1,1,8,8,7,7,3,3],"right_children":[2,8,4,14,6,-1,-1,12,10,-1,-1,-1,-1,-1,-1],"split_conditions":[3.8199227E-3,-5.8852154E-1,9.954375E-1,4.4229676E-4,1.3536257E-3,-1.8853797E-2,2.3792524E-2,1.718429E-1,1.107388E-3,-4.560638E-2,-3.0878058E-3,-3.3316747E-3,3.0023068E-2,1.0514867E-1,8.0696166E-2],"split_indices":[41,43,41,34,19,0,0,44,33,0,0,0,0,0,0],"split_type":[0,0,0,0,0,0,0,0,0,0,0,0,0,0,0],"sum_hessian":[1.2452952E3,6.8737177E2,5.5792334E2,6.50545E1,4.9286887E2,1.6534421E2,3.2752466E2,3.0129367E2,3.8607812E2,1.7911096E2,2.0696716E2,2.1588867E2,8.540498E1,1.2096853E1,5.2957645E1],"tree_param":{"num_deleted":"0","num_feature":"46","num_nodes":"15","size_leaf_vector":"0"}},{"base_weights":[5.7466775E-2,-3.0580565E-1,1.8457833E-1,9.3235955E-2,1.488398E-1,2.6814146E-2,-7.8073074E-4,-6.282934E-1,-1.239379E-1,-1.31944595E-2,1.3955058E-1,-6.192967E-2,-3.1918578E-2],"categories":[],"categories_nodes":[],"categories_segments":[],"categories_sizes":[],"default_left":[0,0,0,0,0,0,0,0,0,0,0,0,0],"id":37,"left_children":[1,7,3,-1,5,-1,-1,11,9,-1,-1,-1,-1],"loss_changes":[5.7523006E1,1.8787477E1,4.0041027E1,0E0,3.6936882E1,0E0,0E0,4.8872643E0,3.444272E1,0E0,0E0,0E0,0E0],"parents":[2147483647,0,0,2,2,4,4,1,1,8,8,7,7],"right_children":[2,8,4,-1,6,-1,-1,12,10,-1,-1,-1,-1],"split_conditions":[4.4229676E-4,1.107388E-3,1E0,9.3235955E-2,-1.0389283E0,2.6814146E-2,-7.8073074E-4,-1.4648918E0,1.659248E-2,-1.31944595E-2,1.3955058E-1,-6.192967E-2,-3.1918578E-2],"split_indices":[34,33,34,0,43,0,0,44,31,0,0,0,0],"split_type":[0,0,0,0,0,0,0,0,0,0,0,0,0],"sum_hessian":[1.2457167E3,3.2249384E2,9.232228E2,2.5880222E1,8.973425E2,3.4642673E2,5.5091583E2,1.1578873E2,2.0670512E2,2.0021149E2,6.493636E0,3.6794243E1,7.8994484E1],"tree_param":{"num_deleted":"0","num_feature":"46","num_nodes":"13","size_leaf_vector":"0"}},{"base_weights":[2.1616029E-2,8.9641824E-2,-6.338752E-1,-3.1363514E-1,1.8402329E-1,1.0612198E-1,8.017487E-3,-3.8010787E-2,-4.162375E-3,-7.8306293E-1,-1.5345283E-1,2.1321291E-2,-7.954248E-2,-6.0630813E-2,-1.5227399E-2],"categories":[],"categories_nodes":[],"categories_segments":[],"categories_sizes":[],"default_left":[0,0,0,0,0,0,0,0,0,0,0,0,0,0,0],"id":38,"left_children":[1,3,9,7,5,-1,-1,-1,-1,13,11,-1,-1,-1,-1],"loss_changes":[5.445895E1,4.218065E1,8.050404E0,1.3577406E1,7.99815E1,0E0,0E0,0E0,0E0,6.136219E0,1.4002632E1,0E0,0E0,0E0,0E0],"parents":[2147483647,0,0,1,1,4,4,3,3,2,2,10,10,9,9],"right_children":[2,4,10,8,6,-1,-1,-1,-1,14,12,-1,-1,-1,-1],"split_conditions":[9.69974E-1,6.379043E-3,1.3622568E0,1.3536257E-3,1E0,1.0612198E-1,8.017487E-3,-3.8010787E-2,-4.162375E-3,1.659248E-2,2.4563496E0,2.1321291E-2,-7.954248E-2,-6.0630813E-2,-1.5227399E-2],"split_indices":[36,6,44,19,6,0,0,0,0,31,45,0,0,0,0],"split_type":[0,0,0,0,0,0,0,0,0,0,0,0,0,0,0],"sum_hessian":[1.2228601E3,1.1082676E3,1.14592545E2,2.0976773E2,8.984998E2,3.7949146E1,8.6055066E2,1.025716E2,1.0719612E2,8.708397E1,2.750858E1,1.8907612E1,8.600966E0,6.998612E1,1.7097843E1],"tree_param":{"num_deleted":"0","num_feature":"46","num_nodes":"15","size_leaf_vector":"0"}},{"base_weights":[5.4829624E-2,-1.3219973E-1,2.7956074E-1,8.366226E-2,1.539469E-1,-1.2738223E-2,2.2098863E-2,1.1083934E-1,-3.148639E-1,-4.216878E-2,-3.1326816E-3,1.3750412E-2,-2.4150146E-2],"categories":[],"categories_nodes":[],"categories_segments":[],"categories_sizes":[],"default_left":[0,0,0,0,0,0,0,0,0,0,0,0,0],"id":39,"left_children":[1,7,3,-1,5,-1,-1,11,9,-1,-1,-1,-1],"loss_changes":[5.0638634E1,2.9202099E1,6.73048E1,0E0,3.0216042E1,0E0,0E0,1.2924021E1,3.217597E1,0E0,0E0,0E0,0E0],"parents":[2147483647,0,0,2,2,4,4,1,1,8,8,7,7],"right_children":[2,8,4,-1,6,-1,-1,12,10,-1,-1,-1,-1],"split_conditions":[3.8199227E-3,-6.294676E-1,9.954375E-1,8.366226E-2,1.3536257E-3,-1.2738223E-2,2.2098863E-2,9.91256E-1,1.107388E-3,-4.216878E-2,-3.1326816E-3,1.3750412E-2,-2.4150146E-2],"split_indices":[41,43,41,0,19,0,0,40,33,0,0,0,0],"split_type":[0,0,0,0,0,0,0,0,0,0,0,0,0],"sum_hessian":[1.2038353E3,6.5667834E2,5.47157E2,6.16541E1,4.8550287E2,1.6547656E2,3.200263E2,2.8142236E2,3.7525598E2,1.7007748E2,2.0517851E2,2.3424434E2,4.7178032E1],"tree_param":{"num_deleted":"0","num_feature":"46","num_nodes":"13","size_leaf_vector":"0"}},{"base_weights":[3.525351E-2,1.7544867E-1,-2.639669E-1,1.0787094E-1,1.4396718E0,1.323673E-2,-2.9477026E-2,1.4218304E-2,-4.6426958E-1,7.6897796E-3,-5.3479247E-2,-3.906095E-2,-6.7596855E-3,1.4007708E-1,8.518372E-2],"categories":[],"categories_nodes":[],"categories_segments":[],"categories_sizes":[],"default_left":[0,0,0,0,0,0,0,0,0,0,0,0,0,0,0],"id":40,"left_children":[1,3,7,5,13,-1,-1,9,11,-1,-1,-1,-1,-1,-1],"loss_changes":[5.0627357E1,6.997613E1,2.1516373E1,3.9626907E1,3.2281494E0,0E0,0E0,1.3360988E1,1.0031761E1,0E0,0E0,0E0,0E0,0E0,0E0],"parents":[2147483647,0,0,1,1,3,3,2,2,7,7,8,8,4,4],"right_children":[2,4,8,6,14,-1,-1,10,12,-1,-1,-1,-1,-1,-1],"split_conditions":[9.944942E-1,7.183161E-3,-9.160901E-1,9.7502834E-1,4.4229676E-4,1.323673E-2,-2.9477026E-2,8.171622E-1,7.183161E-3,7.6897796E-3,-5.3479247E-2,-3.906095E-2,-6.7596855E-3,1.4007708E-1,8.518372E-2],"split_indices":[37,37,43,40,34,0,0,21,40,0,0,0,0,0,0],"split_type":[0,0,0,0,0,0,0,0,0,0,0,0,0,0,0],"sum_hessian":[1.206797E3,8.221977E2,3.8459927E2,7.8080634E2,4.1391388E1,6.69884E2,1.10922386E2,1.6073528E2,2.2386401E2,1.4333426E2,1.7401014E1,1.6596423E2,5.789978E1,7.0425057E0,3.434888E1],"tree_param":{"num_deleted":"0","num_feature":"46","num_nodes":"15","size_leaf_vector":"0"}},{"base_weights":[3.5532698E-2,-1.8290615E-1,2.1457072E-1,3.339722E-1,-1.7468908E-1,-4.9599916E-1,-1.5032149E-2,1.1830942E-1,-9.822754E-3,1.3188116E-3,-6.606603E-2,-2.1867136E-2,2.6070906E-2,-4.1221444E-2,-3.979783E-3],"categories":[],"categories_nodes":[],"categories_segments":[],"categories_sizes":[],"default_left":[0,0,0,0,0,0,0,0,0,0,0,0,0,0,0],"id":41,"left_children":[1,5,3,11,9,13,7,-1,-1,-1,-1,-1,-1,-1,-1],"loss_changes":[4.691069E1,2.8289066E1,3.0690819E1,1.9961128E1,2.4901611E1,1.0211765E1,8.4172646E1,0E0,0E0,0E0,0E0,0E0,0E0,0E0,0E0],"parents":[2147483647,0,0,2,2,1,1,6,6,4,4,3,3,5,5],"right_children":[2,6,4,12,10,14,8,-1,-1,-1,-1,-1,-1,-1,-1],"split_conditions":[1.4315277E-2,1.4693389E-2,7.626986E-1,4.4229676E-4,8.8015676E-1,7.7273035E-1,9.980079E-1,1.1830942E-1,-9.822754E-3,1.3188116E-3,-6.606603E-2,-2.1867136E-2,2.6070906E-2,-4.1221444E-2,-3.979783E-3],"split_indices":[14,4,43,34,28,8,4,0,0,0,0,0,0,0,0],"split_type":[0,0,0,0,0,0,0,0,0,0,0,0,0,0,0],"sum_hessian":[1.1989581E3,5.39641E2,6.5931714E2,5.0489435E2,1.544228E2,1.878772E2,3.517638E2,2.3976658E1,3.2778714E2,1.24866325E2,2.9556477E1,4.117156E1,4.6372278E2,1.4539493E2,4.248226E1],"tree_param":{"num_deleted":"0","num_feature":"46","num_nodes":"15","size_leaf_vector":"0"}},{"base_weights":[4.62743E-2,1.0441298E-1,-5.6025165E-1,-2.231568E-1,1.8449922E-1,9.982702E-2,8.210518E-3,-4.998802E-2,-6.3855215E-3,-8.626337E-1,-3.6273026E-1,1.0748519E-2,-3.688244E-2,-6.416153E-2,-2.6670927E-2],"categories":[],"categories_nodes":[],"categories_segments":[],"categories_sizes":[],"default_left":[0,0,0,0,0,0,0,0,0,0,0,0,0,0,0],"id":42,"left_children":[1,3,9,7,5,-1,-1,-1,-1,13,11,-1,-1,-1,-1],"loss_changes":[4.1689465E1,2.8357641E1,5.9102516E0,1.4126654E1,6.931918E1,0E0,0E0,0E0,0E0,1.6581116E0,6.5103617E0,0E0,0E0,0E0,0E0],"parents":[2147483647,0,0,1,1,4,4,3,3,2,2,10,10,9,9],"right_children":[2,4,10,8,6,-1,-1,-1,-1,14,12,-1,-1,-1,-1],"split_conditions":[9.995577E-1,6.379043E-3,5.180706E-3,1.9921353E-3,1E0,9.982702E-2,8.210518E-3,-4.998802E-2,-6.3855215E-3,1.659248E-2,9.323316E-1,1.0748519E-2,-3.688244E-2,-6.416153E-2,-2.6670927E-2],"split_indices":[36,6,12,5,6,0,0,0,0,31,5,0,0,0,0],"split_type":[0,0,0,0,0,0,0,0,0,0,0,0,0,0,0],"sum_hessian":[1.1838401E3,1.0806854E3,1.0315464E2,2.118354E2,8.6885004E2,3.7766235E1,8.310838E2,4.038919E1,1.7144621E2,4.0165913E1,6.298873E1,1.6765673E1,4.6223057E1,3.2206387E1,7.9595256E0],"tree_param":{"num_deleted":"0","num_feature":"46","num_nodes":"15","size_leaf_vector":"0"}},{"base_weights":[2.1137856E-2,-2.4163312E-1,1.6650806E-1,1.4733462E0,9.487541E-2,2.0982834E-2,-5.293288E-3,-1.9656006E-1,-9.990875E-1,-2.0705607E-2,1.0944528E-2,9.076423E-2,1.6160977E-1,-7.182262E-2,-2.0331396E-2],"categories":[],"categories_nodes":[],"categories_segments":[],"categories_sizes":[],"default_left":[0,0,0,0,0,0,0,0,0,0,0,0,0,0,0],"id":43,"left_children":[1,7,3,11,5,-1,-1,9,13,-1,-1,-1,-1,-1,-1],"loss_changes":[4.5389717E1,1.4204969E1,7.138606E1,2.6836014E0,2.8180777E1,0E0,0E0,1.6783613E1,1.083683E0,0E0,0E0,0E0,0E0,0E0,0E0],"parents":[2147483647,0,0,2,2,4,4,1,1,7,7,3,3,8,8],"right_children":[2,8,4,12,6,-1,-1,10,14,-1,-1,-1,-1,-1,-1],"split_conditions":[9.320843E-3,1.5816199E0,1E0,4.3402097E-1,-7.932519E-1,2.0982834E-2,-5.293288E-3,8.9693415E-1,1.6929681E0,-2.0705607E-2,1.0944528E-2,9.076423E-2,1.6160977E-1,-7.182262E-2,-2.0331396E-2],"split_indices":[16,43,16,36,43,0,0,44,44,0,0,0,0,0,0],"split_type":[0,0,0,0,0,0,0,0,0,0,0,0,0,0,0],"sum_hessian":[1.1881534E3,4.2274442E2,7.65409E2,3.9453285E1,7.2595575E2,3.202989E2,4.0565683E2,3.9944226E2,2.3302126E1,3.028916E2,9.6550674E1,3.621129E1,3.2419944E0,2.045226E1,2.8498685E0],"tree_param":{"num_deleted":"0","num_feature":"46","num_nodes":"15","size_leaf_vector":"0"}},{"base_weights":[4.5617256E-2,-1.7873554E-1,2.1912687E-1,2.6133856E-1,-3.1824797E-1,5.6065017E-1,1.0681444E-1,-2.1903101E-2,1.671357E-2,-1.36795165E-2,-4.7854826E-2,1.20589435E-2,8.467248E-2,5.0795138E-2,2.6417037E-2],"categories":[],"categories_nodes":[],"categories_segments":[],"categories_sizes":[],"default_left":[0,0,0,0,0,0,0,0,0,0,0,0,0,0,0],"id":44,"left_children":[1,3,5,11,9,13,7,-1,-1,-1,-1,-1,-1,-1,-1],"loss_changes":[4.6542698E1,3.2010452E1,2.5750988E1,9.81741E0,1.7700115E1,5.301586E0,3.2312485E1,0E0,0E0,0E0,0E0,0E0,0E0,0E0,0E0],"parents":[2147483647,0,0,1,1,2,2,6,6,4,4,3,3,5,5],"right_children":[2,4,6,12,10,14,8,-1,-1,-1,-1,-1,-1,-1,-1],"split_conditions":[1.4315277E-2,-1.2027125E0,-9.5703614E-1,-1.2385312E0,9.566146E-1,-1.2027125E0,5.180706E-3,-2.1903101E-2,1.671357E-2,-1.36795165E-2,-4.7854826E-2,1.20589435E-2,8.467248E-2,5.0795138E-2,2.6417037E-2],"split_indices":[14,43,43,43,12,43,12,0,0,0,0,0,0,0,0],"split_type":[0,0,0,0,0,0,0,0,0,0,0,0,0,0,0],"sum_hessian":[1.1950594E3,5.207573E2,6.743022E2,1.2502759E2,3.957297E2,1.6631477E2,5.0798743E2,1.2639657E2,3.8159085E2,3.104603E2,8.526942E1,1.1633698E2,8.690602E0,7.249108E1,9.3823685E1],"tree_param":{"num_deleted":"0","num_feature":"46","num_nodes":"15","size_leaf_vector":"0"}},{"base_weights":[3.60877E-2,-2.7580246E-1,1.21581145E-1,1.5801821E0,5.554284E-2,1.5858043E-2,-7.971418E-3,-4.1515386E-1,1.3263966E-1,1.0807781E-1,-1.0267511E-2,1.2450901E-2,-3.537954E-2,1.450159E-1,9.1186926E-2],"categories":[],"categories_nodes":[],"categories_segments":[],"categories_sizes":[],"default_left":[0,0,0,0,0,0,0,0,0,0,0,0,0,0,0],"id":45,"left_children":[1,7,3,13,5,-1,-1,11,9,-1,-1,-1,-1,-1,-1],"loss_changes":[3.1167885E1,1.4358969E1,8.8188934E1,3.74292E0,2.8423677E1,0E0,0E0,1.3511326E1,2.776687E1,0E0,0E0,0E0,0E0,0E0,0E0],"parents":[2147483647,0,0,2,2,4,4,1,1,8,8,7,7,3,3],"right_children":[2,8,4,14,6,-1,-1,12,10,-1,-1,-1,-1,-1,-1],"split_conditions":[6.379043E-3,1.9327631E-2,1E0,4.4229676E-4,-6.294676E-1,1.5858043E-2,-7.971418E-3,-1.1208204E0,9.76405E-1,1.0807781E-1,-1.0267511E-2,1.2450901E-2,-3.537954E-2,1.450159E-1,9.1186926E-2],"split_indices":[6,39,6,34,43,0,0,43,39,0,0,0,0,0,0],"split_type":[0,0,0,0,0,0,0,0,0,0,0,0,0,0,0],"sum_hessian":[1.1693833E3,2.5107512E2,9.1830817E2,3.947032E1,8.788379E2,4.3016348E2,4.4867438E2,1.8750099E2,6.3574135E1,1.0179288E1,5.3394848E1,3.059056E1,1.5691043E2,9.236922E0,3.0233398E1],"tree_param":{"num_deleted":"0","num_feature":"46","num_nodes":"15","size_leaf_vector":"0"}},{"base_weights":[1.1330114E-2,-2.1189456E-1,1.3446258E-1,1.4386892E0,6.571581E-2,2.2213321E-2,-4.2213276E-3,-1.629679E-1,-1.0585431E0,-3.063325E-3,-2.6603526E-2,1.2450722E-1,8.451034E-2,-7.633574E-2,-1.4725118E-2],"categories":[],"categories_nodes":[],"categories_segments":[],"categories_sizes":[],"default_left":[0,0,0,0,0,0,0,0,0,0,0,0,0,0,0],"id":46,"left_children":[1,7,3,11,5,-1,-1,9,13,-1,-1,-1,-1,-1,-1],"loss_changes":[3.2179913E1,1.6994444E1,6.745711E1,1.7180557E0,2.5080322E1,0E0,0E0,1.0880605E1,1.4802151E0,0E0,0E0,0E0,0E0,0E0,0E0],"parents":[2147483647,0,0,2,2,4,4,1,1,7,7,3,3,8,8],"right_children":[2,8,4,12,6,-1,-1,10,14,-1,-1,-1,-1,-1,-1],"split_conditions":[9.320843E-3,1.5816199E0,9.998653E-1,4.4229676E-4,-9.979822E-1,2.2213321E-2,-4.2213276E-3,9.663236E-1,1.6929681E0,-3.063325E-3,-2.6603526E-2,1.2450722E-1,8.451034E-2,-7.633574E-2,-1.4725118E-2],"split_indices":[16,43,16,34,43,0,0,42,44,0,0,0,0,0,0],"split_type":[0,0,0,0,0,0,0,0,0,0,0,0,0,0,0],"sum_hessian":[1.1708204E3,4.1571194E2,7.551085E2,3.7491272E1,7.1761725E2,2.331318E2,4.844854E2,3.934084E2,2.2303556E1,2.6472623E2,1.2868217E2,9.318993E0,2.8172281E1,1.9821625E1,2.481931E0],"tree_param":{"num_deleted":"0","num_feature":"46","num_nodes":"15","size_leaf_vector":"0"}},{"base_weights":[2.0634403E-2,7.349786E-2,-5.5593187E-1,5.5025283E-2,1.03656076E-1,1.056459E-2,-1.2176105E-2,-7.199935E-1,-8.5826576E-2,-2.832672E-2,6.57305E-2,-3.8756005E-2,-6.8074465E-2],"categories":[],"categories_nodes":[],"categories_segments":[],"categories_sizes":[],"default_left":[0,0,0,0,0,0,0,0,0,0,0,0,0],"id":47,"left_children":[1,3,7,5,-1,-1,-1,11,9,-1,-1,-1,-1],"loss_changes":[3.549366E1,2.9160542E1,7.395916E0,2.6332293E1,0E0,0E0,0E0,2.6146202E0,9.48089E0,0E0,0E0,0E0,0E0],"parents":[2147483647,0,0,1,1,3,3,2,2,8,8,7,7],"right_children":[2,4,8,6,-1,-1,-1,12,10,-1,-1,-1,-1],"split_conditions":[1E0,1.1417983E-2,1.3536257E-3,9.882934E-1,1.03656076E-1,1.056459E-2,-1.2176105E-2,4.0137198E-2,1.3622568E0,-2.832672E-2,6.57305E-2,-3.8756005E-2,-6.8074465E-2],"split_indices":[36,36,19,37,0,0,0,13,44,0,0,0,0],"split_type":[0,0,0,0,0,0,0,0,0,0,0,0,0],"sum_hessian":[1.1666385E3,1.069076E3,9.756244E1,1.056302E3,1.2774073E1,7.354886E2,3.208134E2,7.1986206E1,2.557623E1,1.962684E1,5.9493885E0,5.075843E1,2.1227777E1],"tree_param":{"num_deleted":"0","num_feature":"46","num_nodes":"13","size_leaf_vector":"0"}},{"base_weights":[-2.9110045E-3,-2.5109878E-1,1.0943212E-1,4.7902532E-2,1.4405332E0,3.6865685E-2,-2.4243423E-3,-9.863599E-1,-2.0998387E-1,-9.936162E-3,-4.1092817E-2,-7.920766E-2,-2.898753E-3,1.2941822E-1,8.517485E-2],"categories":[],"categories_nodes":[],"categories_segments":[],"categories_sizes":[],"default_left":[0,0,0,0,0,0,0,0,0,0,0,0,0,0,0],"id":48,"left_children":[1,7,3,5,13,-1,-1,11,9,-1,-1,-1,-1,-1,-1],"loss_changes":[3.2143543E1,1.0628485E1,6.465714E1,3.263962E1,1.7463074E0,0E0,0E0,3.4815006E0,8.249767E0,0E0,0E0,0E0,0E0,0E0,0E0],"parents":[2147483647,0,0,2,2,3,3,1,1,8,8,7,7,4,4],"right_children":[2,8,4,6,14,-1,-1,12,10,-1,-1,-1,-1,-1,-1],"split_conditions":[5.5057993E-3,-1.502801E0,7.183161E-3,-1.2027125E0,4.4229676E-4,3.6865685E-2,-2.4243423E-3,3.8199227E-3,9.674289E-1,-9.936162E-3,-4.1092817E-2,-7.920766E-2,-2.898753E-3,1.2941822E-1,8.517485E-2],"split_indices":[38,44,37,43,34,0,0,41,43,0,0,0,0,0,0],"split_type":[0,0,0,0,0,0,0,0,0,0,0,0,0,0,0],"sum_hessian":[1.1516075E3,3.592231E2,7.9238446E2,7.5769E2,3.4694435E1,1.0809074E2,6.495993E2,1.85701E1,3.40653E2,2.9772232E2,4.293069E1,1.5016599E1,3.5535014E0,7.289734E0,2.7404701E1],"tree_param":{"num_deleted":"0","num_feature":"46","num_nodes":"15","size_leaf_vector":"0"}},{"base_weights":[1.0028936E-2,1.5261954E-1,-1.7268643E-1,5.3701036E-2,1.7308544E0,3.759511E-1,-3.3121124E-1,-3.0258367E-2,1.1497472E-2,1.600831E-2,8.044124E-2,-1.9491768E-2,-6.445211E-2,1.6559361E-1,9.266115E-2],"categories":[],"categories_nodes":[],"categories_segments":[],"categories_sizes":[],"default_left":[0,0,0,0,0,0,0,0,0,0,0,0,0,0,0],"id":49,"left_children":[1,3,5,7,13,9,11,-1,-1,-1,-1,-1,-1,-1,-1],"loss_changes":[3.0055048E1,1.00932144E2,4.3956814E1,3.7289238E1,8.409515E0,1.2440852E1,9.068829E0,0E0,0E0,0E0,0E0,0E0,0E0,0E0,0E0],"parents":[2147483647,0,0,1,1,2,2,3,3,5,5,6,6,4,4],"right_children":[2,4,6,8,14,10,12,-1,-1,-1,-1,-1,-1,-1,-1],"split_conditions":[1E0,2.1645213E-2,-1.2436585E0,6.379043E-3,4.4229676E-4,-1.2820646E0,1.1504266E0,-3.0258367E-2,1.1497472E-2,1.600831E-2,8.044124E-2,-1.9491768E-2,-6.445211E-2,1.6559361E-1,9.266115E-2],"split_indices":[10,10,43,6,34,43,45,0,0,0,0,0,0,0,0],"split_type":[0,0,0,0,0,0,0,0,0,0,0,0,0,0,0],"sum_hessian":[1.1533146E3,6.48306E2,5.050086E2,6.103605E2,3.7945522E1,1.12915405E2,3.920932E2,1.1567468E2,4.9468582E2,9.7695946E1,1.52194605E1,3.7116885E2,2.092436E1,1.0929714E1,2.7015806E1],"tree_param":{"num_deleted":"0","num_feature":"46","num_nodes":"15","size_leaf_vector":"0"}},{"base_weights":[1.2650587E-2,-2.3258983E-1,1.2552403E-1,6.1260253E-2,1.3652523E0,1.2724106E-2,-1.4933396E-2,1.4029904E-1,-3.3613187E-1,-9.973842E-2,-1.9198438E-2,-1.3666607E-1,1.4314352E-2,1.1818821E-1,8.249338E-2],"categories":[],"categories_nodes":[],"categories_segments":[],"categories_sizes":[],"default_left":[0,0,0,0,0,0,0,0,0,0,0,0,0,0,0],"id":50,"left_children":[1,7,3,5,13,-1,-1,11,9,-1,-1,-1,-1,-1,-1],"loss_changes":[3.1429647E1,1.3848907E1,6.1766655E1,2.7744183E1,9.8806E-1,0E0,0E0,1.2710035E1,1.4835625E1,0E0,0E0,0E0,0E0,0E0,0E0],"parents":[2147483647,0,0,2,2,3,3,1,1,8,8,7,7,4,4],"right_children":[2,8,4,6,14,-1,-1,12,10,-1,-1,-1,-1,-1,-1],"split_conditions":[5.5057993E-3,-1.2027125E0,7.183161E-3,3.1229186E-1,4.4229676E-4,1.2724106E-2,-1.4933396E-2,-1.5144341E0,-1.2001272E0,-9.973842E-2,-1.9198438E-2,-1.3666607E-1,1.4314352E-2,1.1818821E-1,8.249338E-2],"split_indices":[38,43,37,43,34,0,0,44,43,0,0,0,0,0,0],"split_type":[0,0,0,0,0,0,0,0,0,0,0,0,0,0,0],"sum_hessian":[1.1356404E3,3.5741776E2,7.7822266E2,7.401944E2,3.8028248E1,5.0875192E2,2.3144247E2,7.731849E1,2.8009927E2,1.0330466E1,2.697688E2,2.3232293E0,7.499526E1,7.588319E0,3.043993E1],"tree_param":{"num_deleted":"0","num_feature":"46","num_nodes":"15","size_leaf_vector":"0"}},{"base_weights":[-6.6586444E-3,5.6382366E-2,-4.7736332E-1,-1.0093996E-1,2.837615E-1,1.35815E-2,1.0079912E-1,1.8200712E-2,-1.839487E-2,-8.3110636E-1,-3.1571323E-1,-2.6627561E-2,1.001616E-1,-7.302269E-2,-3.735792E-2],"categories":[],"categories_nodes":[],"categories_segments":[],"categories_sizes":[],"default_left":[0,0,0,0,0,0,0,0,0,0,0,0,0,0,0],"id":51,"left_children":[1,3,9,7,5,-1,-1,-1,-1,13,11,-1,-1,-1,-1],"loss_changes":[3.3474545E1,3.5539696E1,7.3809395E0,3.8911293E1,3.9287067E1,0E0,0E0,0E0,0E0,2.5982246E0,1.442527E1,0E0,0E0,0E0,0E0],"parents":[2147483647,0,0,1,1,4,4,3,3,2,2,10,10,9,9],"right_children":[2,4,10,8,6,-1,-1,-1,-1,14,12,-1,-1,-1,-1],"split_conditions":[1.1312132E0,1.107388E-3,1.3536257E-3,-1.1617665E0,1.659248E-2,1.35815E-2,1.0079912E-1,1.8200712E-2,-1.839487E-2,3.6656624E-3,7.4182046E-3,-2.6627561E-2,1.001616E-1,-7.302269E-2,-3.735792E-2],"split_indices":[43,33,24,43,31,0,0,0,0,30,22,0,0,0,0],"split_type":[0,0,0,0,0,0,0,0,0,0,0,0,0,0,0],"sum_hessian":[1.1253881E3,9.923163E2,1.3307175E2,5.861525E2,4.0616376E2,3.821782E2,2.3985575E1,1.8715262E2,3.9899988E2,4.1160862E1,9.191089E1,8.800978E1,3.9011073E0,1.9839687E1,2.1321175E1],"tree_param":{"num_deleted":"0","num_feature":"46","num_nodes":"15","size_leaf_vector":"0"}},{"base_weights":[4.271016E-2,-1.129476E-1,1.7728491E-1,1.4668643E0,9.1643296E-2,-1.783732E-2,1.2502153E-2,-4.1857353E-1,-1.4251326E-2,1.05845794E-1,-5.9962403E-3,-3.6987104E-2,-0E0,1.3446687E-1,8.7778725E-2],"categories":[],"categories_nodes":[],"categories_segments":[],"categories_sizes":[],"default_left":[0,0,0,0,0,0,0,0,0,0,0,0,0,0,0],"id":52,"left_children":[1,7,3,13,5,-1,-1,11,9,-1,-1,-1,-1,-1,-1],"loss_changes":[2.3865261E1,1.58396E1,6.7230354E1,1.9513931E0,2.0070389E1,0E0,0E0,7.5838165E0,4.8834167E1,0E0,0E0,0E0,0E0,0E0,0E0],"parents":[2147483647,0,0,2,2,4,4,1,1,8,8,7,7,3,3],"right_children":[2,8,4,14,6,-1,-1,12,10,-1,-1,-1,-1,-1,-1],"split_conditions":[1.3536257E-3,6.379043E-3,1E0,3.2182636E-3,9.320843E-3,-1.783732E-2,1.2502153E-2,1.9327631E-2,9.972379E-1,1.05845794E-1,-5.9962403E-3,-3.6987104E-2,-0E0,1.3446687E-1,8.7778725E-2],"split_indices":[19,6,19,34,16,0,0,39,6,0,0,0,0,0,0],"split_type":[0,0,0,0,0,0,0,0,0,0,0,0,0,0,0],"sum_hessian":[1.1383914E3,5.272998E2,6.110916E2,3.7736385E1,5.733552E2,1.21057365E2,4.5229785E2,1.2815326E2,3.991465E2,1.7752312E1,3.8139423E2,9.634503E1,3.1808237E1,6.8592715E0,3.0877113E1],"tree_param":{"num_deleted":"0","num_feature":"46","num_nodes":"15","size_leaf_vector":"0"}},{"base_weights":[7.247462E-3,-1.9137184E-1,1.6292107E-1,2.444878E-1,-2.9967812E-1,2.0677571E-1,-2.804374E-1,8.6408353E-4,8.100832E-2,2.670002E-2,2.9452424E-3,-2.6060367E-2,2.9837433E-3,-3.908307E-2,2.400075E-3],"categories":[],"categories_nodes":[],"categories_segments":[],"categories_sizes":[],"default_left":[0,0,0,0,0,0,0,0,0,0,0,0,0,0,0],"id":53,"left_children":[1,5,3,9,13,7,11,-1,-1,-1,-1,-1,-1,-1,-1],"loss_changes":[3.55072E1,1.7902828E1,2.4317625E1,1.7292068E1,9.483646E0,1.7886047E1,1.5200836E1,0E0,0E0,0E0,0E0,0E0,0E0,0E0,0E0],"parents":[2147483647,0,0,2,2,1,1,5,5,3,3,6,6,4,4],"right_children":[2,6,4,10,14,8,12,-1,-1,-1,-1,-1,-1,-1,-1],"split_conditions":[1.4315277E-2,-1.2436585E0,1.1312132E0,9.963343E-1,1.3469301E-4,-1.2820646E0,7.7273035E-1,8.6408353E-4,8.100832E-2,2.670002E-2,2.9452424E-3,-2.6060367E-2,2.9837433E-3,-3.908307E-2,2.400075E-3],"split_indices":[14,43,43,28,35,43,8,0,0,0,0,0,0,0,0],"split_type":[0,0,0,0,0,0,0,0,0,0,0,0,0,0,0],"sum_hessian":[1.1481146E3,5.039912E2,6.441234E2,5.4795416E2,9.616924E1,9.17489E1,4.122423E2,7.735512E1,1.4393778E1,3.0524643E2,2.427077E2,3.0648682E2,1.05755486E2,5.1786415E1,4.4382828E1],"tree_param":{"num_deleted":"0","num_feature":"46","num_nodes":"15","size_leaf_vector":"0"}},{"base_weights":[2.038083E-3,4.1498774E-1,-5.3742252E-2,1.1180887E-1,-3.1114742E-1,1.1926703E-3,1.0636472E-1,4.675203E-1,-1.4268979E0,-2.664946E-2,2.2543482E-3,2.2963412E-2,7.7807896E-2,-1.490654E-1,-5.518789E-3],"categories":[],"categories_nodes":[],"categories_segments":[],"categories_sizes":[],"default_left":[0,0,0,0,0,0,0,0,0,0,0,0,0,0,0],"id":54,"left_children":[1,7,3,5,9,-1,-1,11,13,-1,-1,-1,-1,-1,-1],"loss_changes":[2.5781595E1,1.2868265E1,4.1948597E1,8.353366E1,1.2163773E1,0E0,0E0,1.0767302E1,3.6228094E0,0E0,0E0,0E0,0E0,0E0,0E0],"parents":[2147483647,0,0,2,2,3,3,1,1,4,4,7,7,8,8],"right_children":[2,8,4,6,10,-1,-1,12,14,-1,-1,-1,-1,-1,-1],"split_conditions":[-1.2436585E0,9.7502834E-1,1E0,2.1645213E-2,1.9327631E-2,1.1926703E-3,1.0636472E-1,-1.2820646E0,-5.2229977E-1,-2.664946E-2,2.2543482E-3,2.2963412E-2,7.7807896E-2,-1.490654E-1,-5.518789E-3],"split_indices":[43,40,10,10,39,0,0,43,44,0,0,0,0,0,0],"split_type":[0,0,0,0,0,0,0,0,0,0,0,0,0,0,0],"sum_hessian":[1.1163044E3,1.3303972E2,9.832647E2,5.9808295E2,3.8518176E2,5.6302045E2,3.5062527E1,1.2958151E2,3.4582038E0,3.0518802E2,7.999375E1,1.1108291E2,1.84986E1,1.9863282E0,1.4718757E0],"tree_param":{"num_deleted":"0","num_feature":"46","num_nodes":"15","size_leaf_vector":"0"}},{"base_weights":[4.4512875E-2,8.767653E-2,-4.6359676E-1,-3.9868265E-2,2.5232986E-1,1.1577922E-2,9.512755E-2,2.8520353E-2,-1.0618022E-2,-6.4814734E-1,1.9100001E-2,2.3736024E-2,-7.218393E-2,-5.4397695E-2,-9.3772425E-4],"categories":[],"categories_nodes":[],"categories_segments":[],"categories_sizes":[],"default_left":[0,0,0,0,0,0,0,0,0,0,0,0,0,0,0],"id":55,"left_children":[1,3,9,7,5,-1,-1,-1,-1,13,11,-1,-1,-1,-1],"loss_changes":[2.4641853E1,2.1841698E1,7.935499E0,3.3057278E1,4.1364086E1,0E0,0E0,0E0,0E0,6.849558E0,9.0746E0,0E0,0E0,0E0,0E0],"parents":[2147483647,0,0,1,1,4,4,3,3,2,2,10,10,9,9],"right_children":[2,4,10,8,6,-1,-1,-1,-1,14,12,-1,-1,-1,-1],"split_conditions":[9.998653E-1,1.107388E-3,1.3622568E0,-1.2436585E0,1.659248E-2,1.1577922E-2,9.512755E-2,2.8520353E-2,-1.0618022E-2,1.659248E-2,1.622566E0,2.3736024E-2,-7.218393E-2,-5.4397695E-2,-9.3772425E-4],"split_indices":[36,33,44,43,31,0,0,0,0,31,43,0,0,0,0],"split_type":[0,0,0,0,0,0,0,0,0,0,0,0,0,0,0],"sum_hessian":[1.1257972E3,1.0380981E3,8.769907E1,5.844928E2,4.5360538E2,4.260186E2,2.7586807E1,1.18729706E2,4.657631E2,6.3638428E1,2.4060642E1,1.864054E1,5.4201026E0,4.976764E1,1.387079E1],"tree_param":{"num_deleted":"0","num_feature":"46","num_nodes":"15","size_leaf_vector":"0"}},{"base_weights":[1.2119347E-2,-1.969777E-1,1.2913722E-1,9.1635555E-2,7.094758E-2,1.1698967E-2,-1.0454673E-2,-7.96736E-2,-5.2471185E-1,-2.49859E-2,-1.1247996E-1,-1.096052E-2,2.7273588E-2],"categories":[],"categories_nodes":[],"categories_segments":[],"categories_sizes":[],"default_left":[0,0,0,0,0,0,0,0,0,0,0,0,0],"id":56,"left_children":[1,7,3,-1,5,-1,-1,11,9,-1,-1,-1,-1],"loss_changes":[2.7486256E1,1.5376432E1,5.233907E1,0E0,1.6654823E1,0E0,0E0,1.2485928E1,1.7847368E1,0E0,0E0,0E0,0E0],"parents":[2147483647,0,0,2,2,4,4,1,1,8,8,7,7],"right_children":[2,8,4,-1,6,-1,-1,12,10,-1,-1,-1,-1],"split_conditions":[9.891154E-3,7.217525E-1,9.995577E-1,9.1635555E-2,9.483313E-1,1.1698967E-2,-1.0454673E-2,1.0618767E0,6.9720936E-1,-2.49859E-2,-1.1247996E-1,-1.096052E-2,2.7273588E-2],"split_indices":[25,43,25,0,13,0,0,44,34,0,0,0,0],"split_type":[0,0,0,0,0,0,0,0,0,0,0,0,0],"sum_hessian":[1.1233975E3,4.0255173E2,7.2084576E2,3.1650764E1,6.89195E2,4.7203778E2,2.1715726E2,2.969963E2,1.0555542E2,9.410459E1,1.1450828E1,2.532685E2,4.372782E1],"tree_param":{"num_deleted":"0","num_feature":"46","num_nodes":"13","size_leaf_vector":"0"}},{"base_weights":[5.2739424E-3,2.8883616E-2,-8.7984914E-1,-8.088539E-2,1.760752E-1,6.1607114E-3,9.925477E-2,1.1780916E-2,-1.6809344E-2,-7.88759E-2,-5.512194E-1,-7.024092E-2,3.4045898E-3],"categories":[],"categories_nodes":[],"categories_segments":[],"categories_sizes":[],"default_left":[0,0,0,0,0,0,0,0,0,0,0,0,0],"id":57,"left_children":[1,3,9,7,5,-1,-1,-1,-1,-1,11,-1,-1],"loss_changes":[2.3094086E1,1.7516909E1,2.5117683E0,2.7719055E1,5.0608486E1,0E0,0E0,0E0,0E0,0E0,4.6412296E0,0E0,0E0],"parents":[2147483647,0,0,1,1,4,4,3,3,2,2,10,10],"right_children":[2,4,10,8,6,-1,-1,-1,-1,-1,12,-1,-1],"split_conditions":[1.5816199E0,3.6656624E-3,1.2143507E0,-1.0389283E0,1.2120775E-2,6.1607114E-3,9.925477E-2,1.1780916E-2,-1.6809344E-2,-7.88759E-2,9.320843E-3,-7.024092E-2,3.4045898E-3],"split_indices":[43,30,44,43,28,0,0,0,0,0,16,0,0],"split_type":[0,0,0,0,0,0,0,0,0,0,0,0,0],"sum_hessian":[1.1113303E3,1.082825E3,2.8505474E1,6.1967645E2,4.6314844E2,4.3606168E2,2.7086754E1,2.4776544E2,3.7191104E2,1.4136284E1,1.4369189E1,7.8569827E0,6.512207E0],"tree_param":{"num_deleted":"0","num_feature":"46","num_nodes":"13","size_leaf_vector":"0"}},{"base_weights":[4.0298432E-2,-2.3386712E-1,1.14696324E-1,1.4666029E0,5.8728766E-2,7.3600654E-3,-2.5452735E-2,2.2169939E-1,-3.2183585E-1,-4.8166655E-2,-1.0661997E-2,2.9773539E-2,-1.6045718E-2,1.19899094E-1,8.716531E-2],"categories":[],"categories_nodes":[],"categories_segments":[],"categories_sizes":[],"default_left":[0,0,0,0,0,0,0,0,0,0,0,0,0,0,0],"id":58,"left_children":[1,7,3,13,5,-1,-1,11,9,-1,-1,-1,-1,-1,-1],"loss_changes":[2.2173586E1,9.319039E0,6.451613E1,7.7285004E-1,1.9021305E1,0E0,0E0,3.9954205E0,1.2518446E1,0E0,0E0,0E0,0E0,0E0,0E0],"parents":[2147483647,0,0,2,2,4,4,1,1,8,8,7,7,3,3],"right_children":[2,8,4,14,6,-1,-1,12,10,-1,-1,-1,-1,-1,-1],"split_conditions":[6.379043E-3,-1.1281276E0,9.976283E-1,4.4229676E-4,1.0902671E0,7.3600654E-3,-2.5452735E-2,9.631151E-1,-5.542803E-1,-4.8166655E-2,-1.0661997E-2,2.9773539E-2,-1.6045718E-2,1.19899094E-1,8.716531E-2],"split_indices":[6,43,6,34,43,0,0,4,45,0,0,0,0,0,0],"split_type":[0,0,0,0,0,0,0,0,0,0,0,0,0,0,0],"sum_hessian":[1.0875758E3,2.3157343E2,8.560024E2,3.3712887E1,8.2228955E2,7.3584656E2,8.644297E1,3.7129208E1,1.9444421E2,5.4814827E1,1.396294E2,2.5149237E1,1.1979973E1,9.330034E0,2.438285E1],"tree_param":{"num_deleted":"0","num_feature":"46","num_nodes":"15","size_leaf_vector":"0"}},{"base_weights":[2.4075106E-2,1.7069818E-1,-1.0341741E-1,-2.3836255E-1,1.7554031E-1,9.35251E-2,-7.172697E-4,-3.8177878E-2,-4.4147326E-3,5.92658E-2,5.0490963E-1,8.559426E-3,-3.0739918E-2,1.716758E-2,4.61527E-2],"categories":[],"categories_nodes":[],"categories_segments":[],"categories_sizes":[],"default_left":[0,0,0,0,0,0,0,0,0,0,0,0,0,0,0],"id":59,"left_children":[1,9,3,7,5,-1,-1,-1,-1,11,13,-1,-1,-1,-1],"loss_changes":[2.0694515E1,1.908907E1,2.2276344E1,2.3028269E1,4.4559895E1,0E0,0E0,0E0,0E0,1.4104616E1,5.8546944E0,0E0,0E0,0E0,0E0],"parents":[2147483647,0,0,2,2,4,4,3,3,1,1,9,9,10,10],"right_children":[2,10,4,8,6,-1,-1,-1,-1,12,14,-1,-1,-1,-1],"split_conditions":[-5.8852154E-1,5.230142E-1,1.3469301E-4,9.891154E-3,1E0,9.35251E-2,-7.172697E-4,-3.8177878E-2,-4.4147326E-3,9.824476E-1,2.1791444E-3,8.559426E-3,-3.0739918E-2,1.716758E-2,4.61527E-2],"split_indices":[43,44,35,25,35,0,0,0,0,21,0,0,0,0,0],"split_type":[0,0,0,0,0,0,0,0,0,0,0,0,0,0,0],"sum_hessian":[1.1060763E3,5.150066E2,5.9106964E2,3.9877725E2,1.9229239E2,2.5143816E1,1.6714857E2,1.339563E2,2.6482095E2,3.8677322E2,1.282334E2,3.4159738E2,4.517583E1,5.6725483E1,7.150791E1],"tree_param":{"num_deleted":"0","num_feature":"46","num_nodes":"15","size_leaf_vector":"0"}},{"base_weights":[-2.013976E-2,-2.4643442E-1,7.979209E-2,2.0319328E-2,1.3589859E0,7.5306552E-3,-1.8952133E-2,-3.62822E-1,1.6975632E-1,7.5668514E-2,-3.2000836E-2,-4.6318218E-2,-1.2446678E-2,1.18783265E-1,8.094557E-2],"categories":[],"categories_nodes":[],"categories_segments":[],"categories_sizes":[],"default_left":[0,0,0,0,0,0,0,0,0,0,0,0,0,0,0],"id":60,"left_children":[1,7,3,5,13,-1,-1,11,9,-1,-1,-1,-1,-1,-1],"loss_changes":[2.5160564E1,1.655924E1,5.8384903E1,2.1030043E1,1.1040268E0,0E0,0E0,1.5522125E1,4.7375114E1,0E0,0E0,0E0,0E0,0E0,0E0],"parents":[2147483647,0,0,2,2,3,3,1,1,8,8,7,7,4,4],"right_children":[2,8,4,6,14,-1,-1,12,10,-1,-1,-1,-1,-1,-1],"split_conditions":[5.5057993E-3,1.9327631E-2,7.183161E-3,9.8789686E-1,4.4229676E-4,7.5306552E-3,-1.8952133E-2,-6.718678E-1,-8.081408E-1,7.5668514E-2,-3.2000836E-2,-4.6318218E-2,-1.2446678E-2,1.18783265E-1,8.094557E-2],"split_indices":[38,39,37,27,34,0,0,44,44,0,0,0,0,0,0],"split_type":[0,0,0,0,0,0,0,0,0,0,0,0,0,0,0],"sum_hessian":[1.1110302E3,3.4074973E2,7.702804E2,7.36375E2,3.3905384E1,5.649283E2,1.7144675E2,2.6661063E2,7.413911E1,2.9822462E1,4.4316643E1,9.0770355E1,1.7584026E2,7.306098E0,2.6599287E1],"tree_param":{"num_deleted":"0","num_feature":"46","num_nodes":"15","size_leaf_vector":"0"}},{"base_weights":[1.0775476E-3,-1.2012424E-1,1.4772074E-1,8.160061E-2,2.0788513E-2,-2.252374E-2,8.055757E-3,-9.521947E-2,-9.0621966E-1,-1.4468906E-2,6.701262E-3,-6.5216824E-2,-1.5445933E-3],"categories":[],"categories_nodes":[],"categories_segments":[],"categories_sizes":[],"default_left":[0,0,0,0,0,0,0,0,0,0,0,0,0],"id":61,"left_children":[1,7,3,-1,5,-1,-1,9,11,-1,-1,-1,-1],"loss_changes":[1.93368E1,1.1465767E1,6.757021E1,0E0,1.6016178E1,0E0,0E0,1.3970928E1,1.0708904E0,0E0,0E0,0E0,0E0],"parents":[2147483647,0,0,2,2,4,4,1,1,7,7,8,8],"right_children":[2,8,4,-1,6,-1,-1,10,12,-1,-1,-1,-1],"split_conditions":[3.8199227E-3,1.5816199E0,9.954375E-1,8.160061E-2,5.5057993E-3,-2.252374E-2,8.055757E-3,1.107388E-3,1.6929681E0,-1.4468906E-2,6.701262E-3,-6.5216824E-2,-1.5445933E-3],"split_indices":[41,43,41,0,38,0,0,33,44,0,0,0,0],"split_type":[0,0,0,0,0,0,0,0,0,0,0,0,0],"sum_hessian":[1.0873093E3,5.9470325E2,4.9260605E2,5.1337486E1,4.412686E2,9.5907875E1,3.453607E2,5.768591E2,1.7844212E1,3.5505026E2,2.218088E2,1.6207165E1,1.6370456E0],"tree_param":{"num_deleted":"0","num_feature":"46","num_nodes":"13","size_leaf_vector":"0"}},{"base_weights":[2.0342944E-3,8.691555E-2,-2.099664E-1,-5.5553377E-1,-4.657749E-2,-7.671909E-3,1.0211704E-1,2.4769703E-1,-5.0034676E-2,1.0345755E-2,9.345845E-2,-5.0851335E-3,9.6044876E-2,-5.4030456E-2,-0E0],"categories":[],"categories_nodes":[],"categories_segments":[],"categories_sizes":[],"default_left":[0,0,0,0,0,0,0,0,0,0,0,0,0,0,0],"id":62,"left_children":[1,7,3,13,5,-1,-1,9,11,-1,-1,-1,-1,-1,-1],"loss_changes":[1.9572145E1,1.7166214E1,1.7441273E1,1.4283014E1,2.3033403E1,0E0,0E0,3.7865967E1,1.6598585E1,0E0,0E0,0E0,0E0,0E0,0E0],"parents":[2147483647,0,0,2,2,4,4,1,1,7,7,8,8,3,3],"right_children":[2,8,4,14,6,-1,-1,10,12,-1,-1,-1,-1,-1,-1],"split_conditions":[3.1229186E-1,9.948193E-1,3.6656624E-3,7.183161E-3,1.2120775E-2,-7.671909E-3,1.0211704E-1,2.1645213E-2,2.1768835E-1,1.0345755E-2,9.345845E-2,-5.0851335E-3,9.6044876E-2,-5.4030456E-2,-0E0],"split_indices":[43,10,30,40,28,0,0,10,43,0,0,0,0,0,0],"split_type":[0,0,0,0,0,0,0,0,0,0,0,0,0,0,0],"sum_hessian":[1.0883668E3,7.7782764E2,3.1053918E2,9.921665E1,2.1132254E2,2.0277301E2,8.549528E0,3.582591E2,4.195685E2,3.3243515E2,2.5823954E1,4.1252155E2,7.046966E0,6.744986E1,3.1766785E1],"tree_param":{"num_deleted":"0","num_feature":"46","num_nodes":"15","size_leaf_vector":"0"}},{"base_weights":[4.701825E-3,3.3168054E-1,-5.721682E-2,9.878171E-2,-3.0940396E-1,1.0820731E-3,1.013608E-1,2.5365242E-1,8.165549E-2,2.5150161E-2,-1.9023154E-2,-7.280467E-2,-1.8124746E-2],"categories":[],"categories_nodes":[],"categories_segments":[],"categories_sizes":[],"default_left":[0,0,0,0,0,0,0,0,0,0,0,0,0],"id":63,"left_children":[1,7,3,5,11,-1,-1,9,-1,-1,-1,-1,-1],"loss_changes":[2.1793886E1,1.1740982E1,3.555706E1,6.550942E1,9.507835E0,0E0,0E0,1.0801184E1,0E0,0E0,0E0,0E0,0E0],"parents":[2147483647,0,0,2,2,3,3,1,1,7,7,4,4],"right_children":[2,8,4,6,12,-1,-1,10,-1,-1,-1,-1,-1],"split_conditions":[-1.2027125E0,-1.2385312E0,1E0,2.1645213E-2,-1.2001272E0,1.0820731E-3,1.013608E-1,-1.2436585E0,8.165549E-2,2.5150161E-2,-1.9023154E-2,-7.280467E-2,-1.8124746E-2],"split_indices":[43,43,10,10,43,0,0,43,0,0,0,0,0],"split_type":[0,0,0,0,0,0,0,0,0,0,0,0,0],"sum_hessian":[1.0738468E3,1.7125557E2,9.025912E2,5.573174E2,3.4527377E2,5.272464E2,3.0070961E1,1.5800102E2,1.3254557E1,1.2846399E2,2.9537022E1,1.4575281E1,3.306985E2],"tree_param":{"num_deleted":"0","num_feature":"46","num_nodes":"13","size_leaf_vector":"0"}},{"base_weights":[9.992959E-4,-1.1815384E-1,1.4485565E-1,1.2176709E0,3.4134455E-2,-1.8773384E-2,8.511415E-3,-9.320818E-2,-9.2957634E-1,-1.3499709E-2,5.339292E-3,-6.909135E-2,-0E0,9.726277E-2,7.474964E-2],"categories":[],"categories_nodes":[],"categories_segments":[],"categories_sizes":[],"default_left":[0,0,0,0,0,0,0,0,0,0,0,0,0,0,0],"id":64,"left_children":[1,7,3,13,5,-1,-1,9,11,-1,-1,-1,-1,-1,-1],"loss_changes":[1.8364183E1,1.1661523E1,5.7500755E1,2.6198578E-1,1.3174096E1,0E0,0E0,1.0933046E1,1.8255482E0,0E0,0E0,0E0,0E0,0E0,0E0],"parents":[2147483647,0,0,2,2,4,4,1,1,7,7,8,8,3,3],"right_children":[2,8,4,14,6,-1,-1,10,12,-1,-1,-1,-1,-1,-1],"split_conditions":[3.8199227E-3,1.5816199E0,9.954375E-1,4.4229676E-4,5.5057993E-3,-1.8773384E-2,8.511415E-3,1.107388E-3,1.6929681E0,-1.3499709E-2,5.339292E-3,-6.909135E-2,-0E0,9.726277E-2,7.474964E-2],"split_indices":[41,43,41,34,38,0,0,33,44,0,0,0,0,0,0],"split_type":[0,0,0,0,0,0,0,0,0,0,0,0,0,0,0],"sum_hessian":[1.0707109E3,5.850366E2,4.856743E2,4.5110687E1,4.4056363E2,1.0041669E2,3.401469E2,5.679984E2,1.7038172E1,3.4777692E2,2.2022153E2,1.5184911E1,1.8532605E0,1.0629521E1,3.4481167E1],"tree_param":{"num_deleted":"0","num_feature":"46","num_nodes":"15","size_leaf_vector":"0"}},{"base_weights":[7.1810517E-3,-1.5942915E-1,1.3683811E-1,-6.3948184E-2,-6.4097E-1,-8.38482E-3,1.3007748E-1,1.1480091E-1,9.997828E-2,3.9323896E-2,4.2907647E-3,-5.9643477E-2,-2.656964E-2],"categories":[],"categories_nodes":[],"categories_segments":[],"categories_sizes":[],"default_left":[0,0,0,0,0,0,0,0,0,0,0,0,0],"id":65,"left_children":[1,3,7,5,11,-1,-1,9,-1,-1,-1,-1,-1],"loss_changes":[2.3453905E1,2.1701206E1,1.8176666E1,5.0048393E1,4.579876E0,0E0,0E0,1.4303036E1,0E0,0E0,0E0,0E0,0E0],"parents":[2147483647,0,0,1,1,3,3,2,2,7,7,4,4],"right_children":[2,4,8,6,12,-1,-1,10,-1,-1,-1,-1,-1],"split_conditions":[1.4315277E-2,9.566146E-1,4.0137198E-2,5.180706E-3,1.4693389E-2,-8.38482E-3,1.3007748E-1,-1.2027125E0,9.997828E-2,3.9323896E-2,4.2907647E-3,-5.9643477E-2,-2.656964E-2],"split_indices":[14,12,13,12,4,0,0,43,0,0,0,0,0],"split_type":[0,0,0,0,0,0,0,0,0,0,0,0,0],"sum_hessian":[1.085489E3,4.7447653E2,6.1101245E2,3.9643585E2,7.804067E1,3.848227E2,1.1613167E1,6.0168176E2,9.330693E0,5.6461014E1,5.4522076E2,3.6947815E1,4.109286E1],"tree_param":{"num_deleted":"0","num_feature":"46","num_nodes":"13","size_leaf_vector":"0"}},{"base_weights":[-2.2326668E-3,2.3768952E-1,-6.7373514E-2,4.514158E-2,9.040728E-2,1.5538535E-2,-3.346191E-2,-5.51957E-3,-4.138764E-1,-4.2188903E-3,9.417689E-2,-4.293373E-2,1.3097802E-3],"categories":[],"categories_nodes":[],"categories_segments":[],"categories_sizes":[],"default_left":[0,0,0,0,0,0,0,0,0,0,0,0,0],"id":66,"left_children":[1,3,7,5,-1,-1,-1,9,11,-1,-1,-1,-1],"loss_changes":[1.6870626E1,4.9719448E1,1.8167814E1,2.0499632E1,0E0,0E0,0E0,5.9729954E1,1.3140173E1,0E0,0E0,0E0,0E0],"parents":[2147483647,0,0,1,1,3,3,2,2,7,7,8,8],"right_children":[2,4,8,6,-1,-1,-1,10,12,-1,-1,-1,-1],"split_conditions":[1E0,5.5057993E-3,9.91256E-1,6.398604E-1,9.040728E-2,1.5538535E-2,-3.346191E-2,7.183161E-3,1.3469301E-4,-4.2188903E-3,9.417689E-2,-4.293373E-2,1.3097802E-3],"split_indices":[2,2,40,43,0,0,0,40,18,0,0,0,0],"split_type":[0,0,0,0,0,0,0,0,0,0,0,0,0],"sum_hessian":[1.0808402E3,2.301456E2,8.506946E2,1.9685074E2,3.3294872E1,1.4675212E2,5.0098614E1,7.224119E2,1.2828262E2,6.9441614E2,2.7995804E1,8.350732E1,4.477531E1],"tree_param":{"num_deleted":"0","num_feature":"46","num_nodes":"13","size_leaf_vector":"0"}},{"base_weights":[1.749198E-2,1.2502743E-1,-1.2779471E-1,3.3586758E-1,-2.1964923E-2,1.3709538E-2,-1.4820151E-2,-2.4060337E-1,1.4878127E-1,1.832851E-2,8.586499E-2,-2.2051232E-2,8.894709E-4,2.4858667E-2,-6.4111724E-3],"categories":[],"categories_nodes":[],"categories_segments":[],"categories_sizes":[],"default_left":[0,0,0,0,0,0,0,0,0,0,0,0,0,0,0],"id":67,"left_children":[1,3,7,9,5,-1,-1,11,13,-1,-1,-1,-1,-1,-1],"loss_changes":[1.6745277E1,1.916143E1,1.422629E1,1.41145935E1,1.676382E1,0E0,0E0,7.632622E0,7.364893E0,0E0,0E0,0E0,0E0,0E0,0E0],"parents":[2147483647,0,0,1,1,4,4,2,2,3,3,7,7,8,8],"right_children":[2,4,8,10,6,-1,-1,12,14,-1,-1,-1,-1,-1,-1],"split_conditions":[-2.6095304E-1,9.948193E-1,1.2143507E0,2.1645213E-2,-9.269292E-1,1.3709538E-2,-1.4820151E-2,7.183161E-3,9.1071045E-1,1.832851E-2,8.586499E-2,-2.2051232E-2,8.894709E-4,2.4858667E-2,-6.4111724E-3],"split_indices":[43,10,44,10,45,0,0,40,0,0,0,0,0,0,0],"split_type":[0,0,0,0,0,0,0,0,0,0,0,0,0,0,0],"sum_hessian":[1.0714282E3,6.163694E2,4.550589E2,2.5354718E2,3.628222E2,1.6957854E2,1.9324365E2,3.236621E2,1.313968E2,2.3919415E2,1.435303E1,2.3794482E2,8.571728E1,6.866434E1,6.273246E1],"tree_param":{"num_deleted":"0","num_feature":"46","num_nodes":"15","size_leaf_vector":"0"}},{"base_weights":[2.6353285E-2,4.334687E-2,-6.666212E-1,-1.8171934E-2,2.794541E-1,2.3744984E-3,-3.1082654E-2,1.5781682E-2,8.205977E-2,-1.0222678E0,-1.4615971E-1,8.230751E-3,-8.2809E-2,-7.3134914E-2,-3.2701757E-2],"categories":[],"categories_nodes":[],"categories_segments":[],"categories_sizes":[],"default_left":[0,0,0,0,0,0,0,0,0,0,0,0,0,0,0],"id":68,"left_children":[1,3,9,5,7,-1,-1,-1,-1,13,11,-1,-1,-1,-1],"loss_changes":[1.252902E1,1.5249344E1,4.488715E0,2.0283882E1,8.294645E0,0E0,0E0,0E0,0E0,2.704668E-1,3.4210033E0,0E0,0E0,0E0,0E0],"parents":[2147483647,0,0,1,1,3,3,4,4,2,2,10,10,9,9],"right_children":[2,4,10,6,8,-1,-1,-1,-1,14,12,-1,-1,-1,-1],"split_conditions":[1.5816199E0,1.0352278E0,9.320843E-3,4.688526E-1,2.3278475E0,2.3744984E-3,-3.1082654E-2,1.5781682E-2,8.205977E-2,1.3536257E-3,1.4693389E-2,8.230751E-3,-8.2809E-2,-7.3134914E-2,-3.2701757E-2],"split_indices":[43,44,16,45,45,0,0,0,0,19,4,0,0,0,0],"split_type":[0,0,0,0,0,0,0,0,0,0,0,0,0,0,0],"sum_hessian":[1.0718997E3,1.0466558E3,2.5243862E1,8.2991046E2,2.1674532E2,7.409777E2,8.893275E1,2.0819193E2,8.553401E0,1.4695517E1,1.0548346E1,8.495507E0,2.0528383E0,1.2281927E1,2.413589E0],"tree_param":{"num_deleted":"0","num_feature":"46","num_nodes":"15","size_leaf_vector":"0"}},{"base_weights":[-2.154951E-2,-1.8240567E-1,6.624411E-2,8.797629E-2,7.070933E-3,-2.3055984E-2,6.5185833E-3,-3.8204566E-1,-4.4845212E-2,1.3371807E-1,-1.0837714E-2,-1.0594351E-2,-5.38295E-2],"categories":[],"categories_nodes":[],"categories_segments":[],"categories_sizes":[],"default_left":[0,0,0,0,0,0,0,0,0,0,0,0,0],"id":69,"left_children":[1,7,3,-1,5,-1,-1,11,9,-1,-1,-1,-1],"loss_changes":[1.4988258E1,1.0222816E1,5.091035E1,0E0,2.1182055E1,0E0,0E0,1.4385252E1,5.4273262E1,0E0,0E0,0E0,0E0],"parents":[2147483647,0,0,2,2,4,4,1,1,8,8,7,7],"right_children":[2,8,4,-1,6,-1,-1,12,10,-1,-1,-1,-1],"split_conditions":[9.891154E-3,1.4693389E-2,1E0,8.797629E-2,9.320843E-3,-2.3055984E-2,6.5185833E-3,8.0364466E-1,9.972379E-1,1.3371807E-1,-1.0837714E-2,-1.0594351E-2,-5.38295E-2],"split_indices":[25,4,25,0,16,0,0,43,4,0,0,0,0],"split_type":[0,0,0,0,0,0,0,0,0,0,0,0,0],"sum_hessian":[1.0596152E3,3.7471216E2,6.84903E2,3.037783E1,6.545252E2,1.33413E2,5.211122E2,1.5223378E2,2.2247838E2,1.1857083E1,2.1062129E2,1.008176E2,5.1416183E1],"tree_param":{"num_deleted":"0","num_feature":"46","num_nodes":"13","size_leaf_vector":"0"}},{"base_weights":[1.2664004E-2,1.2270563E-1,-1.2403716E-1,4.753472E-2,1.4729613E0,2.5617737E-1,-2.2558042E-1,1.5056858E-2,-7.131134E-3,6.1567514E-3,7.807969E-2,-1.0996572E-2,-5.3741377E-2,1.263986E-1,8.31254E-2],"categories":[],"categories_nodes":[],"categories_segments":[],"categories_sizes":[],"default_left":[0,0,0,0,0,0,0,0,0,0,0,0,0,0,0],"id":70,"left_children":[1,3,5,7,13,9,11,-1,-1,-1,-1,-1,-1,-1,-1],"loss_changes":[1.6049932E1,5.9802425E1,1.8352692E1,1.5657525E1,1.9580231E0,1.4810991E1,1.2923477E1,0E0,0E0,0E0,0E0,0E0,0E0,0E0,0E0],"parents":[2147483647,0,0,1,1,2,2,3,3,5,5,6,6,4,4],"right_children":[2,4,6,8,14,10,12,-1,-1,-1,-1,-1,-1,-1,-1],"split_conditions":[1E0,2.1645213E-2,-1.2436585E0,-9.716878E-2,4.4229676E-4,-1.2820646E0,5.925995E-1,1.5056858E-2,-7.131134E-3,6.1567514E-3,7.807969E-2,-1.0996572E-2,-5.3741377E-2,1.263986E-1,8.31254E-2],"split_indices":[10,10,43,43,34,43,45,0,0,0,0,0,0,0,0],"split_type":[0,0,0,0,0,0,0,0,0,0,0,0,0,0,0],"sum_hessian":[1.066563E3,5.9157434E2,4.7498868E2,5.6068756E2,3.0886812E1,9.971307E1,3.752756E2,2.6025482E2,3.0043274E2,8.504839E1,1.466468E1,3.4105396E2,3.4221638E1,9.577508E0,2.1309305E1],"tree_param":{"num_deleted":"0","num_feature":"46","num_nodes":"15","size_leaf_vector":"0"}},{"base_weights":[3.1116571E-2,-2.0447081E-1,9.352978E-2,1.3971279E0,4.0888093E-2,4.760694E-3,-3.3961497E-2,-3.3241582E-1,-2.4155753E-2,9.160563E-2,-1.3530505E-2,4.4979796E-2,-2.4959901E-2,8.7703526E-2,1.3207522E-1],"categories":[],"categories_nodes":[],"categories_segments":[],"categories_sizes":[],"default_left":[0,0,0,0,0,0,0,0,0,0,0,0,0,0,0],"id":71,"left_children":[1,7,3,13,5,-1,-1,11,9,-1,-1,-1,-1,-1,-1],"loss_changes":[1.54218E1,5.0014086E0,5.6753723E1,3.4285355E-1,1.3612395E1,0E0,0E0,5.7134266E0,2.3104858E1,0E0,0E0,0E0,0E0,0E0,0E0],"parents":[2147483647,0,0,2,2,4,4,1,1,8,8,7,7,3,3],"right_children":[2,8,4,14,6,-1,-1,12,10,-1,-1,-1,-1,-1,-1],"split_conditions":[6.379043E-3,7.183161E-3,1E0,1.1417983E-2,9.998653E-1,4.760694E-3,-3.3961497E-2,-1.4978154E0,9.724633E-1,9.160563E-2,-1.3530505E-2,4.4979796E-2,-2.4959901E-2,8.7703526E-2,1.3207522E-1],"split_indices":[6,37,6,36,36,0,0,44,37,0,0,0,0,0,0],"split_type":[0,0,0,0,0,0,0,0,0,0,0,0,0,0,0],"sum_hessian":[1.0496083E3,2.1918605E2,8.304222E2,3.1914087E1,7.985081E2,7.566592E2,4.1848907E1,1.2758286E2,9.1603195E1,1.0139853E1,8.146334E1,5.0696154E0,1.22513245E2,2.921436E1,2.6997275E0],"tree_param":{"num_deleted":"0","num_feature":"46","num_nodes":"15","size_leaf_vector":"0"}},{"base_weights":[-6.7359195E-3,-1.7183933E-1,8.182783E-2,1.363383E0,1.6684243E-2,9.037042E-3,-1.135944E-2,-9.807958E-2,-4.814846E-1,-1.3735033E-2,-6.711184E-2,-1.1954866E-2,1.8126268E-2,1.15117334E-1,8.101469E-2],"categories":[],"categories_nodes":[],"categories_segments":[],"categories_sizes":[],"default_left":[0,0,0,0,0,0,0,0,0,0,0,0,0,0,0],"id":72,"left_children":[1,7,3,13,5,-1,-1,11,9,-1,-1,-1,-1,-1,-1],"loss_changes":[1.5487778E1,8.348485E0,5.7216473E1,8.388901E-1,1.4746167E1,0E0,0E0,9.157061E0,1.0060402E1,0E0,0E0,0E0,0E0,0E0,0E0],"parents":[2147483647,0,0,2,2,4,4,1,1,8,8,7,7,3,3],"right_children":[2,8,4,14,6,-1,-1,12,10,-1,-1,-1,-1,-1,-1],"split_conditions":[9.320843E-3,9.2648286E-1,1E0,4.4229676E-4,9.948193E-1,9.037042E-3,-1.135944E-2,8.7699175E-1,1E0,-1.3735033E-2,-6.711184E-2,-1.1954866E-2,1.8126268E-2,1.15117334E-1,8.101469E-2],"split_indices":[16,43,16,34,10,0,0,44,25,0,0,0,0,0,0],"split_type":[0,0,0,0,0,0,0,0,0,0,0,0,0,0,0],"sum_hessian":[1.0578E3,3.6989273E2,6.879073E2,3.2962307E1,6.54945E2,4.008293E2,2.5411568E2,2.9937106E2,7.0521675E1,4.6895615E1,2.3626055E1,2.4552786E2,5.3843197E1,8.091735E0,2.4870573E1],"tree_param":{"num_deleted":"0","num_feature":"46","num_nodes":"15","size_leaf_vector":"0"}},{"base_weights":[1.1529102E-2,8.475043E-2,-1.4001456E-1,1.9625459E-2,1.4078262E0,9.121152E-3,-1.0839399E-2,-2.59658E-1,1.4706886E-1,8.717442E-2,-1.1424873E-3,-4.418095E-3,-4.461526E-2,1.2647495E-1,8.45225E-2],"categories":[],"categories_nodes":[],"categories_segments":[],"categories_sizes":[],"default_left":[0,0,0,0,0,0,0,0,0,0,0,0,0,0,0],"id":73,"left_children":[1,3,7,5,13,-1,-1,11,9,-1,-1,-1,-1,-1,-1],"loss_changes":[1.1564802E1,6.041799E1,1.16722355E1,1.4510434E1,1.175621E0,0E0,0E0,1.900909E1,1.9310762E1,0E0,0E0,0E0,0E0,0E0,0E0],"parents":[2147483647,0,0,1,1,3,3,2,2,8,8,7,7,4,4],"right_children":[2,4,8,6,14,-1,-1,12,10,-1,-1,-1,-1,-1,-1],"split_conditions":[1E0,1.26075195E-2,1.3469301E-4,-5.475755E-1,3.2182636E-3,9.121152E-3,-1.0839399E-2,7.979843E-1,9.88582E-1,8.717442E-2,-1.1424873E-3,-4.418095E-3,-4.461526E-2,1.2647495E-1,8.45225E-2],"split_indices":[21,21,35,43,34,0,0,13,35,0,0,0,0,0,0],"split_type":[0,0,0,0,0,0,0,0,0,0,0,0,0,0,0],"sum_hessian":[1.0426299E3,7.0376074E2,3.388691E2,6.710558E2,3.2704983E1,4.0871002E2,2.6234573E2,2.3960226E2,9.926684E1,1.218965E1,8.707719E1,1.6379178E2,7.5810486E1,6.025246E0,2.6679737E1],"tree_param":{"num_deleted":"0","num_feature":"46","num_nodes":"15","size_leaf_vector":"0"}},{"base_weights":[-0E0,-9.75471E-2,1.2298644E-1,5.3598933E-2,9.2490405E-2,2.5908214E-1,-1.8146649E-1,9.274201E-3,-2.6670223E-2,8.623975E-3,7.57837E-2,-9.095453E-3,-4.5899596E-2],"categories":[],"categories_nodes":[],"categories_segments":[],"categories_sizes":[],"default_left":[0,0,0,0,0,0,0,0,0,0,0,0,0],"id":74,"left_children":[1,5,3,7,-1,9,11,-1,-1,-1,-1,-1,-1],"loss_changes":[1.2637754E1,1.7558973E1,4.0929054E1,1.7394192E1,0E0,1.2477846E1,1.05939E1,0E0,0E0,0E0,0E0,0E0,0E0],"parents":[2147483647,0,0,2,2,1,1,3,3,5,5,6,6],"right_children":[2,6,4,8,-1,10,12,-1,-1,-1,-1,-1,-1],"split_conditions":[3.6656624E-3,-1.2436585E0,1.2120775E-2,9.9618006E-1,9.2490405E-2,-1.2820646E0,8.0719334E-1,9.274201E-3,-2.6670223E-2,8.623975E-3,7.57837E-2,-9.095453E-3,-4.5899596E-2],"split_indices":[30,43,28,40,0,43,44,0,0,0,0,0,0],"split_type":[0,0,0,0,0,0,0,0,0,0,0,0,0],"sum_hessian":[1.052773E3,5.8661633E2,4.6615656E2,4.4237314E2,2.3783411E1,1.1129314E2,4.7532324E2,3.7236877E2,7.000439E1,9.749206E1,1.3801076E1,4.3799902E2,3.732422E1],"tree_param":{"num_deleted":"0","num_feature":"46","num_nodes":"13","size_leaf_vector":"0"}},{"base_weights":[2.1881144E-2,3.7190374E-2,-7.030756E-1,-5.843078E-2,1.6064706E-1,5.9729475E-3,9.212678E-2,1.9803282E-2,-9.315356E-3,-1.0184271E0,-3.454226E-2,1.0094709E-2,-6.456897E-2,-7.4250825E-2,-4.1612643E-3],"categories":[],"categories_nodes":[],"categories_segments":[],"categories_sizes":[],"default_left":[0,0,0,0,0,0,0,0,0,0,0,0,0,0,0],"id":75,"left_children":[1,3,9,7,5,-1,-1,-1,-1,13,11,-1,-1,-1,-1],"loss_changes":[1.15254E1,1.2137005E1,4.3447447E0,1.693805E1,3.864993E1,0E0,0E0,0E0,0E0,1.1962566E0,1.4372075E0,0E0,0E0,0E0,0E0],"parents":[2147483647,0,0,1,1,4,4,3,3,2,2,10,10,9,9],"right_children":[2,4,10,8,6,-1,-1,-1,-1,14,12,-1,-1,-1,-1],"split_conditions":[1.5816199E0,1.107388E-3,3.8199227E-3,-1.2436585E0,1.659248E-2,5.9729475E-3,9.212678E-2,1.9803282E-2,-9.315356E-3,1.6929681E0,1.483573E0,1.0094709E-2,-6.456897E-2,-7.4250825E-2,-4.1612643E-3],"split_indices":[43,33,41,43,31,0,0,0,0,44,44,0,0,0,0],"split_type":[0,0,0,0,0,0,0,0,0,0,0,0,0,0,0],"sum_hessian":[1.047603E3,1.026344E3,2.125899E1,5.776873E2,4.4865668E2,4.246467E2,2.4009985E1,1.075134E2,4.7017392E2,1.4208009E1,7.05098E0,5.8757544E0,1.1752259E0,1.2652636E1,1.555373E0],"tree_param":{"num_deleted":"0","num_feature":"46","num_nodes":"15","size_leaf_vector":"0"}},{"base_weights":[2.6546948E-2,-8.395413E-2,1.6647403E-1,1.00890376E-1,9.180204E-2,1.3530224E-2,-1.267936E-2,1.0640849E-1,-1.870498E-1,4.104188E-3,8.6715326E-2,-2.011559E-2,-4.8862206E-4],"categories":[],"categories_nodes":[],"categories_segments":[],"categories_sizes":[],"default_left":[0,0,0,0,0,0,0,0,0,0,0,0,0],"id":76,"left_children":[1,7,3,5,-1,-1,-1,9,11,-1,-1,-1,-1],"loss_changes":[1.620074E1,1.1485061E1,3.6703156E1,1.3266514E1,0E0,0E0,0E0,1.0712715E1,7.894782E0,0E0,0E0,0E0,0E0],"parents":[2147483647,0,0,2,2,3,3,1,1,7,7,8,8],"right_children":[2,8,4,6,-1,-1,-1,10,12,-1,-1,-1,-1],"split_conditions":[1.107388E-3,-1.1208204E0,1.659248E-2,9.948193E-1,9.180204E-2,1.3530224E-2,-1.267936E-2,-1.1522359E0,3.8199227E-3,4.104188E-3,8.6715326E-2,-2.011559E-2,-4.8862206E-4],"split_indices":[33,43,31,10,0,0,0,43,41,0,0,0,0],"split_type":[0,0,0,0,0,0,0,0,0,0,0,0,0],"sum_hessian":[1.0465192E3,5.841357E2,4.6238348E2,4.3910428E2,2.3279219E1,3.2490164E2,1.1420262E2,2.0465494E2,3.794807E2,1.976857E2,6.9692435E0,2.295955E2,1.4988521E2],"tree_param":{"num_deleted":"0","num_feature":"46","num_nodes":"13","size_leaf_vector":"0"}},{"base_weights":[9.752196E-3,-9.4685376E-2,1.4726347E-1,7.393955E-2,9.134028E-2,-5.59168E-2,-7.7635896E-1,1.1170305E-2,-1.638287E-2,1.7325837E-2,-8.2813455E-3,-3.442512E-2,-9.305001E-2],"categories":[],"categories_nodes":[],"categories_segments":[],"categories_sizes":[],"default_left":[0,0,0,0,0,0,0,0,0,0,0,0,0],"id":77,"left_children":[1,5,3,7,-1,9,11,-1,-1,-1,-1,-1,-1],"loss_changes":[1.50108E1,1.5527986E1,4.0502434E1,1.2955093E1,0E0,1.2288488E1,4.6472664E0,0E0,0E0,0E0,0E0,0E0,0E0],"parents":[2147483647,0,0,2,2,1,1,3,3,5,5,6,6],"right_children":[2,6,4,8,-1,10,12,-1,-1,-1,-1,-1,-1],"split_conditions":[3.6656624E-3,1.0083749E0,1.2120775E-2,9.483313E-1,9.134028E-2,9.91256E-1,9.132869E-1,1.1170305E-2,-1.638287E-2,1.7325837E-2,-8.2813455E-3,-3.442512E-2,-9.305001E-2],"split_indices":[30,43,28,13,0,2,34,0,0,0,0,0,0],"split_type":[0,0,0,0,0,0,0,0,0,0,0,0,0],"sum_hessian":[1.044231E3,5.928466E2,4.513843E2,4.263339E2,2.5050432E1,5.613754E2,3.1471218E1,3.297819E2,9.655201E1,9.9786125E1,4.6158926E2,2.2774572E1,8.696645E0],"tree_param":{"num_deleted":"0","num_feature":"46","num_nodes":"13","size_leaf_vector":"0"}},{"base_weights":[-1.0462707E-3,9.25347E-2,-1.1915458E-1,2.9508937E-2,1.376866E0,1.6484456E-2,-8.363241E-3,7.157912E-2,-2.7019507E-1,2.5424291E-3,8.85596E-2,-8.5946237E-4,-2.5806915E-2,1.1200592E-1,7.966685E-2],"categories":[],"categories_nodes":[],"categories_segments":[],"categories_sizes":[],"default_left":[0,0,0,0,0,0,0,0,0,0,0,0,0,0,0],"id":78,"left_children":[1,3,7,5,13,-1,-1,9,11,-1,-1,-1,-1,-1,-1],"loss_changes":[1.1282907E1,4.578479E1,1.3054119E1,1.853713E1,5.7076263E-1,0E0,0E0,8.140509E0,7.6818523E0,0E0,0E0,0E0,0E0,0E0,0E0],"parents":[2147483647,0,0,1,1,3,3,2,2,7,7,8,8,4,4],"right_children":[2,4,8,6,14,-1,-1,10,12,-1,-1,-1,-1,-1,-1],"split_conditions":[1E0,2.1645213E-2,-1.0389283E0,-2.6095304E-1,4.4229676E-4,1.6484456E-2,-8.363241E-3,-1.0757173E0,1E0,2.5424291E-3,8.85596E-2,-8.5946237E-4,-2.5806915E-2,1.1200592E-1,7.966685E-2],"split_indices":[10,10,43,43,34,0,0,43,6,0,0,0,0,0,0],"split_type":[0,0,0,0,0,0,0,0,0,0,0,0,0,0,0],"sum_hessian":[1.02003674E3,5.683633E2,4.516735E2,5.420926E2,2.6270664E1,2.2550963E2,3.1658298E2,1.9917632E2,2.5249718E2,1.9440529E2,4.7710176E0,8.0465034E1,1.7203215E2,8.454076E0,1.781659E1],"tree_param":{"num_deleted":"0","num_feature":"46","num_nodes":"15","size_leaf_vector":"0"}},{"base_weights":[3.5437176E-3,8.353025E-2,-1.6818546E-1,3.2711543E-2,8.3651416E-2,6.262396E-3,-2.173547E-2,-3.7004736E-1,-4.336409E-2,1.1297486E-1,-7.6042716E-3,1.5179004E-2,-3.288513E-2],"categories":[],"categories_nodes":[],"categories_segments":[],"categories_sizes":[],"default_left":[0,0,0,0,0,0,0,0,0,0,0,0,0],"id":79,"left_children":[1,3,7,5,-1,-1,-1,11,9,-1,-1,-1,-1],"loss_changes":[1.4097335E1,4.1800537E1,8.138176E0,1.496181E1,0E0,0E0,0E0,9.435093E0,2.4988157E1,0E0,0E0,0E0,0E0],"parents":[2147483647,0,0,1,1,3,3,2,2,8,8,7,7],"right_children":[2,4,8,6,-1,-1,-1,12,10,-1,-1,-1,-1],"split_conditions":[9.9067914E-1,7.183161E-3,2.1645213E-2,9.6992654E-1,8.3651416E-2,6.262396E-3,-2.173547E-2,7.773239E-1,1E0,1.1297486E-1,-7.6042716E-3,1.5179004E-2,-3.288513E-2],"split_indices":[37,37,10,40,0,0,0,2,10,0,0,0,0],"split_type":[0,0,0,0,0,0,0,0,0,0,0,0,0],"sum_hessian":[1.0269084E3,7.0131195E2,3.2559644E2,6.7265466E2,2.8657282E1,5.747959E2,9.78588E1,1.2375587E2,2.0184058E2,7.649445E0,1.9419113E2,2.1274397E1,1.0248147E2],"tree_param":{"num_deleted":"0","num_feature":"46","num_nodes":"13","size_leaf_vector":"0"}},{"base_weights":[7.606767E-4,-5.8766823E-2,2.097132E-1,9.864075E-2,-1.6448672E-1,-1.6584192E-4,3.1875815E-2,-4.2394022E-3,-2.7553253E-2,3.6847553E-1,-1.1594439E-1,-7.077171E-3,2.9806968E-2,3.291907E-4,-4.7119383E-2],"categories":[],"categories_nodes":[],"categories_segments":[],"categories_sizes":[],"default_left":[0,0,0,0,0,0,0,0,0,0,0,0,0,0,0],"id":80,"left_children":[1,3,9,5,7,-1,-1,-1,-1,11,13,-1,-1,-1,-1],