{"learner":{"attributes":{"best_iteration":"644","best_ntree_limit":"645","scikit_learn":"{\"use_label_encoder\": false, \"n_estimators\": 645, \"objective\": \"binary:logistic\", \"max_depth\": 3, \"max_leaves\": 873, \"max_bin\": null, \"grow_policy\": \"lossguide\", \"learning_rate\": 0.14763147013396238, \"verbosity\": null, \"booster\": null, \"tree_method\": \"hist\", \"gamma\": 0.2559596214885457, \"min_child_weight\": null, \"max_delta_step\": null, \"subsample\": 0.7014677416132448, \"sampling_method\": null, \"colsample_bytree\": 0.9710810374856307, \"colsample_bylevel\": null, \"colsample_bynode\": null, \"reg_alpha\": 4.11546061608917, \"reg_lambda\": 0.4767904896589554, \"scale_pos_weight\": 2.1979908309382057, \"base_score\": null, \"missing\": NaN, \"num_parallel_tree\": null, \"random_state\": 42, \"n_jobs\": null, \"monotone_constraints\": null, \"interaction_constraints\": null, \"importance_type\": null, \"gpu_id\": null, \"validate_parameters\": null, \"predictor\": null, \"enable_categorical\": false, \"feature_types\": null, \"max_cat_to_onehot\": null, \"max_cat_threshold\": null, \"eval_metric\": \"logloss\", \"early_stopping_rounds\": null, \"callbacks\": null, \"classes_\": [0, 1], \"n_classes_\": 2, \"_estimator_type\": \"classifier\"}"},"feature_names":[],"feature_types":[],"gradient_booster":{"model":{"gbtree_model_param":{"num_parallel_tree":"1","num_trees":"645","size_leaf_vector":"0"},"tree_info":[0,0,0,0,0,0,0,0,0,0,0,0,0,0,0,0,0,0,0,0,0,0,0,0,0,0,0,0,0,0,0,0,0,0,0,0,0,0,0,0,0,0,0,0,0,0,0,0,0,0,0,0,0,0,0,0,0,0,0,0,0,0,0,0,0,0,0,0,0,0,0,0,0,0,0,0,0,0,0,0,0,0,0,0,0,0,0,0,0,0,0,0,0,0,0,0,0,0,0,0,0,0,0,0,0,0,0,0,0,0,0,0,0,0,0,0,0,0,0,0,0,0,0,0,0,0,0,0,0,0,0,0,0,0,0,0,0,0,0,0,0,0,0,0,0,0,0,0,0,0,0,0,0,0,0,0,0,0,0,0,0,0,0,0,0,0,0,0,0,0,0,0,0,0,0,0,0,0,0,0,0,0,0,0,0,0,0,0,0,0,0,0,0,0,0,0,0,0,0,0,0,0,0,0,0,0,0,0,0,0,0,0,0,0,0,0,0,0,0,0,0,0,0,0,0,0,0,0,0,0,0,0,0,0,0,0,0,0,0,0,0,0,0,0,0,0,0,0,0,0,0,0,0,0,0,0,0,0,0,0,0,0,0,0,0,0,0,0,0,0,0,0,0,0,0,0,0,0,0,0,0,0,0,0,0,0,0,0,0,0,0,0,0,0,0,0,0,0,0,0,0,0,0,0,0,0,0,0,0,0,0,0,0,0,0,0,0,0,0,0,0,0,0,0,0,0,0,0,0,0,0,0,0,0,0,0,0,0,0,0,0,0,0,0,0,0,0,0,0,0,0,0,0,0,0,0,0,0,0,0,0,0,0,0,0,0,0,0,0,0,0,0,0,0,0,0,0,0,0,0,0,0,0,0,0,0,0,0,0,0,0,0,0,0,0,0,0,0,0,0,0,0,0,0,0,0,0,0,0,0,0,0,0,0,0,0,0,0,0,0,0,0,0,0,0,0,0,0,0,0,0,0,0,0,0,0,0,0,0,0,0,0,0,0,0,0,0,0,0,0,0,0,0,0,0,0,0,0,0,0,0,0,0,0,0,0,0,0,0,0,0,0,0,0,0,0,0,0,0,0,0,0,0,0,0,0,0,0,0,0,0,0,0,0,0,0,0,0,0,0,0,0,0,0,0,0,0,0,0,0,0,0,0,0,0,0,0,0,0,0,0,0,0,0,0,0,0,0,0,0,0,0,0,0,0,0,0,0,0,0,0,0,0,0,0,0,0,0,0,0,0,0,0,0,0,0,0,0,0,0,0,0,0,0,0,0,0,0,0,0,0,0,0,0,0,0,0,0,0,0,0,0,0,0,0,0,0,0,0,0,0,0,0,0,0,0,0,0,0,0,0,0,0,0,0,0,0,0,0,0,0,0,0,0,0,0,0,0,0,0,0,0,0,0,0,0,0,0,0,0,0,0,0,0,0,0,0,0,0,0,0,0,0,0,0],"trees":[{"base_weights":[7.599873E-1,-9.4112736E-1,1.2916039E0,-1.3982279E0,-0E0,5.7166225E-1,1.4774545E0,1.640448E-1,2.4225463E-1,4.337059E-2,-1.8382518E-1,-2.636691E-1,-1.4480338E-1,1.774503E-1,5.2053817E-2],"categories":[],"categories_nodes":[],"categories_segments":[],"categories_sizes":[],"default_left":[0,0,0,0,0,0,0,0,0,0,0,0,0,0,0],"id":0,"left_children":[1,3,5,11,9,13,7,-1,-1,-1,-1,-1,-1,-1,-1],"loss_changes":[2.1075605E3,2.409318E2,2.2878784E2,4.8256836E1,6.3743267E1,4.445085E1,7.204028E1,0E0,0E0,0E0,0E0,0E0,0E0,0E0,0E0],"parents":[2147483647,0,0,1,1,2,2,6,6,4,4,3,3,5,5],"right_children":[2,4,6,12,10,14,8,-1,-1,-1,-1,-1,-1,-1,-1],"split_conditions":[7.562875E-3,9.5279574E-1,4.3632695E-3,8.190049E-3,1.5677776E0,-1.2411926E0,1.3536257E-3,1.640448E-1,2.4225463E-1,4.337059E-2,-1.8382518E-1,-2.636691E-1,-1.4480338E-1,1.774503E-1,5.2053817E-2],"split_indices":[34,44,16,35,43,43,41,0,0,0,0,0,0,0,0],"split_type":[0,0,0,0,0,0,0,0,0,0,0,0,0,0,0],"sum_hessian":[2.3277808E3,5.523174E2,1.7754635E3,3.7319977E2,1.7911763E2,3.6923203E2,1.4062314E3,4.4288406E2,9.6334735E2,1.4667215E2,3.244548E1,1.8754196E2,1.856578E2,8.98332E1,2.793988E2],"tree_param":{"num_deleted":"0","num_feature":"46","num_nodes":"15","size_leaf_vector":"0"}},{"base_weights":[6.5269583E-1,-8.1425965E-1,1.1246537E0,-1.2631344E0,1.3545953E-2,4.5829386E-1,1.2926307E0,1.393588E-1,2.1199173E-1,2.5217247E-1,-1.682408E-2,2.8837873E-2,1.3424198E-1,-2.2736336E-1,-1.2105438E-1],"categories":[],"categories_nodes":[],"categories_segments":[],"categories_sizes":[],"default_left":[0,0,0,0,0,0,0,0,0,0,0,0,0,0,0],"id":1,"left_children":[1,3,5,13,9,11,7,-1,-1,-1,-1,-1,-1,-1,-1],"loss_changes":[1.5937352E3,2.1244745E2,1.8750757E2,3.447583E1,4.8440113E1,3.7637337E1,5.8826904E1,0E0,0E0,0E0,0E0,0E0,0E0,0E0,0E0],"parents":[2147483647,0,0,1,1,2,2,6,6,4,4,5,5,3,3],"right_children":[2,4,6,14,10,12,8,-1,-1,-1,-1,-1,-1,-1,-1],"split_conditions":[7.562875E-3,4.3632695E-3,1.7552363E-2,8.863285E-3,9.775741E-1,6.533908E-4,1.3536257E-3,1.393588E-1,2.1199173E-1,2.5217247E-1,-1.682408E-2,2.8837873E-2,1.3424198E-1,-2.2736336E-1,-1.2105438E-1],"split_indices":[34,16,25,33,16,14,41,0,0,0,0,0,0,0,0],"split_type":[0,0,0,0,0,0,0,0,0,0,0,0,0,0,0],"sum_hessian":[2.298998E3,5.5740063E2,1.7415975E3,3.644822E2,1.929184E2,3.559262E2,1.3856713E3,4.1308E2,9.725913E2,1.5345132E1,1.7757327E2,2.3103313E2,1.24893074E2,2.1786589E2,1.4661633E2],"tree_param":{"num_deleted":"0","num_feature":"46","num_nodes":"15","size_leaf_vector":"0"}},{"base_weights":[5.428132E-1,-7.621839E-1,9.688758E-1,5.1551557E-1,1.2022365E0,1.4503765E-1,-7.7104825E-3,-1.1942174E0,-8.945262E-2,1.8162718E-2,-1.629032E-1,2.0405722E-1,1.3408926E-1,-1.9560468E-1,-8.284523E-2],"categories":[],"categories_nodes":[],"categories_segments":[],"categories_sizes":[],"default_left":[0,0,0,0,0,0,0,0,0,0,0,0,0,0,0],"id":2,"left_children":[1,7,3,5,11,-1,-1,13,9,-1,-1,-1,-1,-1,-1],"loss_changes":[1.238293E3,1.5321457E2,1.7036328E2,1.569917E2,4.8313232E1,0E0,0E0,1.9063873E1,5.09757E1,0E0,0E0,0E0,0E0,0E0,0E0],"parents":[2147483647,0,0,2,2,3,3,1,1,8,8,4,4,7,7],"right_children":[2,8,4,6,12,-1,-1,14,10,-1,-1,-1,-1,-1,-1],"split_conditions":[7.562875E-3,6.533908E-4,6.533908E-4,-1.0780951E0,-5.8962625E-1,1.4503765E-1,-7.7104825E-3,1.7552363E-2,1.5677776E0,1.8162718E-2,-1.629032E-1,2.0405722E-1,1.3408926E-1,-1.9560468E-1,-8.284523E-2],"split_indices":[34,14,14,43,43,0,0,25,43,0,0,0,0,0,0],"split_type":[0,0,0,0,0,0,0,0,0,0,0,0,0,0,0],"sum_hessian":[2.2244634E3,5.450332E2,1.67943E3,5.772148E2,1.1022153E3,3.2051898E2,2.5669577E2,3.2794022E2,2.1709302E2,1.764736E2,4.061941E1,6.738874E2,4.283279E2,2.6598782E2,6.195239E1],"tree_param":{"num_deleted":"0","num_feature":"46","num_nodes":"15","size_leaf_vector":"0"}},{"base_weights":[4.8303875E-1,-6.074058E-1,8.457866E-1,-1.2289618E0,-1.22157305E-1,2.5242138E-1,1.0039415E0,-1.3298273E-1,6.266859E-2,7.794231E-2,1.6229185E-1,2.2508538E-1,2.5988411E-2,-1.957964E-1,-6.1459582E-2],"categories":[],"categories_nodes":[],"categories_segments":[],"categories_sizes":[],"default_left":[0,0,0,0,0,0,0,0,0,0,0,0,0,0,0],"id":3,"left_children":[1,3,5,13,7,11,9,-1,-1,-1,-1,-1,-1,-1,-1],"loss_changes":[8.6110425E2,1.5726202E2,1.4807129E2,1.0988159E1,1.3304393E2,2.6889019E1,5.134021E1,0E0,0E0,0E0,0E0,0E0,0E0,0E0,0E0],"parents":[2147483647,0,0,1,1,2,2,4,4,6,6,5,5,3,3],"right_children":[2,4,6,14,8,12,10,-1,-1,-1,-1,-1,-1,-1,-1],"split_conditions":[7.562875E-3,8.863285E-3,4.3632695E-3,1.3536257E-3,8.190049E-3,9.9281687E-1,4.3632695E-3,-1.3298273E-1,6.266859E-2,7.794231E-2,1.6229185E-1,2.2508538E-1,2.5988411E-2,-1.957964E-1,-6.1459582E-2],"split_indices":[34,33,16,41,35,34,38,0,0,0,0,0,0,0,0],"split_type":[0,0,0,0,0,0,0,0,0,0,0,0,0,0,0],"sum_hessian":[2.173368E3,5.396067E2,1.6337612E3,2.3253728E2,3.0706946E2,3.4955637E2,1.2842048E3,1.2963892E2,1.7743053E2,2.2206548E2,1.0621393E3,1.6235348E1,3.33321E2,2.0288309E2,2.965418E1],"tree_param":{"num_deleted":"0","num_feature":"46","num_nodes":"15","size_leaf_vector":"0"}},{"base_weights":[4.4656503E-1,-5.788365E-1,7.811918E-1,2.465942E-1,9.2862177E-1,-9.206762E-1,7.406715E-2,1.6625467E-1,1.003996E-1,3.7652176E-2,-1.547283E-1,-1.6513014E-1,-5.243353E-2,2.0886871E-1,2.2705067E-2],"categories":[],"categories_nodes":[],"categories_segments":[],"categories_sizes":[],"default_left":[0,0,0,0,0,0,0,0,0,0,0,0,0,0,0],"id":4,"left_children":[1,5,3,13,7,11,9,-1,-1,-1,-1,-1,-1,-1,-1],"loss_changes":[7.2967523E2,1.1951216E2,1.2149408E2,3.1759027E1,5.363257E1,3.2379913E1,3.2382977E1,0E0,0E0,0E0,0E0,0E0,0E0,0E0,0E0],"parents":[2147483647,0,0,2,2,1,1,4,4,6,6,5,5,3,3],"right_children":[2,6,4,14,8,12,10,-1,-1,-1,-1,-1,-1,-1,-1],"split_conditions":[7.562875E-3,9.9948925E-1,1.7552363E-2,9.9281687E-1,-8.745664E-1,1.7552363E-2,1.6084834E0,1.6625467E-1,1.003996E-1,3.7652176E-2,-1.547283E-1,-1.6513014E-1,-5.243353E-2,2.0886871E-1,2.2705067E-2],"split_indices":[34,44,25,34,43,25,43,0,0,0,0,0,0,0,0],"split_type":[0,0,0,0,0,0,0,0,0,0,0,0,0,0,0],"sum_hessian":[2.1230144E3,5.192433E2,1.6037711E3,3.5298752E2,1.2507837E3,3.4481622E2,1.744271E2,6.8676794E2,5.640157E2,1.5367833E2,2.0748758E1,2.497081E2,9.51081E1,2.2213264E1,3.3077426E2],"tree_param":{"num_deleted":"0","num_feature":"46","num_nodes":"15","size_leaf_vector":"0"}},{"base_weights":[3.8589257E-1,-5.304585E-1,6.859482E-1,1.1214489E-1,8.4573346E-1,-8.732458E-1,3.347269E-2,8.0347136E-2,1.4604045E-1,-1.5277073E-1,-1.9389953E-2,2.1825343E-1,-9.298302E-3,7.9932086E-2,-9.348454E-3],"categories":[],"categories_nodes":[],"categories_segments":[],"categories_sizes":[],"default_left":[0,0,0,0,0,0,0,0,0,0,0,0,0,0,0],"id":5,"left_children":[1,5,3,13,7,9,11,-1,-1,-1,-1,-1,-1,-1,-1],"loss_changes":[5.651046E2,1.0072981E2,1.3809174E2,2.787277E1,4.5623535E1,3.319095E1,3.1810154E1,0E0,0E0,0E0,0E0,0E0,0E0,0E0,0E0],"parents":[2147483647,0,0,2,2,1,1,4,4,5,5,6,6,3,3],"right_children":[2,6,4,14,8,10,12,-1,-1,-1,-1,-1,-1,-1,-1],"split_conditions":[7.562875E-3,4.3632695E-3,4.3632695E-3,-1.1595066E0,1.3536257E-3,1.2500249E0,9.775741E-1,8.0347136E-2,1.4604045E-1,-1.5277073E-1,-1.9389953E-2,2.1825343E-1,-9.298302E-3,7.9932086E-2,-9.348454E-3],"split_indices":[34,16,16,43,41,44,16,0,0,0,0,0,0,0,0],"split_type":[0,0,0,0,0,0,0,0,0,0,0,0,0,0,0],"sum_hessian":[2.0518176E3,5.0265598E2,1.5491617E3,3.4321466E2,1.2059471E3,3.1700177E2,1.8565422E2,3.988574E2,8.070897E2,2.5560336E2,6.13984E1,1.3860592E1,1.7179362E2,1.0609971E2,2.3711494E2],"tree_param":{"num_deleted":"0","num_feature":"46","num_nodes":"15","size_leaf_vector":"0"}},{"base_weights":[3.5054928E-1,-4.4756603E-1,6.13022E-1,5.996785E-2,7.650599E-1,-9.411162E-1,-4.2682864E-2,-1.1778831E-1,5.883323E-2,6.894982E-2,1.3429701E-1,4.0891718E-2,-5.0571945E-2,-1.5793993E-1,-6.183668E-2],"categories":[],"categories_nodes":[],"categories_segments":[],"categories_sizes":[],"default_left":[0,0,0,0,0,0,0,0,0,0,0,0,0,0,0],"id":6,"left_children":[1,5,3,11,9,13,7,-1,-1,-1,-1,-1,-1,-1,-1],"loss_changes":[4.0694977E2,9.109046E1,1.1960272E2,2.7888407E1,4.3337097E1,7.7756195E0,9.064607E1,0E0,0E0,0E0,0E0,0E0,0E0,0E0,0E0],"parents":[2147483647,0,0,2,2,1,1,6,6,4,4,3,3,5,5],"right_children":[2,6,4,12,10,14,8,-1,-1,-1,-1,-1,-1,-1,-1],"split_conditions":[7.562875E-3,8.190049E-3,1.7552363E-2,-5.8962625E-1,1.3536257E-3,1.2666167E0,8.863285E-3,-1.1778831E-1,5.883323E-2,6.894982E-2,1.3429701E-1,4.0891718E-2,-5.0571945E-2,-1.5793993E-1,-6.183668E-2],"split_indices":[34,35,25,43,41,44,33,0,0,0,0,0,0,0,0],"split_type":[0,0,0,0,0,0,0,0,0,0,0,0,0,0,0],"sum_hessian":[1.938282E3,4.7571957E2,1.4625624E3,3.213501E2,1.1412123E3,2.0951996E2,2.6619962E2,1.0146703E2,1.6473257E2,3.8281094E2,7.5840137E2,2.1552457E2,1.0582554E2,1.6137047E2,4.8149487E1],"tree_param":{"num_deleted":"0","num_feature":"46","num_nodes":"15","size_leaf_vector":"0"}},{"base_weights":[2.86636E-1,-4.1076544E-1,5.248164E-1,1.6454256E-1,7.330275E-1,8.0955215E-2,-3.477854E-2,-1.302814E-1,-4.3542977E-2,1.314829E-1,4.8484396E-2,-7.9431616E-2,3.5592068E-2],"categories":[],"categories_nodes":[],"categories_segments":[],"categories_sizes":[],"default_left":[0,0,0,0,0,0,0,0,0,0,0,0,0],"id":7,"left_children":[1,7,3,5,9,-1,-1,-1,11,-1,-1,-1,-1],"loss_changes":[3.147829E2,7.887351E1,1.0236606E2,8.2125046E1,5.153781E1,0E0,0E0,0E0,3.9828987E1,0E0,0E0,0E0,0E0],"parents":[2147483647,0,0,2,2,3,3,1,1,4,4,8,8],"right_children":[2,8,4,6,10,-1,-1,-1,12,-1,-1,-1,-1],"split_conditions":[7.562875E-3,5.5057993E-3,6.533908E-4,-1.0780951E0,-2.2327463E-1,8.0955215E-2,-3.477854E-2,-1.302814E-1,8.190049E-3,1.314829E-1,4.8484396E-2,-7.9431616E-2,3.5592068E-2],"split_indices":[34,30,14,43,43,0,0,0,35,0,0,0,0],"split_type":[0,0,0,0,0,0,0,0,0,0,0,0,0],"sum_hessian":[1.8911354E3,4.7695847E2,1.4141769E3,5.25503E2,8.886739E2,2.733749E2,2.521281E2,2.0357822E2,2.7338025E2,6.3184094E2,2.5683298E2,1.0499817E2,1.6838206E2],"tree_param":{"num_deleted":"0","num_feature":"46","num_nodes":"13","size_leaf_vector":"0"}},{"base_weights":[2.9758933E-1,-2.3394042E-1,5.716344E-1,-1.5534783E-2,-9.24447E-1,8.0469745E-1,2.6901692E-1,-1.64139E-2,8.608275E-2,8.355496E-2,-2.0390693E-2,5.4249037E-2,1.3454214E-1,-1.5567368E-1,-3.9544966E-2],"categories":[],"categories_nodes":[],"categories_segments":[],"categories_sizes":[],"default_left":[0,0,0,0,0,0,0,0,0,0,0,0,0,0,0],"id":8,"left_children":[1,3,5,9,13,11,7,-1,-1,-1,-1,-1,-1,-1,-1],"loss_changes":[2.6611514E2,8.8620995E1,8.040137E1,3.1848162E1,6.6183777E0,2.59245E1,6.553232E1,0E0,0E0,0E0,0E0,0E0,0E0,0E0,0E0],"parents":[2147483647,0,0,1,1,2,2,6,6,3,3,5,5,4,4],"right_children":[2,4,6,10,14,12,8,-1,-1,-1,-1,-1,-1,-1,-1],"split_conditions":[4.3632695E-3,9.848893E-1,-6.30332E-1,-1.2411926E0,1.9921353E-3,4.3632695E-3,1.3536257E-3,-1.64139E-2,8.608275E-2,8.355496E-2,-2.0390693E-2,5.4249037E-2,1.3454214E-1,-1.5567368E-1,-3.9544966E-2],"split_indices":[16,36,43,43,19,38,41,0,0,0,0,0,0,0,0],"split_type":[0,0,0,0,0,0,0,0,0,0,0,0,0,0,0],"sum_hessian":[1.8164667E3,6.1285114E2,1.2036156E3,4.7048526E2,1.4236583E2,6.7181885E2,5.3179675E2,2.3478558E2,2.9701117E2,7.576764E1,3.9471762E2,1.3970943E2,5.3210944E2,1.1335954E2,2.9006292E1],"tree_param":{"num_deleted":"0","num_feature":"46","num_nodes":"15","size_leaf_vector":"0"}},{"base_weights":[2.2904061E-1,-1.2319198E-1,6.041119E-1,-4.420685E-1,1.772257E-1,2.0296523E-1,4.8389176E-1,-0E0,1.0098235E-1,3.618074E-2,-9.198964E-2,2.016067E-1,1.0025829E-2],"categories":[],"categories_nodes":[],"categories_segments":[],"categories_sizes":[],"default_left":[0,0,0,0,0,0,0,0,0,0,0,0,0],"id":9,"left_children":[1,3,5,9,11,-1,7,-1,-1,-1,-1,-1,-1],"loss_changes":[2.3133655E2,8.6375916E1,7.045438E1,5.617253E1,5.2762028E1,0E0,6.928169E1,0E0,0E0,0E0,0E0,0E0,0E0],"parents":[2147483647,0,0,1,1,2,2,6,6,3,3,4,4],"right_children":[2,4,6,10,12,-1,8,-1,-1,-1,-1,-1,-1],"split_conditions":[1.3536257E-3,4.3632695E-3,9.9067914E-1,-1.1595066E0,9.775741E-1,2.0296523E-1,1.9921353E-3,-0E0,1.0098235E-1,3.618074E-2,-9.198964E-2,2.016067E-1,1.0025829E-2],"split_indices":[41,16,41,43,16,0,19,0,0,0,0,0,0],"split_type":[0,0,0,0,0,0,0,0,0,0,0,0,0],"sum_hessian":[1.7353326E3,8.894193E2,8.459133E2,4.3799088E2,4.5142844E2,1.0885646E2,7.370569E2,2.2035655E2,5.167004E2,8.655548E1,3.514354E2,3.4394188E1,4.1703427E2],"tree_param":{"num_deleted":"0","num_feature":"46","num_nodes":"13","size_leaf_vector":"0"}},{"base_weights":[2.196837E-1,-9.2908695E-2,5.6638956E-1,2.8493685E-1,-3.7952805E-1,1.96489E-1,4.524197E-1,-1.07532844E-1,-7.214142E-3,8.483462E-2,-5.0316057E-3,6.981971E-3,1.1621846E-1],"categories":[],"categories_nodes":[],"categories_segments":[],"categories_sizes":[],"default_left":[0,0,0,0,0,0,0,0,0,0,0,0,0],"id":10,"left_children":[1,3,5,11,7,-1,9,-1,-1,-1,-1,-1,-1],"loss_changes":[1.8525104E2,9.61185E1,6.278888E1,4.132928E1,5.5474182E1,0E0,4.4371643E1,0E0,0E0,0E0,0E0,0E0,0E0],"parents":[2147483647,0,0,1,1,2,2,4,4,6,6,3,3],"right_children":[2,4,6,12,8,-1,10,-1,-1,-1,-1,-1,-1],"split_conditions":[1.3536257E-3,-6.7103773E-1,9.8367894E-1,6.533908E-4,8.863285E-3,1.96489E-1,9.921584E-1,-1.07532844E-1,-7.214142E-3,8.483462E-2,-5.0316057E-3,6.981971E-3,1.1621846E-1],"split_indices":[41,43,41,14,33,0,37,0,0,0,0,0,0],"split_type":[0,0,0,0,0,0,0,0,0,0,0,0,0],"sum_hessian":[1.6906228E3,8.829909E2,8.076319E2,3.746889E2,5.08302E2,9.942824E1,7.082037E2,2.4100964E2,2.6729233E2,5.727032E2,1.3550047E2,2.6026553E2,1.1442337E2],"tree_param":{"num_deleted":"0","num_feature":"46","num_nodes":"13","size_leaf_vector":"0"}},{"base_weights":[1.9166908E-1,3.006444E-1,-7.248215E-1,-2.0273457E-1,4.1151273E-1,2.1051142E-1,5.243865E-2,-1.3150391E-1,-0E0,-6.568047E-2,5.8866444E-4,-6.486061E-2,1.413662E-1],"categories":[],"categories_nodes":[],"categories_segments":[],"categories_sizes":[],"default_left":[0,0,0,0,0,0,0,0,0,0,0,0,0],"id":11,"left_children":[1,3,7,9,5,-1,-1,-1,11,-1,-1,-1,-1],"loss_changes":[1.6323659E2,8.348294E1,1.753183E1,1.4866441E1,6.2093765E1,0E0,0E0,0E0,1.3686445E1,0E0,0E0,0E0,0E0],"parents":[2147483647,0,0,1,1,4,4,2,2,3,3,8,8],"right_children":[2,4,8,10,6,-1,-1,-1,12,-1,-1,-1,-1],"split_conditions":[9.924371E-1,6.533908E-4,1.3611897E0,1.9921353E-3,9.948663E-1,2.1051142E-1,5.243865E-2,-1.3150391E-1,1.9921353E-3,-6.568047E-2,5.8866444E-4,-6.486061E-2,1.413662E-1],"split_indices":[36,6,44,19,6,0,0,0,19,0,0,0,0],"split_type":[0,0,0,0,0,0,0,0,0,0,0,0,0],"sum_hessian":[1.650373E3,1.4792891E3,1.71084E2,2.6023245E2,1.2190565E3,5.9660774E1,1.1593958E3,1.3521432E2,3.5869682E1,1.2875911E2,1.3147334E2,2.7258533E1,8.611149E0],"tree_param":{"num_deleted":"0","num_feature":"46","num_nodes":"13","size_leaf_vector":"0"}},{"base_weights":[1.5610135E-1,-1.7898236E-1,4.100712E-1,3.5839197E-1,-3.9829385E-1,6.7712086E-1,8.206463E-2,3.1778056E-2,-7.5556844E-2,-7.606676E-2,-1.7531848E-3,3.198406E-2,1.114219E-1,6.078142E-2,-6.843916E-2],"categories":[],"categories_nodes":[],"categories_segments":[],"categories_sizes":[],"default_left":[0,0,0,0,0,0,0,0,0,0,0,0,0,0,0],"id":12,"left_children":[1,3,5,13,9,11,7,-1,-1,-1,-1,-1,-1,-1,-1],"loss_changes":[1.3844104E2,8.151922E1,7.795567E1,8.411369E0,2.0220573E1,1.3914764E1,3.2289303E1,0E0,0E0,0E0,0E0,0E0,0E0,0E0,0E0],"parents":[2147483647,0,0,1,1,2,2,6,6,4,4,5,5,3,3],"right_children":[2,4,6,14,10,12,8,-1,-1,-1,-1,-1,-1,-1,-1],"split_conditions":[6.533908E-4,-1.1595066E0,-2.2327463E-1,-1.5529764E-1,8.114594E-1,4.3632695E-3,9.9096155E-1,3.1778056E-2,-7.5556844E-2,-7.606676E-2,-1.7531848E-3,3.198406E-2,1.114219E-1,6.078142E-2,-6.843916E-2],"split_indices":[14,43,43,44,8,38,37,0,0,0,0,0,0,0,0],"split_type":[0,0,0,0,0,0,0,0,0,0,0,0,0,0,0],"sum_hessian":[1.6147188E3,6.892585E2,9.2546027E2,1.942425E2,4.95016E2,5.0293585E2,4.2252438E2,3.5103076E2,7.1493645E1,3.7170593E2,1.2331008E2,8.044903E1,4.2248685E2,1.8733548E2,6.907009E0],"tree_param":{"num_deleted":"0","num_feature":"46","num_nodes":"15","size_leaf_vector":"0"}},{"base_weights":[1.4330783E-1,-1.04440555E-1,4.2862928E-1,1.865169E-1,3.133503E-1,1.7321499E-1,-3.157268E-1,-3.053464E-2,6.440944E-2,3.0888552E-2,-6.753002E-2,-0E0,8.926308E-2],"categories":[],"categories_nodes":[],"categories_segments":[],"categories_sizes":[],"default_left":[0,0,0,0,0,0,0,0,0,0,0,0,0],"id":13,"left_children":[1,5,3,-1,7,11,9,-1,-1,-1,-1,-1,-1],"loss_changes":[1.1293579E2,4.9746567E1,6.4670715E1,0E0,4.2965004E1,2.7482758E1,3.708372E1,0E0,0E0,0E0,0E0,0E0,0E0],"parents":[2147483647,0,0,2,2,1,1,4,4,6,6,5,5],"right_children":[2,6,4,-1,8,12,10,-1,-1,-1,-1,-1,-1],"split_conditions":[1.3536257E-3,-6.7103773E-1,9.9067914E-1,1.865169E-1,4.3632695E-3,6.533908E-4,9.6501535E-1,-3.053464E-2,6.440944E-2,3.0888552E-2,-6.753002E-2,-0E0,8.926308E-2],"split_indices":[41,43,41,0,16,14,2,0,0,0,0,0,0],"split_type":[0,0,0,0,0,0,0,0,0,0,0,0,0],"sum_hessian":[1.578014E3,8.370611E2,7.409529E2,8.499959E1,6.559533E2,3.5333896E2,4.8372217E2,1.1892763E2,5.370257E2,9.659323E1,3.871289E2,2.4960287E2,1.03736084E2],"tree_param":{"num_deleted":"0","num_feature":"46","num_nodes":"13","size_leaf_vector":"0"}},{"base_weights":[1.6275111E-1,-1.8189256E-1,3.6047E-1,2.1058129E-1,2.891045E-1,9.877021E-2,1.287591E-2,-3.908498E-2,-6.5702826E-1,-1.5819842E-2,2.735356E-1,-1.1841864E-1,-0E0],"categories":[],"categories_nodes":[],"categories_segments":[],"categories_sizes":[],"default_left":[0,0,0,0,0,0,0,0,0,0,0,0,0],"id":14,"left_children":[1,7,3,-1,5,-1,-1,9,11,-1,-1,-1,-1],"loss_changes":[1.0588693E2,3.4788597E1,6.790318E1,0E0,6.821237E1,0E0,0E0,4.880266E1,8.92104E0,0E0,0E0,0E0,0E0],"parents":[2147483647,0,0,2,2,4,4,1,1,7,7,8,8],"right_children":[2,8,4,-1,6,-1,-1,10,12,-1,-1,-1,-1],"split_conditions":[1.7552363E-2,1E0,1E0,2.1058129E-1,-1.0373893E0,9.877021E-2,1.287591E-2,2.8176461E-3,1.9921353E-3,-1.5819842E-2,2.735356E-1,-1.1841864E-1,-0E0],"split_indices":[25,36,25,0,43,0,0,36,19,0,0,0,0],"split_type":[0,0,0,0,0,0,0,0,0,0,0,0,0],"sum_hessian":[1.5421824E3,5.5463025E2,9.875521E2,5.7782448E1,9.2976965E2,3.1517044E2,6.1459924E2,4.335111E2,1.21119156E2,4.2098862E2,1.2522467E1,9.497263E1,2.6146526E1],"tree_param":{"num_deleted":"0","num_feature":"46","num_nodes":"13","size_leaf_vector":"0"}},{"base_weights":[1.19741395E-1,-2.963142E-1,2.6880285E-1,-0E0,4.5510116E-1,-6.821806E-1,-6.099558E-2,1.47560015E-2,-1.04525544E-1,3.309642E-2,-6.893493E-2,7.596007E-2,-4.077747E-2,-1.1168395E-1,-2.6484055E-2],"categories":[],"categories_nodes":[],"categories_segments":[],"categories_sizes":[],"default_left":[0,0,0,0,0,0,0,0,0,0,0,0,0,0,0],"id":15,"left_children":[1,5,3,7,11,13,9,-1,-1,-1,-1,-1,-1,-1,-1],"loss_changes":[9.210898E1,3.1881805E1,5.469555E1,3.1506847E1,2.9229782E1,1.2847519E0,2.9563707E1,0E0,0E0,0E0,0E0,0E0,0E0,0E0,0E0],"parents":[2147483647,0,0,2,2,1,1,3,3,6,6,4,4,5,5],"right_children":[2,6,4,8,12,14,10,-1,-1,-1,-1,-1,-1,-1,-1],"split_conditions":[7.562875E-3,8.863285E-3,6.533908E-4,-1.9345869E-1,9.164859E-1,1.3536257E-3,9.924371E-1,1.47560015E-2,-1.04525544E-1,3.309642E-2,-6.893493E-2,7.596007E-2,-4.077747E-2,-1.1168395E-1,-2.6484055E-2],"split_indices":[34,33,14,44,43,41,0,0,0,0,0,0,0,0,0],"split_type":[0,0,0,0,0,0,0,0,0,0,0,0,0,0,0],"sum_hessian":[1.4859376E3,3.845404E2,1.1013972E3,4.5339334E2,6.4800385E2,1.3870425E2,2.4583615E2,3.9897916E2,5.4414158E1,1.385672E2,1.0726895E2,6.046417E2,4.336215E1,1.1350021E2,2.520404E1],"tree_param":{"num_deleted":"0","num_feature":"46","num_nodes":"15","size_leaf_vector":"0"}},{"base_weights":[1.2050662E-1,2.6078093E-1,-1.7633279E-1,1.8421535E-1,1.9777544E-1,5.81837E-2,-1.0754042E-2,3.7385243E-1,-3.1075707E-1,-6.435467E-2,-3.6563466E-3,-0E0,6.2129993E-2],"categories":[],"categories_nodes":[],"categories_segments":[],"categories_sizes":[],"default_left":[0,0,0,0,0,0,0,0,0,0,0,0,0],"id":16,"left_children":[1,3,7,5,-1,-1,-1,11,9,-1,-1,-1,-1],"loss_changes":[6.053454E1,7.545895E1,3.34142E1,5.147743E1,0E0,0E0,0E0,2.9291735E0,1.139912E1,0E0,0E0,0E0,0E0],"parents":[2147483647,0,0,1,1,3,3,2,2,8,8,7,7],"right_children":[2,4,8,6,-1,-1,-1,12,10,-1,-1,-1,-1],"split_conditions":[9.924371E-1,1.2404037E-2,-1.2411926E0,-2.639804E-1,1.9777544E-1,5.81837E-2,-1.0754042E-2,-1.5141633E0,3.8423266E-3,-6.435467E-2,-3.6563466E-3,-0E0,6.2129993E-2],"split_indices":[37,37,43,43,0,0,0,44,18,0,0,0,0],"split_type":[0,0,0,0,0,0,0,0,0,0,0,0,0],"sum_hessian":[1.4444463E3,9.90363E2,4.5408334E2,9.2881934E2,6.1543625E1,5.199857E2,4.0883362E2,8.298191E1,3.7110144E2,2.4795107E2,1.2315037E2,1.0591791E0,8.192274E1],"tree_param":{"num_deleted":"0","num_feature":"46","num_nodes":"13","size_leaf_vector":"0"}},{"base_weights":[9.2752926E-2,-3.5832655E-1,2.0978627E-1,2.1760526E-1,1.4824255E-1,5.3578444E-2,-7.803929E-3,-5.5815977E-1,-8.351448E-2,2.27523E-2,-9.387773E-2,-1.3391429E-1,-4.049434E-2],"categories":[],"categories_nodes":[],"categories_segments":[],"categories_sizes":[],"default_left":[0,0,0,0,0,0,0,0,0,0,0,0,0],"id":17,"left_children":[1,7,3,-1,5,-1,-1,11,9,-1,-1,-1,-1],"loss_changes":[7.475578E1,1.3092091E1,8.195763E1,0E0,4.8396442E1,0E0,0E0,1.0604794E1,1.909572E1,0E0,0E0,0E0,0E0],"parents":[2147483647,0,0,2,2,4,4,1,1,8,8,7,7],"right_children":[2,8,4,-1,6,-1,-1,12,10,-1,-1,-1,-1],"split_conditions":[6.533908E-4,6.533908E-4,1E0,2.1760526E-1,-6.304118E-1,5.3578444E-2,-7.803929E-3,3.2182636E-3,7.208668E-1,2.27523E-2,-9.387773E-2,-1.3391429E-1,-4.049434E-2],"split_indices":[6,14,6,0,43,0,0,10,43,0,0,0,0],"split_type":[0,0,0,0,0,0,0,0,0,0,0,0,0],"sum_hessian":[1.4264856E3,2.8641473E2,1.1400709E3,4.9312553E1,1.0907583E3,5.3728644E2,5.534719E2,1.5687433E2,1.2954039E2,8.560634E1,4.393406E1,6.3399605E1,9.3474724E1],"tree_param":{"num_deleted":"0","num_feature":"46","num_nodes":"13","size_leaf_vector":"0"}},{"base_weights":[8.116023E-2,-2.3265015E-1,2.3274809E-1,1.6513212E-1,1.8654285E-1,-2.1547053E-2,4.467292E-2,2.8259993E-1,-3.5367915E-1,-5.8538154E-2,3.9422307E-2,5.326184E-2,-3.5115547E-2],"categories":[],"categories_nodes":[],"categories_segments":[],"categories_sizes":[],"default_left":[0,0,0,0,0,0,0,0,0,0,0,0,0],"id":18,"left_children":[1,7,3,5,-1,-1,-1,11,9,-1,-1,-1,-1],"loss_changes":[6.760971E1,2.866093E1,6.1424236E1,3.9658012E1,0E0,0E0,0E0,3.8091674E0,1.0539398E1,0E0,0E0,0E0,0E0],"parents":[2147483647,0,0,2,2,3,3,1,1,8,8,7,7],"right_children":[2,8,4,6,-1,-1,-1,12,10,-1,-1,-1,-1],"split_conditions":[4.3632695E-3,-1.240918E0,1.2404037E-2,1.7552363E-2,1.8654285E-1,-2.1547053E-2,4.467292E-2,8.68905E-1,1.4325343E0,-5.8538154E-2,3.9422307E-2,5.326184E-2,-3.5115547E-2],"split_indices":[38,43,37,25,0,0,0,40,44,0,0,0,0],"split_type":[0,0,0,0,0,0,0,0,0,0,0,0,0],"sum_hessian":[1.4202446E3,4.5367108E2,9.665735E2,9.1134045E2,5.523304E1,2.7011154E2,6.4122894E2,7.9705376E1,3.739657E2,3.561871E2,1.7778593E1,7.629858E1,3.4067984E0],"tree_param":{"num_deleted":"0","num_feature":"46","num_nodes":"13","size_leaf_vector":"0"}},{"base_weights":[5.8496147E-2,-1.5111358E-1,2.3470701E-1,2.5581372E-1,-3.174226E-1,5.4068077E-1,6.382444E-2,3.291239E-2,-4.8143253E-2,-7.0577525E-2,-1.3829866E-2,4.7296453E-2,-1.4668086E-1,2.0735893E-2,9.079834E-2],"categories":[],"categories_nodes":[],"categories_segments":[],"categories_sizes":[],"default_left":[0,0,0,0,0,0,0,0,0,0,0,0,0,0,0],"id":19,"left_children":[1,3,5,11,9,13,7,-1,-1,-1,-1,-1,-1,-1,-1],"loss_changes":[5.160143E1,4.2469444E1,3.747055E1,1.1406539E1,1.3792992E1,4.743881E0,3.0615143E1,0E0,0E0,0E0,0E0,0E0,0E0,0E0,0E0],"parents":[2147483647,0,0,1,1,2,2,6,6,4,4,3,3,5,5],"right_children":[2,4,6,12,10,14,8,-1,-1,-1,-1,-1,-1,-1,-1],"split_conditions":[6.533908E-4,-1.1595066E0,-7.117435E-1,-1.5529764E-1,1.7552363E-2,4.3632695E-3,9.944942E-1,3.291239E-2,-4.8143253E-2,-7.0577525E-2,-1.3829866E-2,4.7296453E-2,-1.4668086E-1,2.0735893E-2,9.079834E-2],"split_indices":[14,43,43,44,25,38,28,0,0,0,0,0,0,0,0],"split_type":[0,0,0,0,0,0,0,0,0,0,0,0,0,0,0],"sum_hessian":[1.3868192E3,6.227483E2,7.640709E2,1.7341978E2,4.4932852E2,2.6480646E2,4.992645E2,3.622186E2,1.3704591E2,2.505233E2,1.9880522E2,1.6836879E2,5.050997E0,5.03755E1,2.1443094E2],"tree_param":{"num_deleted":"0","num_feature":"46","num_nodes":"15","size_leaf_vector":"0"}},{"base_weights":[5.6784194E-2,-1.01994984E-1,2.5985575E-1,1.7230198E-1,1.4832109E-1,-2.886123E-2,4.196668E-2,-5.9990834E-2,-9.075403E-1,-2.090916E-2,6.066696E-2,-1.3993955E-1,-0E0],"categories":[],"categories_nodes":[],"categories_segments":[],"categories_sizes":[],"default_left":[0,0,0,0,0,0,0,0,0,0,0,0,0],"id":20,"left_children":[1,7,3,-1,5,-1,-1,9,11,-1,-1,-1,-1],"loss_changes":[4.4503815E1,2.1438272E1,5.6041683E1,0E0,2.591893E1,0E0,0E0,2.6605879E1,5.067196E-1,0E0,0E0,0E0,0E0],"parents":[2147483647,0,0,2,2,4,4,1,1,7,7,8,8],"right_children":[2,8,4,-1,6,-1,-1,10,12,-1,-1,-1,-1],"split_conditions":[1.3536257E-3,1.5677776E0,9.9067914E-1,1.7230198E-1,6.533908E-4,-2.886123E-2,4.196668E-2,1.2129903E0,1.6980026E0,-2.090916E-2,6.066696E-2,-1.3993955E-1,-0E0],"split_indices":[41,43,41,0,14,0,0,44,44,0,0,0,0],"split_type":[0,0,0,0,0,0,0,0,0,0,0,0,0],"sum_hessian":[1.3592224E3,7.515589E2,6.076635E2,6.1992104E1,5.456714E2,1.4598431E2,3.9968707E2,7.196546E2,3.1904276E1,6.210599E2,9.859475E1,2.9769629E1,2.1346476E0],"tree_param":{"num_deleted":"0","num_feature":"46","num_nodes":"13","size_leaf_vector":"0"}},{"base_weights":[5.90179E-2,-2.4999031E-1,1.4315796E-1,1.9778672E-1,9.090658E-2,2.436798E-2,-4.0707696E-2,-8.2843505E-2,-5.382665E-1,-6.112151E-2,2.4917644E-2,-1.1877223E-1,-1.9329393E-2],"categories":[],"categories_nodes":[],"categories_segments":[],"categories_sizes":[],"default_left":[0,0,0,0,0,0,0,0,0,0,0,0,0],"id":21,"left_children":[1,7,3,-1,5,-1,-1,9,11,-1,-1,-1,-1],"loss_changes":[3.482203E1,1.090547E1,6.134252E1,0E0,2.7705605E1,0E0,0E0,1.6602242E1,6.2484646E0,0E0,0E0,0E0,0E0],"parents":[2147483647,0,0,2,2,4,4,1,1,7,7,8,8],"right_children":[2,8,4,-1,6,-1,-1,10,12,-1,-1,-1,-1],"split_conditions":[6.533908E-4,4.3301785E-1,9.7852546E-1,1.9778672E-1,9.9163634E-1,2.436798E-2,-4.0707696E-2,9.331619E-3,1.7552363E-2,-6.112151E-2,2.4917644E-2,-1.1877223E-1,-1.9329393E-2],"split_indices":[6,43,6,0,39,0,0,0,25,0,0,0,0],"split_type":[0,0,0,0,0,0,0,0,0,0,0,0,0],"sum_hessian":[1.3550874E3,2.7934143E2,1.075746E3,4.1222622E1,1.0345233E3,8.7004584E2,1.6447751E2,1.8624419E2,9.3097244E1,8.734083E1,9.890336E1,4.9907436E1,4.3189808E1],"tree_param":{"num_deleted":"0","num_feature":"46","num_nodes":"13","size_leaf_vector":"0"}},{"base_weights":[3.837294E-2,-2.0912571E-1,1.5955892E-1,9.3816854E-2,1.8466298E-1,4.135788E-2,-1.563501E-2,-3.5059594E-2,-4.518426E-1,-2.8574303E-2,9.340819E-2,-4.03922E-2,-1.3095203E-1],"categories":[],"categories_nodes":[],"categories_segments":[],"categories_sizes":[],"default_left":[0,0,0,0,0,0,0,0,0,0,0,0,0],"id":22,"left_children":[1,7,3,5,-1,-1,-1,9,11,-1,-1,-1,-1],"loss_changes":[3.9414333E1,1.5861877E1,5.8821068E1,3.2394684E1,0E0,0E0,0E0,2.5425234E1,8.043404E0,0E0,0E0,0E0,0E0],"parents":[2147483647,0,0,2,2,3,3,1,1,7,7,8,8],"right_children":[2,8,4,6,-1,-1,-1,10,12,-1,-1,-1,-1],"split_conditions":[4.3632695E-3,-5.164255E-1,1.2404037E-2,-2.639804E-1,1.8466298E-1,4.135788E-2,-1.563501E-2,1.8856268E-2,8.986271E-1,-2.8574303E-2,9.340819E-2,-4.03922E-2,-1.3095203E-1],"split_indices":[38,45,37,43,0,0,0,39,39,0,0,0,0],"split_type":[0,0,0,0,0,0,0,0,0,0,0,0,0],"sum_hessian":[1.3198955E3,4.22571E2,8.973245E2,8.503837E2,4.6940792E1,4.5050806E2,3.9987567E2,2.5627972E2,1.6629132E2,2.1237518E2,4.390453E1,1.2523199E2,4.1059326E1],"tree_param":{"num_deleted":"0","num_feature":"46","num_nodes":"13","size_leaf_vector":"0"}},{"base_weights":[4.0133E-2,1.956577E-1,-1.5819713E-1,9.748466E-2,2.2641592E-1,8.260117E-2,-4.3406528E-1,-4.500084E-2,3.0054048E-2,4.576088E-2,-8.624306E-3,-4.050082E-2,-1.1379478E-1],"categories":[],"categories_nodes":[],"categories_segments":[],"categories_sizes":[],"default_left":[0,0,0,0,0,0,0,0,0,0,0,0,0],"id":23,"left_children":[1,3,5,7,-1,9,11,-1,-1,-1,-1,-1,-1],"loss_changes":[4.1263905E1,9.285869E1,3.9606686E1,2.9920086E1,0E0,1.0631372E1,1.0424343E1,0E0,0E0,0E0,0E0,0E0,0E0],"parents":[2147483647,0,0,1,1,2,2,3,3,5,5,6,6],"right_children":[2,4,6,8,-1,10,12,-1,-1,-1,-1,-1,-1],"split_conditions":[1E0,3.2182636E-3,-9.152721E-1,6.533908E-4,2.2641592E-1,-1.240918E0,9.715327E-1,-4.500084E-2,3.0054048E-2,4.576088E-2,-8.624306E-3,-4.050082E-2,-1.1379478E-1],"split_indices":[10,10,43,6,0,43,41,0,0,0,0,0,0],"split_type":[0,0,0,0,0,0,0,0,0,0,0,0,0],"sum_hessian":[1.3318191E3,7.580979E2,5.737212E2,7.0961835E2,4.84795E1,2.985448E2,2.751764E2,1.3979977E2,5.698186E2,1.2523695E2,1.7330785E2,1.9552025E2,7.965615E1],"tree_param":{"num_deleted":"0","num_feature":"46","num_nodes":"13","size_leaf_vector":"0"}},{"base_weights":[3.3226144E-2,-1.3446838E-1,1.8610393E-1,1.9197437E-1,1.0818552E-1,4.060297E-2,-1.300666E-2,-2.3672935E-1,1.4068931E-1,-1.4388655E-2,-1.0917012E-1,-2.7549759E-2,8.7768465E-2],"categories":[],"categories_nodes":[],"categories_segments":[],"categories_sizes":[],"default_left":[0,0,0,0,0,0,0,0,0,0,0,0,0],"id":24,"left_children":[1,7,3,-1,5,-1,-1,9,11,-1,-1,-1,-1],"loss_changes":[3.3535366E1,1.749315E1,5.4280327E1,0E0,2.2114857E1,0E0,0E0,2.8285704E1,2.4588747E1,0E0,0E0,0E0,0E0],"parents":[2147483647,0,0,2,2,4,4,1,1,7,7,8,8],"right_children":[2,8,4,-1,6,-1,-1,10,12,-1,-1,-1,-1],"split_conditions":[1.9921353E-3,8.190049E-3,1E0,1.9197437E-1,-5.8962625E-1,4.060297E-2,-1.300666E-2,9.309487E-1,2.3717026E-3,-1.4388655E-2,-1.0917012E-1,-2.7549759E-2,8.7768465E-2],"split_indices":[19,35,19,0,43,0,0,27,27,0,0,0,0],"split_type":[0,0,0,0,0,0,0,0,0,0,0,0,0],"sum_hessian":[1.2988652E3,6.066056E2,6.9225964E2,4.130383E1,6.509558E2,3.630987E2,2.8785712E2,4.5319955E2,1.5340602E2,3.6174722E2,9.145232E1,8.4021225E1,6.938479E1],"tree_param":{"num_deleted":"0","num_feature":"46","num_nodes":"13","size_leaf_vector":"0"}},{"base_weights":[5.8025528E-2,-1.2084442E-2,2.9717323E-1,3.3720645E-1,-1.0570216E-1,3.7339348E-1,-5.031512E-1,2.5646484E-3,-3.867683E-2,-0E0,6.7525245E-2,3.6279067E-2,1.4047264E-1,-0E0,-1.1643156E-1],"categories":[],"categories_nodes":[],"categories_segments":[],"categories_sizes":[],"default_left":[0,0,0,0,0,0,0,0,0,0,0,0,0,0,0],"id":25,"left_children":[1,3,5,11,7,9,13,-1,-1,-1,-1,-1,-1,-1,-1],"loss_changes":[2.282308E1,3.1292686E1,1.8223854E1,6.150774E0,1.6144436E1,1.05245285E1,8.962164E-1,0E0,0E0,0E0,0E0,0E0,0E0,0E0,0E0],"parents":[2147483647,0,0,1,1,2,2,4,4,5,5,3,3,6,6],"right_children":[2,4,6,12,8,10,14,-1,-1,-1,-1,-1,-1,-1,-1],"split_conditions":[1.0114703E0,-1.2002122E0,1.5677776E0,-1.2383566E0,1E0,6.533908E-4,4.8192123E-1,2.5646484E-3,-3.867683E-2,-0E0,6.7525245E-2,3.6279067E-2,1.4047264E-1,-0E0,-1.1643156E-1],"split_indices":[44,43,43,43,10,6,0,0,0,0,0,0,0,0,0],"split_type":[0,0,0,0,0,0,0,0,0,0,0,0,0,0,0],"sum_hessian":[1.2906642E3,9.85108E2,3.0555627E2,1.9866844E2,7.864395E2,2.8391385E2,2.1642426E1,4.2546564E2,3.6097388E2,4.455529E1,2.3935857E2,1.7933372E2,1.9334717E1,1.1675415E1,9.9670105E0],"tree_param":{"num_deleted":"0","num_feature":"46","num_nodes":"15","size_leaf_vector":"0"}},{"base_weights":[-0E0,4.0889004E-1,-5.4966066E-2,8.348733E-2,-2.8180864E-1,-0E0,2.1620026E-1,-5.5052835E-2,-0E0,1.4404371E-1,6.977705E-1,-0E0,1.1238445E-1,3.4040615E-2,-4.4432603E-2],"categories":[],"categories_nodes":[],"categories_segments":[],"categories_sizes":[],"default_left":[0,0,0,0,0,0,0,0,0,0,0,0,0,0,0],"id":26,"left_children":[1,9,3,5,7,-1,-1,-1,-1,13,11,-1,-1,-1,-1],"loss_changes":[2.8625864E1,8.0439415E0,3.588494E1,8.263585E1,9.878834E0,0E0,0E0,0E0,0E0,3.0872836E0,3.1118813E0,0E0,0E0,0E0,0E0],"parents":[2147483647,0,0,2,2,3,3,4,4,1,1,10,10,9,9],"right_children":[2,10,4,6,8,-1,-1,-1,-1,14,12,-1,-1,-1,-1],"split_conditions":[-1.240918E0,-9.844812E-1,1E0,3.2182636E-3,3.8423266E-3,-0E0,2.1620026E-1,-5.5052835E-2,-0E0,-5.2695316E-1,6.533908E-4,-0E0,1.1238445E-1,3.4040615E-2,-4.4432603E-2],"split_indices":[43,45,10,10,18,0,0,0,0,44,6,0,0,0,0],"split_type":[0,0,0,0,0,0,0,0,0,0,0,0,0,0,0],"sum_hessian":[1.2663207E3,1.505686E2,1.1157522E3,6.8178406E2,4.3396808E2,6.4151215E2,4.0271896E1,3.18672E2,1.1529607E2,8.635703E1,6.421157E1,4.968795E0,5.9242775E1,8.0233086E1,6.1239433E0],"tree_param":{"num_deleted":"0","num_feature":"46","num_nodes":"15","size_leaf_vector":"0"}},{"base_weights":[2.859359E-2,7.303224E-2,-3.8358986E-1,4.906696E-2,2.1788767E-1,-1.0985192E-2,3.2892253E-2,-6.1821747E-1,-0E0,-1.3416684E-1,-0E0,-7.394614E-2,3.21003E-2],"categories":[],"categories_nodes":[],"categories_segments":[],"categories_sizes":[],"default_left":[0,0,0,0,0,0,0,0,0,0,0,0,0],"id":27,"left_children":[1,3,7,5,-1,-1,-1,9,11,-1,-1,-1,-1],"loss_changes":[2.2338789E1,3.3113075E1,1.0262167E1,2.5423616E1,0E0,0E0,0E0,1.0100628E1,5.081996E0,0E0,0E0,0E0,0E0],"parents":[2147483647,0,0,1,1,3,3,2,2,7,7,8,8],"right_children":[2,4,8,6,-1,-1,-1,10,12,-1,-1,-1,-1],"split_conditions":[1E0,2.8176461E-3,1.8856268E-2,8.863285E-3,2.1788767E-1,-1.0985192E-2,3.2892253E-2,5.7586604E-3,1.0798434E0,-1.3416684E-1,-0E0,-7.394614E-2,3.21003E-2],"split_indices":[36,36,39,33,0,0,0,4,45,0,0,0,0],"split_type":[0,0,0,0,0,0,0,0,0,0,0,0,0],"sum_hessian":[1.2881448E3,1.1721489E3,1.1599579E2,1.1558307E3,1.6318184E1,6.6194965E2,4.9388113E2,7.121498E1,4.4780807E1,4.4928555E1,2.6286425E1,1.3863455E1,3.091735E1],"tree_param":{"num_deleted":"0","num_feature":"46","num_nodes":"13","size_leaf_vector":"0"}},{"base_weights":[6.5944847E-3,-1.4648518E-1,9.880401E-2,2.91874E-2,1.7146303E-1,1.4064188E-2,-5.135802E-2,-1.0460919E-1,-7.121695E-1,7.770929E-3,-3.717245E-2,-1.1866428E-1,-0E0],"categories":[],"categories_nodes":[],"categories_segments":[],"categories_sizes":[],"default_left":[0,0,0,0,0,0,0,0,0,0,0,0,0],"id":28,"left_children":[1,7,3,5,-1,-1,-1,9,11,-1,-1,-1,-1],"loss_changes":[1.7644365E1,7.4609947E0,5.4674385E1,1.7915527E1,0E0,0E0,0E0,1.0872786E1,1.0763731E0,0E0,0E0,0E0,0E0],"parents":[2147483647,0,0,2,2,3,3,1,1,7,7,8,8],"right_children":[2,8,4,6,-1,-1,-1,10,12,-1,-1,-1,-1],"split_conditions":[4.3632695E-3,1.5677776E0,3.8423266E-3,9.8498964E-1,1.7146303E-1,1.4064188E-2,-5.135802E-2,9.4675624E-1,2.6319263E0,7.770929E-3,-3.717245E-2,-1.1866428E-1,-0E0],"split_indices":[16,43,18,40,0,0,0,4,45,0,0,0,0],"split_type":[0,0,0,0,0,0,0,0,0,0,0,0,0],"sum_hessian":[1.2629441E3,4.5788455E2,8.050595E2,7.596543E2,4.540517E1,6.559712E2,1.0368313E2,4.3362473E2,2.4259842E1,1.9627466E2,2.3735005E2,2.060816E1,3.6516833E0],"tree_param":{"num_deleted":"0","num_feature":"46","num_nodes":"13","size_leaf_vector":"0"}},{"base_weights":[-9.126216E-3,-1.826118E-1,1.2705405E-1,4.6103895E-1,2.2205729E-2,2.609716E-2,-4.1167535E-2,-3.258125E-1,5.0390614E-3,2.1716958E-1,-2.851417E-2,-7.780573E-2,-1.5968414E-2,1.079364E-1,3.7503686E-2],"categories":[],"categories_nodes":[],"categories_segments":[],"categories_sizes":[],"default_left":[0,0,0,0,0,0,0,0,0,0,0,0,0,0,0],"id":29,"left_children":[1,7,3,13,5,-1,-1,11,9,-1,-1,-1,-1,-1,-1],"loss_changes":[2.9541342E1,1.6339817E1,2.1882513E1,4.4391403E0,2.4210546E1,0E0,0E0,1.1786491E1,7.2200165E1,0E0,0E0,0E0,0E0,0E0,0E0],"parents":[2147483647,0,0,2,2,4,4,1,1,8,8,7,7,3,3],"right_children":[2,8,4,14,6,-1,-1,12,10,-1,-1,-1,-1,-1,-1],"split_conditions":[6.533908E-4,2.1791444E-3,-9.5597786E-1,9.6961296E-1,1E0,2.609716E-2,-4.1167535E-2,1.9921353E-3,9.8199344E-1,2.1716958E-1,-2.851417E-2,-7.780573E-2,-1.5968414E-2,1.079364E-1,3.7503686E-2],"split_indices":[14,42,43,10,28,0,0,19,42,0,0,0,0,0,0],"split_type":[0,0,0,0,0,0,0,0,0,0,0,0,0,0,0],"sum_hessian":[1.2397876E3,5.5843396E2,6.8135364E2,1.5302737E2,5.2832623E2,3.5825928E2,1.7006696E2,3.2896988E2,2.294641E2,2.9434828E1,2.0002927E2,1.607611E2,1.6820879E2,5.7247246E1,9.578013E1],"tree_param":{"num_deleted":"0","num_feature":"46","num_nodes":"15","size_leaf_vector":"0"}},{"base_weights":[-7.395074E-4,6.070227E-2,-2.2477774E-1,7.846374E-3,1.6230893E-1,1.1693879E-2,-6.2349785E-2,-3.791092E-1,1.0685584E-1,1.821772E-1,-1.8576909E-3,-2.818398E-2,-8.8699475E-2],"categories":[],"categories_nodes":[],"categories_segments":[],"categories_sizes":[],"default_left":[0,0,0,0,0,0,0,0,0,0,0,0,0],"id":30,"left_children":[1,3,7,5,-1,-1,-1,11,9,-1,-1,-1,-1],"loss_changes":[1.7898642E1,4.8557854E1,1.5660262E1,2.6998064E1,0E0,0E0,0E0,5.123148E0,1.6073612E1,0E0,0E0,0E0,0E0],"parents":[2147483647,0,0,1,1,3,3,2,2,8,8,7,7],"right_children":[2,4,8,6,-1,-1,-1,12,10,-1,-1,-1,-1],"split_conditions":[9.956367E-1,3.8423266E-3,1.1302536E-2,9.891889E-1,1.6230893E-1,1.1693879E-2,-6.2349785E-2,3.8731137E-1,9.46652E-1,1.821772E-1,-1.8576909E-3,-2.818398E-2,-8.8699475E-2],"split_indices":[18,18,40,40,0,0,0,43,40,0,0,0,0],"split_type":[0,0,0,0,0,0,0,0,0,0,0,0,0],"sum_hessian":[1.2502683E3,9.6703906E2,2.8322925E2,9.244407E2,4.2598392E1,8.014433E2,1.2299736E2,2.0170413E2,8.152513E1,1.0686282E1,7.0838844E1,1.1961562E2,8.208851E1],"tree_param":{"num_deleted":"0","num_feature":"46","num_nodes":"13","size_leaf_vector":"0"}},{"base_weights":[3.3083463E-3,9.929744E-2,-1.9553919E-1,3.7328806E-2,1.7754671E-1,2.6480822E-2,-2.1316336E-2,-5.056493E-2,-3.9334837E-1,-1.6615093E-2,1.3955979E-1,-2.9104535E-2,-1.0527802E-1],"categories":[],"categories_nodes":[],"categories_segments":[],"categories_sizes":[],"default_left":[0,0,0,0,0,0,0,0,0,0,0,0,0],"id":31,"left_children":[1,3,7,5,-1,-1,-1,9,11,-1,-1,-1,-1],"loss_changes":[2.2976948E1,5.2295815E1,9.196144E0,2.078446E1,0E0,0E0,0E0,1.1101544E1,5.6374207E0,0E0,0E0,0E0,0E0],"parents":[2147483647,0,0,1,1,3,3,2,2,7,7,8,8],"right_children":[2,4,8,6,-1,-1,-1,10,12,-1,-1,-1,-1],"split_conditions":[1E0,1.16347555E-5,1E0,-5.8962625E-1,1.7754671E-1,2.6480822E-2,-2.1316336E-2,1.3536257E-3,3.4897527E-1,-1.6615093E-2,1.3955979E-1,-2.9104535E-2,-1.0527802E-1],"split_indices":[21,21,31,43,0,0,0,31,45,0,0,0,0],"split_type":[0,0,0,0,0,0,0,0,0,0,0,0,0],"sum_hessian":[1.2235778E3,8.393406E2,3.8423718E2,7.987045E2,4.0636093E1,4.61006E2,3.376985E2,2.3408226E2,1.5015492E2,2.2465608E2,9.4261675E0,1.0151018E2,4.864475E1],"tree_param":{"num_deleted":"0","num_feature":"46","num_nodes":"13","size_leaf_vector":"0"}},{"base_weights":[2.5572129E-2,5.062838E-2,-1.14807025E-1,-6.900972E-2,2.1005718E-1,1.5498712E-2,1.9333966E-1,3.0788321E-2,-2.1034632E-2],"categories":[],"categories_nodes":[],"categories_segments":[],"categories_sizes":[],"default_left":[0,0,0,0,0,0,0,0,0],"id":32,"left_children":[1,3,-1,7,5,-1,-1,-1,-1],"loss_changes":[2.1509048E1,2.3191181E1,0E0,1.3255028E1,5.4527832E1,0E0,0E0,0E0,0E0],"parents":[2147483647,0,0,1,1,4,4,3,3],"right_children":[2,4,-1,8,6,-1,-1,-1,-1],"split_conditions":[1.5677776E0,2.8176461E-3,-1.14807025E-1,-1.240918E0,3.2182636E-3,1.5498712E-2,1.9333966E-1,3.0788321E-2,-2.1034632E-2],"split_indices":[43,12,0,43,10,0,0,0,0],"split_type":[0,0,0,0,0,0,0,0,0],"sum_hessian":[1.2159783E3,1.184596E3,3.1382275E1,6.6215796E2,5.2243805E2,4.8076102E2,4.1677E1,1.2668326E2,5.354747E2],"tree_param":{"num_deleted":"0","num_feature":"46","num_nodes":"9","size_leaf_vector":"0"}},{"base_weights":[1.5719727E-2,-8.340338E-2,1.5074003E-1,6.945057E-2,1.8081251E-1,2.3543283E-1,-1.6361453E-1,-3.8267836E-2,2.3889815E-2,-9.660061E-3,-6.746152E-2,1.5892237E-2,1.2618501E-1],"categories":[],"categories_nodes":[],"categories_segments":[],"categories_sizes":[],"default_left":[0,0,0,0,0,0,0,0,0,0,0,0,0],"id":33,"left_children":[1,5,3,7,-1,11,9,-1,-1,-1,-1,-1,-1],"loss_changes":[1.6696957E1,1.7367695E1,4.151136E1,1.4896457E1,0E0,6.169833E0,1.4017852E1,0E0,0E0,0E0,0E0,0E0,0E0],"parents":[2147483647,0,0,2,2,1,1,3,3,6,6,5,5],"right_children":[2,6,4,8,-1,12,10,-1,-1,-1,-1,-1,-1],"split_conditions":[5.5057993E-3,-1.2411926E0,5.133683E-3,6.533908E-4,1.8081251E-1,-1.2771548E0,9.7283256E-1,-3.8267836E-2,2.3889815E-2,-9.660061E-3,-6.746152E-2,1.5892237E-2,1.2618501E-1],"split_indices":[30,43,28,6,0,43,42,0,0,0,0,0,0],"split_type":[0,0,0,0,0,0,0,0,0,0,0,0,0],"sum_hessian":[1.2259348E3,6.894716E2,5.3646313E2,5.027507E2,3.3712425E1,1.2808968E2,5.6138196E2,1.0033452E2,4.024162E2,4.315552E2,1.2982677E2,1.12153206E2,1.5936478E1],"tree_param":{"num_deleted":"0","num_feature":"46","num_nodes":"13","size_leaf_vector":"0"}},{"base_weights":[9.331723E-5,-1.0544752E-1,9.8558135E-2,1.729594E-1,2.7092202E-2,-6.962894E-3,4.7733054E-2,-0E0,-3.2748842E-1,-1.7554173E-2,5.376952E-2,-7.043745E-2,3.9888597E-3],"categories":[],"categories_nodes":[],"categories_segments":[],"categories_sizes":[],"default_left":[0,0,0,0,0,0,0,0,0,0,0,0,0],"id":34,"left_children":[1,7,3,-1,5,-1,-1,9,11,-1,-1,-1,-1],"loss_changes":[1.2315339E1,1.311183E1,4.372061E1,0E0,1.4322867E1,0E0,0E0,1.633822E1,1.1385424E1,0E0,0E0,0E0,0E0],"parents":[2147483647,0,0,2,2,4,4,1,1,7,7,8,8],"right_children":[2,8,4,-1,6,-1,-1,10,12,-1,-1,-1,-1],"split_conditions":[1.9921353E-3,8.169739E-1,1E0,1.729594E-1,9.5279574E-1,-6.962894E-3,4.7733054E-2,1.8856268E-2,1.1302536E-2,-1.7554173E-2,5.376952E-2,-7.043745E-2,3.9888597E-3],"split_indices":[19,22,19,0,44,0,0,39,40,0,0,0,0],"split_type":[0,0,0,0,0,0,0,0,0,0,0,0,0],"sum_hessian":[1.1868467E3,5.5265063E2,6.3419604E2,3.5547848E1,5.986482E2,4.678752E2,1.3077301E2,3.735247E2,1.7912595E2,2.8081677E2,9.270789E1,1.3400848E2,4.5117447E1],"tree_param":{"num_deleted":"0","num_feature":"46","num_nodes":"13","size_leaf_vector":"0"}},{"base_weights":[-1.2386934E-3,1.9760749E-1,-5.795715E-2,-4.3372963E-2,1.8901733E-1,5.981871E-3,-9.4385535E-2,2.2141669E-2,-1.8295619E-1,-0E0,-5.7892907E-2,-6.0326746E-3,3.373226E-2],"categories":[],"categories_nodes":[],"categories_segments":[],"categories_sizes":[],"default_left":[0,0,0,0,0,0,0,0,0,0,0,0,0],"id":35,"left_children":[1,3,7,5,-1,-1,-1,11,9,-1,-1,-1,-1],"loss_changes":[1.3172938E1,7.150041E1,1.0320817E1,1.2748882E1,0E0,0E0,0E0,8.1637E0,1.4992428E1,0E0,0E0,0E0,0E0],"parents":[2147483647,0,0,1,1,3,3,2,2,8,8,7,7],"right_children":[2,4,8,6,-1,-1,-1,12,10,-1,-1,-1,-1],"split_conditions":[1E0,1.3536257E-3,-2.639804E-1,1.0793089E0,1.8901733E-1,5.981871E-3,-9.4385535E-2,2.8176461E-3,9.938484E-1,-0E0,-5.7892907E-2,-6.0326746E-3,3.373226E-2],"split_indices":[2,2,43,43,0,0,0,12,0,0,0,0,0],"split_type":[0,0,0,0,0,0,0,0,0,0,0,0,0],"sum_hessian":[1.2179928E3,2.5394765E2,9.640452E2,2.0498181E2,4.896583E1,1.7402364E2,3.0958174E1,5.677207E2,3.963245E2,2.129347E2,1.8338979E2,4.1993808E2,1.4778264E2],"tree_param":{"num_deleted":"0","num_feature":"46","num_nodes":"13","size_leaf_vector":"0"}},{"base_weights":[1.628809E-2,2.6551074E-1,-4.508867E-2,3.8021464E-2,1.7687139E-1,3.4065865E-2,-2.0319587E-1,-3.9366246E-3,-6.9755346E-2,-1.6444338E-2,2.5295023E-2,-2.8863441E-2,3.3425614E-2],"categories":[],"categories_nodes":[],"categories_segments":[],"categories_sizes":[],"default_left":[0,0,0,0,0,0,0,0,0,0,0,0,0],"id":36,"left_children":[1,3,5,11,-1,9,7,-1,-1,-1,-1,-1,-1],"loss_changes":[1.9159527E1,4.7723595E1,1.2517245E1,9.133932E0,0E0,1.24821825E1,1.3744351E1,0E0,0E0,0E0,0E0,0E0,0E0],"parents":[2147483647,0,0,1,1,2,2,6,6,5,5,3,3],"right_children":[2,4,6,12,-1,10,8,-1,-1,-1,-1,-1,-1],"split_conditions":[1E0,1.3536257E-3,8.836336E-1,1.9921353E-3,1.7687139E-1,9.331619E-3,-4.7115868E-1,-3.9366246E-3,-6.9755346E-2,-1.6444338E-2,2.5295023E-2,-2.8863441E-2,3.3425614E-2],"split_indices":[2,2,13,19,0,0,45,0,0,0,0,0,0],"split_type":[0,0,0,0,0,0,0,0,0,0,0,0,0],"sum_hessian":[1.1923914E3,2.4856213E2,9.4382916E2,2.037645E2,4.4797638E1,6.118554E2,3.319738E2,2.1007347E2,1.2190033E2,2.825632E2,3.292922E2,8.122E1,1.22544495E2],"tree_param":{"num_deleted":"0","num_feature":"46","num_nodes":"13","size_leaf_vector":"0"}},{"base_weights":[-0E0,8.930831E-2,-1.1166679E-1,5.735945E-3,1.9119376E-1,-2.8717479E-2,2.2800587E-2,-5.050251E-2,-7.1756506E-1,1.0488001E-2,-2.9099219E-2,-1.2584214E-1,-0E0],"categories":[],"categories_nodes":[],"categories_segments":[],"categories_sizes":[],"default_left":[0,0,0,0,0,0,0,0,0,0,0,0,0],"id":37,"left_children":[1,3,7,5,-1,-1,-1,9,11,-1,-1,-1,-1],"loss_changes":[1.1948404E1,6.0416412E1,1.6860085E1,1.8136415E1,0E0,0E0,0E0,9.395996E0,4.069689E0,0E0,0E0,0E0,0E0],"parents":[2147483647,0,0,1,1,3,3,2,2,7,7,8,8],"right_children":[2,4,8,6,-1,-1,-1,10,12,-1,-1,-1,-1],"split_conditions":[1E0,3.2182636E-3,6.459693E-1,8.863285E-3,1.9119376E-1,-2.8717479E-2,2.2800587E-2,9.8401314E-1,1.3180511E0,1.0488001E-2,-2.9099219E-2,-1.2584214E-1,-0E0],"split_indices":[10,10,45,33,0,0,0,1,44,0,0,0,0],"split_type":[0,0,0,0,0,0,0,0,0,0,0,0,0],"sum_hessian":[1.1924717E3,6.522395E2,5.4023224E2,6.1360254E2,3.8636944E1,2.496231E2,3.6397946E2,4.9733594E2,4.2896263E1,2.566944E2,2.4064156E2,3.5860287E1,7.0359764E0],"tree_param":{"num_deleted":"0","num_feature":"46","num_nodes":"13","size_leaf_vector":"0"}},{"base_weights":[1.03222395E-4,7.652742E-2,-1.4369622E-1,2.0709876E-2,1.7058705E-1,2.2017358E-2,-1.9135172E-2,2.3181441E-1,-2.1179889E-1,-0E0,-5.430761E-2,-0E0,1.5769866E-1],"categories":[],"categories_nodes":[],"categories_segments":[],"categories_sizes":[],"default_left":[0,0,0,0,0,0,0,0,0,0,0,0,0],"id":38,"left_children":[1,3,7,5,-1,-1,-1,11,9,-1,-1,-1,-1],"loss_changes":[1.2758017E1,4.2915276E1,9.989002E0,1.4728048E1,0E0,0E0,0E0,9.495347E0,1.203604E1,0E0,0E0,0E0,0E0],"parents":[2147483647,0,0,1,1,3,3,2,2,8,8,7,7],"right_children":[2,4,8,6,-1,-1,-1,12,10,-1,-1,-1,-1],"split_conditions":[9.956367E-1,1.2404037E-2,9.966968E-1,-1.01157434E-1,1.7058705E-1,2.2017358E-2,-1.9135172E-2,1.3536257E-3,-8.056948E-1,-0E0,-5.430761E-2,-0E0,1.5769866E-1],"split_indices":[37,37,2,43,0,0,0,2,44,0,0,0,0],"split_type":[0,0,0,0,0,0,0,0,0,0,0,0,0],"sum_hessian":[1.1851003E3,7.926684E2,3.9243204E2,7.577674E2,3.4900978E1,4.2341223E2,3.3435516E2,5.079234E1,3.4163968E2,1.3976006E2,2.0187962E2,4.0532856E1,1.0259484E1],"tree_param":{"num_deleted":"0","num_feature":"46","num_nodes":"13","size_leaf_vector":"0"}},{"base_weights":[2.0751042E-2,-1.12209246E-1,1.140747E-1,1.49692E-2,1.9045231E-1,1.2412251E-2,-2.6409905E-2,-4.766452E-2,-3.6441743E-1,-1.608573E-2,1.5527E-1,-8.1071936E-2,-0E0],"categories":[],"categories_nodes":[],"categories_segments":[],"categories_sizes":[],"default_left":[0,0,0,0,0,0,0,0,0,0,0,0,0],"id":39,"left_children":[1,7,3,5,-1,-1,-1,9,11,-1,-1,-1,-1],"loss_changes":[1.4394292E1,5.784359E0,7.6131615E1,8.308214E0,0E0,0E0,0E0,2.1769882E1,3.2527819E0,0E0,0E0,0E0,0E0],"parents":[2147483647,0,0,2,2,3,3,1,1,7,7,8,8],"right_children":[2,8,4,6,-1,-1,-1,10,12,-1,-1,-1,-1],"split_conditions":[5.7586604E-3,9.891889E-1,8.190049E-3,9.9618006E-1,1.9045231E-1,1.2412251E-2,-2.6409905E-2,1.1302536E-2,3.8199227E-3,-1.608573E-2,1.5527E-1,-8.1071936E-2,-0E0],"split_indices":[4,40,5,24,0,0,0,40,22,0,0,0,0],"split_type":[0,0,0,0,0,0,0,0,0,0,0,0,0],"sum_hessian":[1.1584624E3,4.5954422E2,6.9891815E2,6.482679E2,5.0650303E1,4.9375452E2,1.5451335E2,3.7934695E2,8.019727E1,3.6326694E2,1.6080013E1,4.583571E1,3.4361565E1],"tree_param":{"num_deleted":"0","num_feature":"46","num_nodes":"13","size_leaf_vector":"0"}},{"base_weights":[5.022956E-2,-4.9470633E-2,1.3849674E-1,1.9141655E-2,-2.633401E-1,-0E0,-1.17453E-1,-8.334826E-3,5.1736403E-2,-6.13582E-2,2.010122E-1,2.2041129E-2,1.4416173E-1,-0E0,-6.908937E-2],"categories":[],"categories_nodes":[],"categories_segments":[],"categories_sizes":[],"default_left":[0,0,0,0,0,0,0,0,0,0,0,0,0,0,0],"id":40,"left_children":[1,3,9,7,5,-1,-1,-1,-1,13,11,-1,-1,-1,-1],"loss_changes":[1.0669995E1,8.756631E0,8.612356E0,1.0879471E1,2.2016266E1,0E0,0E0,0E0,0E0,4.491842E0,1.5568417E1,0E0,0E0,0E0,0E0],"parents":[2147483647,0,0,1,1,4,4,3,3,2,2,10,10,9,9],"right_children":[2,4,10,8,6,-1,-1,-1,-1,14,12,-1,-1,-1,-1],"split_conditions":[6.533908E-4,-4.7115868E-1,4.3632695E-3,-7.2750473E-1,9.664174E-1,-0E0,-1.17453E-1,-8.334826E-3,5.1736403E-2,2.0544147E0,3.8423266E-3,2.2041129E-2,1.4416173E-1,-0E0,-6.908937E-2],"split_indices":[14,45,16,45,34,0,0,0,0,45,18,0,0,0,0],"split_type":[0,0,0,0,0,0,0,0,0,0,0,0,0,0,0],"sum_hessian":[1.1699832E3,5.2761365E2,6.423695E2,3.8522073E2,1.423929E2,9.243297E1,4.995993E1,3.038578E2,8.136295E1,1.3737491E2,5.049946E2,4.7893216E2,2.6062458E1,1.1497228E2,2.240263E1],"tree_param":{"num_deleted":"0","num_feature":"46","num_nodes":"15","size_leaf_vector":"0"}},{"base_weights":[-1.1410262E-3,-9.07934E-2,1.0711802E-1,4.582564E-2,1.5812454E-1,-1.7960537E-2,-4.0580827E-1,-1.0371618E-2,1.5982297E-1,1.55250905E-2,-2.9185785E-2,-8.286436E-2,-0E0],"categories":[],"categories_nodes":[],"categories_segments":[],"categories_sizes":[],"default_left":[0,0,0,0,0,0,0,0,0,0,0,0,0],"id":41,"left_children":[1,5,3,9,-1,7,11,-1,-1,-1,-1,-1,-1],"loss_changes":[1.1227234E1,1.3334141E1,2.5296932E1,6.573336E0,0E0,2.723562E1,5.549303E0,0E0,0E0,0E0,0E0,0E0,0E0],"parents":[2147483647,0,0,2,2,1,1,5,5,3,3,6,6],"right_children":[2,6,4,10,-1,8,12,-1,-1,-1,-1,-1,-1],"split_conditions":[5.5057993E-3,9.514907E-1,5.133683E-3,1E0,1.5812454E-1,1.0284496E-2,1.1302536E-2,-1.0371618E-2,1.5982297E-1,1.55250905E-2,-2.9185785E-2,-8.286436E-2,-0E0],"split_indices":[30,24,28,40,0,24,40,0,0,0,0,0,0],"split_type":[0,0,0,0,0,0,0,0,0,0,0,0,0],"sum_hessian":[1.1627369E3,6.568624E2,5.058745E2,4.801156E2,2.575891E1,5.445324E2,1.1233005E2,5.2382825E2,2.0704184E1,3.9985776E2,8.025785E1,7.6103035E1,3.6227016E1],"tree_param":{"num_deleted":"0","num_feature":"46","num_nodes":"13","size_leaf_vector":"0"}},{"base_weights":[-4.0785186E-3,1.1422254E-1,-7.30246E-2,-1.9276683E-1,2.0194523E-2,-1.5019047E-2,1.9547004E-1,-3.0999728E-3,-6.636312E-2,-2.05523E-2,2.0746294E-1,-2.685481E-2,4.1872177E-2,-5.0601307E-2,1.7104277E-2],"categories":[],"categories_nodes":[],"categories_segments":[],"categories_sizes":[],"default_left":[0,0,0,0,0,0,0,0,0,0,0,0,0,0,0],"id":42,"left_children":[1,9,3,7,5,-1,-1,-1,-1,13,11,-1,-1,-1,-1],"loss_changes":[9.2017E0,5.8114076E0,9.059824E0,1.33504505E1,6.8939735E1,0E0,0E0,0E0,0E0,7.387013E0,8.010181E0,0E0,0E0,0E0,0E0],"parents":[2147483647,0,0,2,2,4,4,3,3,1,1,10,10,9,9],"right_children":[2,10,4,8,6,-1,-1,-1,-1,14,12,-1,-1,-1,-1],"split_conditions":[-8.745664E-1,1.9921353E-3,4.5624836E-3,4.6872285E-1,9.331619E-3,-1.5019047E-2,1.9547004E-1,-3.0999728E-3,-6.636312E-2,2.1791444E-3,-9.844812E-1,-2.685481E-2,4.1872177E-2,-5.0601307E-2,1.7104277E-2],"split_indices":[43,19,1,43,0,0,0,0,0,42,45,0,0,0,0],"split_type":[0,0,0,0,0,0,0,0,0,0,0,0,0,0,0],"sum_hessian":[1.1479807E3,4.0060275E2,7.473779E2,3.4625018E2,4.0112775E2,3.6434003E2,3.678772E1,2.1737175E2,1.2887843E2,1.4591812E2,2.5468462E2,3.2719162E1,2.2196545E2,5.2161293E1,9.375683E1],"tree_param":{"num_deleted":"0","num_feature":"46","num_nodes":"15","size_leaf_vector":"0"}},{"base_weights":[2.8224688E-2,-4.1893784E-2,1.3080072E-1,1.5386531E-1,3.9128896E-2,2.4126438E-2,-1.9442433E-2,2.1709848E-2,-1.6896577E-1,-3.5995406E-3,1.7507853E-1,-5.200565E-2,5.7572783E-3],"categories":[],"categories_nodes":[],"categories_segments":[],"categories_sizes":[],"default_left":[0,0,0,0,0,0,0,0,0,0,0,0,0],"id":43,"left_children":[1,7,3,-1,5,-1,-1,9,11,-1,-1,-1,-1],"loss_changes":[8.579496E0,5.8985386E0,3.625932E1,0E0,9.642796E0,0E0,0E0,2.7068161E1,1.044449E1,0E0,0E0,0E0,0E0],"parents":[2147483647,0,0,2,2,4,4,1,1,7,7,8,8],"right_children":[2,8,4,-1,6,-1,-1,10,12,-1,-1,-1,-1],"split_conditions":[1.3536257E-3,1E0,9.9067914E-1,1.5386531E-1,9.9010885E-1,2.4126438E-2,-1.9442433E-2,2.8176461E-3,1.0758114E0,-3.5995406E-3,1.7507853E-1,-5.200565E-2,5.7572783E-3],"split_indices":[41,12,41,0,10,0,0,12,44,0,0,0,0],"split_type":[0,0,0,0,0,0,0,0,0,0,0,0,0],"sum_hessian":[1.1411316E3,6.541391E2,4.8699252E2,3.99511E1,4.470414E2,2.7271924E2,1.7432217E2,4.1461795E2,2.3952116E2,3.958767E2,1.8741238E1,1.3765195E2,1.01869225E2],"tree_param":{"num_deleted":"0","num_feature":"46","num_nodes":"13","size_leaf_vector":"0"}},{"base_weights":[-1.1990528E-2,6.9070935E-2,-1.23098575E-1,-4.4559813E-1,-4.6246022E-2,-0E0,2.7218664E-1,6.237146E-3,-6.9027126E-2,2.5206339E-2,1.4461061E-1,1.6222164E-2,-2.1956744E-2,-8.471234E-2,-0E0],"categories":[],"categories_nodes":[],"categories_segments":[],"categories_sizes":[],"default_left":[0,0,0,0,0,0,0,0,0,0,0,0,0,0,0],"id":44,"left_children":[1,5,3,13,11,7,9,-1,-1,-1,-1,-1,-1,-1,-1],"loss_changes":[1.0464604E1,9.807656E0,1.03855505E1,3.9076443E0,6.8157043E0,1.0540483E1,7.625657E0,0E0,0E0,0E0,0E0,0E0,0E0,0E0,0E0],"parents":[2147483647,0,0,2,2,1,1,5,5,6,6,4,4,3,3],"right_children":[2,6,4,14,12,8,10,-1,-1,-1,-1,-1,-1,-1,-1],"split_conditions":[-2.639804E-1,8.863285E-3,-2.040649E-2,1.16347555E-5,7.629299E-1,1E0,1.3536257E-3,6.237146E-3,-6.9027126E-2,2.5206339E-2,1.4461061E-1,1.6222164E-2,-2.1956744E-2,-8.471234E-2,-0E0],"split_indices":[43,33,45,21,44,40,31,0,0,0,0,0,0,0,0],"split_type":[0,0,0,0,0,0,0,0,0,0,0,0,0,0,0],"sum_hessian":[1.1362699E3,6.35654E2,5.0061594E2,8.559449E1,4.1502145E2,4.6278384E2,1.7287013E2,4.184665E2,4.4317352E1,1.567929E2,1.6077248E1,1.4853548E2,2.6648596E2,6.3296303E1,2.2298183E1],"tree_param":{"num_deleted":"0","num_feature":"46","num_nodes":"15","size_leaf_vector":"0"}},{"base_weights":[-7.541694E-3,-1.8647696E-1,3.5785004E-2,1.7005049E-1,-0E0,6.123194E-3,-3.3692554E-2,-3.2746777E-1,-0E0,2.553447E-2,-9.1016695E-2,-8.959295E-2,-1.4680411E-2],"categories":[],"categories_nodes":[],"categories_segments":[],"categories_sizes":[],"default_left":[0,0,0,0,0,0,0,0,0,0,0,0,0],"id":45,"left_children":[1,7,3,-1,5,-1,-1,11,9,-1,-1,-1,-1],"loss_changes":[9.440878E0,7.6147747E0,3.8035397E1,0E0,8.580164E0,0E0,0E0,6.553256E0,8.088042E0,0E0,0E0,0E0,0E0],"parents":[2147483647,0,0,2,2,4,4,1,1,8,8,7,7],"right_children":[2,8,4,-1,6,-1,-1,12,10,-1,-1,-1,-1],"split_conditions":[6.533908E-4,1.0284496E-2,9.948663E-1,1.7005049E-1,9.9163634E-1,6.123194E-3,-3.3692554E-2,3.2182636E-3,1.3180511E0,2.553447E-2,-9.1016695E-2,-8.959295E-2,-1.4680411E-2],"split_indices":[6,24,6,0,39,0,0,10,44,0,0,0,0],"split_type":[0,0,0,0,0,0,0,0,0,0,0,0,0],"sum_hessian":[1.1368766E3,2.3982652E2,8.9705E2,2.9056993E1,8.6799304E2,7.277884E2,1.4020462E2,1.4845761E2,9.136892E1,7.6635574E1,1.473334E1,5.824738E1,9.0210236E1],"tree_param":{"num_deleted":"0","num_feature":"46","num_nodes":"13","size_leaf_vector":"0"}},{"base_weights":[-1.9610208E-2,-1.1004979E-1,9.152619E-2,3.248029E-2,1.5259165E-1,2.764825E-2,-1.903774E-2,1.1163965E-1,-1.6820642E-1,-4.7243763E-2,-2.4955692E-3,-0E0,1.19136155E-1],"categories":[],"categories_nodes":[],"categories_segments":[],"categories_sizes":[],"default_left":[0,0,0,0,0,0,0,0,0,0,0,0,0],"id":46,"left_children":[1,7,3,5,-1,-1,-1,11,9,-1,-1,-1,-1],"loss_changes":[1.1467939E1,8.56067E0,2.2749214E1,1.18454895E1,0E0,0E0,0E0,7.8937683E0,1.0693337E1,0E0,0E0,0E0,0E0],"parents":[2147483647,0,0,2,2,3,3,1,1,8,8,7,7],"right_children":[2,8,4,6,-1,-1,-1,12,10,-1,-1,-1,-1],"split_conditions":[5.5057993E-3,-1.2411926E0,5.133683E-3,9.924371E-1,1.5259165E-1,2.764825E-2,-1.903774E-2,-1.2771548E0,9.331619E-3,-4.7243763E-2,-2.4955692E-3,-0E0,1.19136155E-1],"split_indices":[30,43,28,0,0,0,0,43,0,0,0,0,0],"split_type":[0,0,0,0,0,0,0,0,0,0,0,0,0],"sum_hessian":[1.1324211E3,6.447652E2,4.8765588E2,4.6346896E2,2.4186918E1,2.4957253E2,2.1389644E2,1.19195564E2,5.2556964E2,2.4850609E2,2.7706357E2,1.05260544E2,1.3935022E1],"tree_param":{"num_deleted":"0","num_feature":"46","num_nodes":"13","size_leaf_vector":"0"}},{"base_weights":[2.2015505E-2,-5.032326E-2,9.36406E-2,1.5304506E-1,4.1146934E-2,2.8904242E-2,-1.0046309E-2,2.1096554E-2,-2.3814373E-1,-9.244385E-2,-6.158108E-3,-0E0,1.2535813E-1],"categories":[],"categories_nodes":[],"categories_segments":[],"categories_sizes":[],"default_left":[0,0,0,0,0,0,0,0,0,0,0,0,0],"id":47,"left_children":[1,7,3,-1,5,-1,-1,11,9,-1,-1,-1,-1],"loss_changes":[6.0875034E0,8.124908E0,2.5325571E1,0E0,1.0233467E1,0E0,0E0,8.786772E0,9.768845E0,0E0,0E0,0E0,0E0],"parents":[2147483647,0,0,2,2,4,4,1,1,8,8,7,7],"right_children":[2,8,4,-1,6,-1,-1,12,10,-1,-1,-1,-1],"split_conditions":[1.9921353E-3,9.812971E-1,1E0,1.5304506E-1,9.690442E-1,2.8904242E-2,-1.0046309E-2,1.3536257E-3,6.533908E-4,-9.244385E-2,-6.158108E-3,-0E0,1.2535813E-1],"split_indices":[19,41,19,0,28,0,0,41,14,0,0,0,0],"split_type":[0,0,0,0,0,0,0,0,0,0,0,0,0],"sum_hessian":[1.1395883E3,5.384533E2,6.01135E2,2.7092375E1,5.740426E2,2.5302736E2,3.2101526E2,3.7454282E2,1.6391049E2,4.7695995E1,1.162145E2,3.6260153E2,1.1941289E1],"tree_param":{"num_deleted":"0","num_feature":"46","num_nodes":"13","size_leaf_vector":"0"}},{"base_weights":[-7.258698E-5,-5.0411217E-2,1.8604228E-1,1.7760508E-1,-0E0,-5.2763715E-2,3.6290508E-2,8.037198E-2,-1.1506821E-1,-0E0,-4.4220287E-2,-0E0,8.032766E-2],"categories":[],"categories_nodes":[],"categories_segments":[],"categories_sizes":[],"default_left":[0,0,0,0,0,0,0,0,0,0,0,0,0],"id":48,"left_children":[1,7,3,-1,5,-1,-1,11,9,-1,-1,-1,-1],"loss_changes":[9.977479E0,7.779207E0,4.6093166E1,0E0,1.6702736E1,0E0,0E0,8.6393385E0,1.273993E1,0E0,0E0,0E0,0E0],"parents":[2147483647,0,0,2,2,4,4,1,1,8,8,7,7],"right_children":[2,8,4,-1,6,-1,-1,12,10,-1,-1,-1,-1],"split_conditions":[1.1302536E-2,-1.0373893E0,1E0,1.7760508E-1,9.331619E-3,-5.2763715E-2,3.6290508E-2,1.0284496E-2,1E0,-0E0,-4.4220287E-2,-0E0,8.032766E-2],"split_indices":[40,43,40,0,0,0,0,24,31,0,0,0,0],"split_type":[0,0,0,0,0,0,0,0,0,0,0,0,0],"sum_hessian":[1.1235975E3,9.0207324E2,2.215243E2,3.668047E1,1.8484384E2,8.08735E1,1.03970345E2,2.7733493E2,6.247383E2,3.909484E2,2.3378989E2,2.4256857E2,3.4766346E1],"tree_param":{"num_deleted":"0","num_feature":"46","num_nodes":"13","size_leaf_vector":"0"}},{"base_weights":[2.8332742E-2,1.17406294E-1,-6.7601606E-2,6.49053E-2,1.6411899E-1,-9.132931E-3,2.8480481E-2,-1.2703453E-1,-4.5043424E-2,2.828595E-2,-1.5195203E-2],"categories":[],"categories_nodes":[],"categories_segments":[],"categories_sizes":[],"default_left":[0,0,0,0,0,0,0,0,0,0,0],"id":49,"left_children":[1,3,7,5,-1,-1,-1,-1,9,-1,-1],"loss_changes":[9.882552E0,2.6936708E1,5.6110754E0,1.0010936E1,0E0,0E0,0E0,0E0,6.6875277E0,0E0,0E0],"parents":[2147483647,0,0,1,1,3,3,2,2,8,8],"right_children":[2,4,8,6,-1,-1,-1,-1,10,-1,-1],"split_conditions":[1E0,3.2182636E-3,-1.5141633E0,4.5624836E-3,1.6411899E-1,-9.132931E-3,2.8480481E-2,-1.2703453E-1,-1.4843951E0,2.828595E-2,-1.5195203E-2],"split_indices":[10,10,44,1,0,0,0,0,44,0,0],"split_type":[0,0,0,0,0,0,0,0,0,0,0],"sum_hessian":[1.1315956E3,6.089692E2,5.2262634E2,5.8284033E2,2.6128841E1,2.76812E2,3.0602832E2,8.920979E0,5.137054E2,8.676915E1,4.2693625E2],"tree_param":{"num_deleted":"0","num_feature":"46","num_nodes":"11","size_leaf_vector":"0"}},{"base_weights":[1.322986E-2,5.1254623E-2,-1.4741099E-1,8.635722E-4,1.7264663E-1,-7.132187E-1,-1.431308E-2,3.6316637E-2,-5.174921E-3,1.4680406E-2,-5.611125E-2,-1.1633773E-1,-0E0],"categories":[],"categories_nodes":[],"categories_segments":[],"categories_sizes":[],"default_left":[0,0,0,0,0,0,0,0,0,0,0,0,0],"id":50,"left_children":[1,3,5,7,-1,11,9,-1,-1,-1,-1,-1,-1],"loss_changes":[6.419176E0,4.7175686E1,1.1523026E1,8.681058E0,0E0,7.0204735E-1,7.9335084E0,0E0,0E0,0E0,0E0,0E0,0E0],"parents":[2147483647,0,0,1,1,2,2,3,3,6,6,5,5],"right_children":[2,4,6,8,-1,12,10,-1,-1,-1,-1,-1,-1],"split_conditions":[9.9163634E-1,1.8856268E-2,1.3536257E-3,-1.240918E0,1.7264663E-1,1.3712469E0,8.836336E-1,3.6316637E-2,-5.174921E-3,1.4680406E-2,-5.611125E-2,-1.1633773E-1,-0E0],"split_indices":[39,39,2,43,0,43,13,0,0,0,0,0,0],"split_type":[0,0,0,0,0,0,0,0,0,0,0,0,0],"sum_hessian":[1.1146072E3,9.222485E2,1.923587E2,8.86458E2,3.5790504E1,3.0348139E1,1.6201056E2,1.275717E2,7.588863E2,1.15260086E2,4.675048E1,2.5903906E1,4.444233E0],"tree_param":{"num_deleted":"0","num_feature":"46","num_nodes":"13","size_leaf_vector":"0"}},{"base_weights":[-2.0810647E-3,3.6147896E-2,-1.506833E-1,-0E0,1.4975186E-1,-2.855561E-1,1.5694538E-1,3.4696426E-2,-5.857855E-3,-6.057621E-2,-0E0,-1.9477569E-2,5.2846104E-2],"categories":[],"categories_nodes":[],"categories_segments":[],"categories_sizes":[],"default_left":[0,0,0,0,0,0,0,0,0,0,0,0,0],"id":51,"left_children":[1,3,5,7,-1,9,11,-1,-1,-1,-1,-1,-1],"loss_changes":[6.77802E0,2.9501469E1,1.0889423E1,7.9419866E0,0E0,5.024006E0,4.8408384E0,0E0,0E0,0E0,0E0,0E0,0E0],"parents":[2147483647,0,0,1,1,2,2,3,3,5,5,6,6],"right_children":[2,4,6,8,-1,10,12,-1,-1,-1,-1,-1,-1],"split_conditions":[9.956367E-1,3.8423266E-3,1.1302536E-2,-1.240918E0,1.4975186E-1,8.833469E-1,1.3784906E-1,3.4696426E-2,-5.857855E-3,-6.057621E-2,-0E0,-1.9477569E-2,5.2846104E-2],"split_indices":[18,18,40,43,0,44,45,0,0,0,0,0,0],"split_type":[0,0,0,0,0,0,0,0,0,0,0,0,0],"sum_hessian":[1.1092147E3,8.6050916E2,2.4870561E2,8.312206E2,2.9288544E1,1.822253E2,6.648032E1,1.2311189E2,7.081087E2,1.1785067E2,6.4374626E1,1.8944878E1,4.7535446E1],"tree_param":{"num_deleted":"0","num_feature":"46","num_nodes":"13","size_leaf_vector":"0"}},{"base_weights":[-0E0,-6.968138E-2,8.649879E-2,2.4008768E-2,1.5767628E-1,1.1815967E-2,-8.218094E-2,-1.9415405E-1,4.0523816E-2,1.6369824E-1,-4.4043395E-3,-6.1661933E-2,-0E0],"categories":[],"categories_nodes":[],"categories_segments":[],"categories_sizes":[],"default_left":[0,0,0,0,0,0,0,0,0,0,0,0,0],"id":52,"left_children":[1,7,3,5,-1,-1,-1,11,9,-1,-1,-1,-1],"loss_changes":[6.661499E0,9.164425E0,2.5356216E1,1.30954485E1,0E0,0E0,0E0,1.32270355E1,2.7953417E1,0E0,0E0,0E0,0E0],"parents":[2147483647,0,0,2,2,3,3,1,1,8,8,7,7],"right_children":[2,8,4,6,-1,-1,-1,12,10,-1,-1,-1,-1],"split_conditions":[2.8176461E-3,9.331619E-3,3.2182636E-3,9.5682627E-1,1.5767628E-1,1.1815967E-2,-8.218094E-2,1.3536257E-3,9.954375E-1,1.6369824E-1,-4.4043395E-3,-6.1661933E-2,-0E0],"split_indices":[12,0,10,42,0,0,0,31,0,0,0,0,0],"split_type":[0,0,0,0,0,0,0,0,0,0,0,0,0],"sum_hessian":[1.1076296E3,6.212395E2,4.863902E2,4.6167862E2,2.4711561E1,4.2789056E2,3.378805E1,3.0910138E2,3.121381E2,2.2466225E1,2.8967188E2,1.4223758E2,1.6686382E2],"tree_param":{"num_deleted":"0","num_feature":"46","num_nodes":"13","size_leaf_vector":"0"}},{"base_weights":[-2.3631381E-3,-1.5466942E-1,3.3515926E-2,1.5738319E-1,-0E0,-2.764134E-1,9.826148E-2,-5.2957367E-2,8.237618E-2,-1.3806624E-2,1.1453642E-2,-6.525893E-2,-3.9669784E-4],"categories":[],"categories_nodes":[],"categories_segments":[],"categories_sizes":[],"default_left":[0,0,0,0,0,0,0,0,0,0,0,0,0],"id":53,"left_children":[1,5,3,-1,9,11,7,-1,-1,-1,-1,-1,-1],"loss_changes":[6.587845E0,7.961479E0,2.9421255E1,0E0,6.182337E0,5.8441668E0,1.4677081E1,0E0,0E0,0E0,0E0,0E0,0E0],"parents":[2147483647,0,0,2,2,1,1,6,6,4,4,5,5],"right_children":[2,6,4,-1,10,12,8,-1,-1,-1,-1,-1,-1],"split_conditions":[6.533908E-4,2.1791444E-3,1E0,1.5738319E-1,3.8199227E-3,1.0284496E-2,9.331619E-3,-5.2957367E-2,8.237618E-2,-1.3806624E-2,1.1453642E-2,-6.525893E-2,-3.9669784E-4],"split_indices":[6,42,6,0,22,24,0,0,0,0,0,0,0],"split_type":[0,0,0,0,0,0,0,0,0,0,0,0,0],"sum_hessian":[1.1133765E3,2.3384248E2,8.79534E2,2.6281267E1,8.5325275E2,1.688137E2,6.502879E1,2.8175E1,3.685379E1,3.8117963E2,4.720731E2,9.5624954E1,7.318874E1],"tree_param":{"num_deleted":"0","num_feature":"46","num_nodes":"13","size_leaf_vector":"0"}},{"base_weights":[9.680117E-3,-3.3196375E-2,1.405279E-1,-0E0,1.7165068E-1,-2.6010148E-2,4.8056E-2,-0E0,-3.0112654E-1,-2.4082945E-3,1.5608953E-1,-6.1447475E-2,3.0337984E-2],"categories":[],"categories_nodes":[],"categories_segments":[],"categories_sizes":[],"default_left":[0,0,0,0,0,0,0,0,0,0,0,0,0],"id":54,"left_children":[1,7,3,5,-1,-1,-1,9,11,-1,-1,-1,-1],"loss_changes":[6.568433E0,7.723549E0,4.180134E1,1.4891821E1,0E0,0E0,0E0,1.429464E1,6.4408092E0,0E0,0E0,0E0,0E0],"parents":[2147483647,0,0,2,2,3,3,1,1,7,7,8,8],"right_children":[2,8,4,6,-1,-1,-1,10,12,-1,-1,-1,-1],"split_conditions":[2.3717026E-3,1E0,1.7552363E-2,8.190049E-3,1.7165068E-1,-2.6010148E-2,4.8056E-2,8.190049E-3,8.114594E-1,-2.4082945E-3,1.5608953E-1,-6.1447475E-2,3.0337984E-2],"split_indices":[27,35,25,35,0,0,0,35,8,0,0,0,0],"split_type":[0,0,0,0,0,0,0,0,0,0,0,0,0],"sum_hessian":[1.0911755E3,7.984434E2,2.9273215E2,2.580045E2,3.4727665E1,1.6699979E2,9.100471E1,7.040346E2,9.44088E1,6.918888E2,1.2145829E1,8.362024E1,1.0788561E1],"tree_param":{"num_deleted":"0","num_feature":"46","num_nodes":"13","size_leaf_vector":"0"}},{"base_weights":[3.666331E-2,1.0061776E-1,-9.095993E-2,-0E0,-5.217712E-1,8.2898386E-2,1.3026132E-1,-6.130638E-3,1.1265828E-1,1.8409543E-2,-1.5312027E-2,-9.6881405E-2,-0E0],"categories":[],"categories_nodes":[],"categories_segments":[],"categories_sizes":[],"default_left":[0,0,0,0,0,0,0,0,0,0,0,0,0],"id":55,"left_children":[1,5,3,7,11,9,-1,-1,-1,-1,-1,-1,-1],"loss_changes":[9.084032E0,6.5134068E0,1.1529168E1,6.4542174E0,5.7573338E0,5.930314E0,0E0,0E0,0E0,0E0,0E0,0E0,0E0],"parents":[2147483647,0,0,2,2,1,1,3,3,5,5,4,4],"right_children":[2,6,4,8,12,10,-1,-1,-1,-1,-1,-1,-1],"split_conditions":[1E0,4.3688905E-3,9.967817E-1,1.8856268E-2,8.9480627E-1,9.7808665E-1,1.3026132E-1,-6.130638E-3,1.1265828E-1,1.8409543E-2,-1.5312027E-2,-9.6881405E-2,-0E0],"split_indices":[13,13,39,39,45,40,0,0,0,0,0,0,0],"split_type":[0,0,0,0,0,0,0,0,0,0,0,0,0],"sum_hessian":[1.1070752E3,7.590491E2,3.4802618E2,2.9556326E2,5.246292E1,7.4788855E2,1.1160487E1,2.8580438E2,9.758896E0,6.291696E2,1.18718956E2,4.635935E1,6.103573E0],"tree_param":{"num_deleted":"0","num_feature":"46","num_nodes":"13","size_leaf_vector":"0"}},{"base_weights":[9.569019E-3,5.702892E-2,-1.5196244E-1,1.2934441E-2,1.6912429E-1,-1.4833066E-2,1.5848279E-2,-2.3158662E-1,1.2274786E-1,6.0977507E-2,-9.717731E-2,-0E0,-5.388436E-2],"categories":[],"categories_nodes":[],"categories_segments":[],"categories_sizes":[],"default_left":[0,0,0,0,0,0,0,0,0,0,0,0,0],"id":56,"left_children":[1,3,7,5,-1,-1,-1,11,9,-1,-1,-1,-1],"loss_changes":[8.055892E0,3.7042236E1,5.5037856E0,9.042778E0,0E0,0E0,0E0,6.795006E0,8.302066E0,0E0,0E0,0E0,0E0],"parents":[2147483647,0,0,1,1,3,3,2,2,8,8,7,7],"right_children":[2,4,8,6,-1,-1,-1,12,10,-1,-1,-1,-1],"split_conditions":[1E0,2.1791444E-3,1.0284496E-2,3.8199227E-3,1.6912429E-1,-1.4833066E-2,1.5848279E-2,-1.240918E0,1.5680781E-1,6.0977507E-2,-9.717731E-2,-0E0,-5.388436E-2],"split_indices":[42,42,24,22,0,0,0,43,45,0,0,0,0],"split_type":[0,0,0,0,0,0,0,0,0,0,0,0,0],"sum_hessian":[1.1007704E3,8.7072656E2,2.300438E2,8.40926E2,2.9800554E1,3.6222205E2,4.78704E2,1.9002222E2,4.0021584E1,3.3182106E1,6.8394766E0,6.2800526E1,1.2722169E2],"tree_param":{"num_deleted":"0","num_feature":"46","num_nodes":"13","size_leaf_vector":"0"}},{"base_weights":[-5.10543E-3,6.2454052E-2,-1.2073724E-1,1.5135393E-2,1.4142983E-1,-4.039882E-1,-2.4422174E-2,-1.3227937E-1,-0E0,-3.1763237E-2,1.8147493E-2,1.624989E-2,-1.3446622E-2],"categories":[],"categories_nodes":[],"categories_segments":[],"categories_sizes":[],"default_left":[0,0,0,0,0,0,0,0,0,0,0,0,0],"id":57,"left_children":[1,3,5,11,-1,7,9,-1,-1,-1,-1,-1,-1],"loss_changes":[8.696066E0,2.3990734E1,9.73566E0,6.460944E0,0E0,1.8102066E1,9.554276E0,0E0,0E0,0E0,0E0,0E0,0E0],"parents":[2147483647,0,0,1,1,2,2,5,5,6,6,3,3],"right_children":[2,4,6,12,-1,8,10,-1,-1,-1,-1,-1,-1],"split_conditions":[9.9067914E-1,1.3536257E-3,1.7552363E-2,9.6062696E-1,1.4142983E-1,9.331619E-3,4.5624836E-3,-1.3227937E-1,-0E0,-3.1763237E-2,1.8147493E-2,1.624989E-2,-1.3446622E-2],"split_indices":[41,41,25,19,0,0,1,0,0,0,0,0,0],"split_type":[0,0,0,0,0,0,0,0,0,0,0,0,0],"sum_hessian":[1.081523E3,6.60339E2,4.21184E2,6.3202435E2,2.831468E1,9.5646614E1,3.2553738E2,4.1611584E1,5.403503E1,1.5395897E2,1.715784E2,3.5418726E2,2.7783707E2],"tree_param":{"num_deleted":"0","num_feature":"46","num_nodes":"13","size_leaf_vector":"0"}},{"base_weights":[-2.38671E-2,2.90292E-3,-1.884111E-1,-3.7349503E-2,-5.1349264E-1,7.5462185E-2,-2.2654772E-2,-1.0208271E-1,6.5878436E-2,2.829463E-3,1.4962739E-1,8.767231E-3,-4.7142036E-2,-1.089072E-1,-0E0],"categories":[],"categories_nodes":[],"categories_segments":[],"categories_sizes":[],"default_left":[0,0,0,0,0,0,0,0,0,0,0,0,0,0,0],"id":58,"left_children":[1,7,3,5,13,-1,-1,11,9,-1,-1,-1,-1,-1,-1],"loss_changes":[5.429756E0,5.7386737E0,6.0595284E0,6.528864E0,5.097889E0,0E0,0E0,1.1931529E1,2.1464897E1,0E0,0E0,0E0,0E0,0E0,0E0],"parents":[2147483647,0,0,2,2,3,3,1,1,8,8,7,7,4,4],"right_children":[2,8,4,6,14,-1,-1,12,10,-1,-1,-1,-1,-1,-1],"split_conditions":[9.164859E-1,4.3632695E-3,9.835672E-1,9.877855E-1,1.1302536E-2,7.5462185E-2,-2.2654772E-2,9.834075E-1,1.2404037E-2,2.829463E-3,1.4962739E-1,8.767231E-3,-4.7142036E-2,-1.089072E-1,-0E0],"split_indices":[43,38,22,24,40,0,0,25,37,0,0,0,0,0,0],"split_type":[0,0,0,0,0,0,0,0,0,0,0,0,0,0,0],"sum_hessian":[1.0588212E3,8.895546E2,1.6926651E2,1.2457111E2,4.469539E1,1.5286565E1,1.0928455E2,3.0891702E2,5.8063763E2,5.579628E2,2.267476E1,1.6653673E2,1.4238031E2,3.077785E1,1.391754E1],"tree_param":{"num_deleted":"0","num_feature":"46","num_nodes":"15","size_leaf_vector":"0"}},{"base_weights":[8.398976E-3,-7.324136E-2,8.51006E-2,1.6254398E-1,-0E0,6.9540585E-3,-3.67452E-2,-1.104801E-2,-2.9344195E-1,-2.6136583E-2,2.1132281E-2,-7.859724E-2,-0E0],"categories":[],"categories_nodes":[],"categories_segments":[],"categories_sizes":[],"default_left":[0,0,0,0,0,0,0,0,0,0,0,0,0],"id":59,"left_children":[1,7,3,-1,5,-1,-1,9,11,-1,-1,-1,-1],"loss_changes":[6.8764462E0,5.622981E0,4.734406E1,0E0,5.7654314E0,0E0,0E0,1.055991E1,7.093343E0,0E0,0E0,0E0,0E0],"parents":[2147483647,0,0,2,2,4,4,1,1,7,7,8,8],"right_children":[2,8,4,-1,6,-1,-1,10,12,-1,-1,-1,-1],"split_conditions":[3.8199227E-3,9.882934E-1,9.897155E-1,1.6254398E-1,9.900212E-1,6.9540585E-3,-3.67452E-2,8.190049E-3,2.3717026E-3,-2.6136583E-2,2.1132281E-2,-7.859724E-2,-0E0],"split_indices":[22,40,22,0,39,0,0,5,27,0,0,0,0],"split_type":[0,0,0,0,0,0,0,0,0,0,0,0,0],"sum_hessian":[1.089387E3,5.0172385E2,5.8766315E2,4.2092335E1,5.455708E2,4.698265E2,7.574432E1,4.0619003E2,9.553382E1,2.0842885E2,1.9776118E2,5.3717377E1,4.1816444E1],"tree_param":{"num_deleted":"0","num_feature":"46","num_nodes":"13","size_leaf_vector":"0"}},{"base_weights":[-9.05288E-3,-5.418815E-2,1.5791415E-1,1.5544334E-1,-0E0,2.0940141E-1,-1.0113508E-1,-9.72144E-2,-1.0826702E-2,-2.5269927E-2,2.5159558E-2,1.5845474E-2,1.0871203E-1],"categories":[],"categories_nodes":[],"categories_segments":[],"categories_sizes":[],"default_left":[0,0,0,0,0,0,0,0,0,0,0,0,0],"id":60,"left_children":[1,5,3,-1,9,11,7,-1,-1,-1,-1,-1,-1],"loss_changes":[7.7595773E0,1.0385813E1,2.6169565E1,0E0,5.3750396E0,2.8964953E0,8.676173E0,0E0,0E0,0E0,0E0,0E0,0E0],"parents":[2147483647,0,0,2,2,1,1,6,6,4,4,5,5],"right_children":[2,6,4,-1,10,12,8,-1,-1,-1,-1,-1,-1],"split_conditions":[1.1302536E-2,-1.240918E0,1E0,1.5544334E-1,9.331619E-3,-1.2771548E0,-1.2383566E0,-9.72144E-2,-1.0826702E-2,-2.5269927E-2,2.5159558E-2,1.5845474E-2,1.0871203E-1],"split_indices":[40,43,40,0,0,43,43,0,0,0,0,0,0],"split_type":[0,0,0,0,0,0,0,0,0,0,0,0,0],"sum_hessian":[1.0852804E3,8.739899E2,2.1129048E2,2.789191E1,1.8339857E2,1.1862769E2,7.5536224E2,2.833801E1,7.2702423E2,8.104285E1,1.0235572E2,1.06402054E2,1.2225638E1],"tree_param":{"num_deleted":"0","num_feature":"46","num_nodes":"13","size_leaf_vector":"0"}},{"base_weights":[-2.0576986E-3,1.0025689E-1,-4.436732E-2,-0E0,1.64513E-1,-4.046276E-3,-4.1107726E-1,-8.547039E-3,5.4117694E-2,-0E0,-1.352895E-1,2.5389595E-2,-2.7262375E-2],"categories":[],"categories_nodes":[],"categories_segments":[],"categories_sizes":[],"default_left":[0,0,0,0,0,0,0,0,0,0,0,0,0],"id":61,"left_children":[1,3,5,11,-1,7,9,-1,-1,-1,-1,-1,-1],"loss_changes":[4.3447695E0,2.5568106E1,9.765944E0,8.185431E0,0E0,1.2905144E1,1.0257763E1,0E0,0E0,0E0,0E0,0E0,0E0],"parents":[2147483647,0,0,1,1,2,2,5,5,6,6,3,3],"right_children":[2,4,6,12,-1,8,10,-1,-1,-1,-1,-1,-1],"split_conditions":[1E0,7.562875E-3,6.315458E-1,9.924371E-1,1.64513E-1,1.0185239E0,9.944942E-1,-8.547039E-3,5.4117694E-2,-0E0,-1.352895E-1,2.5389595E-2,-2.7262375E-2],"split_indices":[34,34,43,0,0,44,28,0,0,0,0,0,0],"split_type":[0,0,0,0,0,0,0,0,0,0,0,0,0],"sum_hessian":[1.0558353E3,2.8023596E2,7.755994E2,2.578506E2,2.2385395E1,7.093127E2,6.6286705E1,6.293758E2,7.993692E1,4.1114494E1,2.5172215E1,1.4100583E2,1.1684474E2],"tree_param":{"num_deleted":"0","num_feature":"46","num_nodes":"13","size_leaf_vector":"0"}},{"base_weights":[3.867081E-2,8.794659E-2,-1.12593375E-1,5.5700816E-2,1.3988559E-1,1.6637594E-2,-2.4237994E-2,2.1270528E-2,-3.1480786E-1,-6.778177E-2,-0E0,2.0771554E-2,-3.9867096E-2],"categories":[],"categories_nodes":[],"categories_segments":[],"categories_sizes":[],"default_left":[0,0,0,0,0,0,0,0,0,0,0,0,0],"id":62,"left_children":[1,3,7,5,-1,-1,-1,11,9,-1,-1,-1,-1],"loss_changes":[7.97686E0,1.9068409E1,7.8658905E0,9.981117E0,0E0,0E0,0E0,4.2215557E0,4.822898E0,0E0,0E0,0E0,0E0],"parents":[2147483647,0,0,1,1,3,3,2,2,8,8,7,7],"right_children":[2,4,8,6,-1,-1,-1,12,10,-1,-1,-1,-1],"split_conditions":[9.956367E-1,3.8423266E-3,9.967817E-1,1E0,1.3988559E-1,1.6637594E-2,-2.4237994E-2,1E0,1.2404037E-2,-6.778177E-2,-0E0,2.0771554E-2,-3.9867096E-2],"split_indices":[18,18,12,27,0,0,0,42,37,0,0,0,0],"split_type":[0,0,0,0,0,0,0,0,0,0,0,0,0],"sum_hessian":[1.0826919E3,8.3733014E2,2.4536172E2,8.121589E2,2.5171232E1,6.600213E2,1.521376E2,1.3564249E2,1.09719246E2,7.4209465E1,3.550978E1,1.06397316E2,2.9245165E1],"tree_param":{"num_deleted":"0","num_feature":"46","num_nodes":"13","size_leaf_vector":"0"}},{"base_weights":[-3.3493474E-2,3.126822E-2,-1.1535292E-1,-0E0,1.4235094E-1,-2.0999542E-1,2.1228971E-2,1.4416137E-1,-5.526125E-3,-6.0110316E-2,-3.0867837E-3,2.2166893E-2,-1.0126829E-2],"categories":[],"categories_nodes":[],"categories_segments":[],"categories_sizes":[],"default_left":[0,0,0,0,0,0,0,0,0,0,0,0,0],"id":63,"left_children":[1,3,5,11,-1,9,7,-1,-1,-1,-1,-1,-1],"loss_changes":[5.9675655E0,1.8009565E1,7.195627E0,5.483428E0,0E0,9.831128E0,1.4294536E1,0E0,0E0,0E0,0E0,0E0,0E0],"parents":[2147483647,0,0,1,1,2,2,6,6,5,5,3,3],"right_children":[2,4,6,12,-1,10,8,-1,-1,-1,-1,-1,-1],"split_conditions":[1E0,3.2182636E-3,2.1791444E-3,-4.9871078E-1,1.4235094E-1,9.331619E-3,1E0,1.4416137E-1,-5.526125E-3,-6.0110316E-2,-3.0867837E-3,2.2166893E-2,-1.0126829E-2],"split_indices":[10,10,42,45,0,0,42,0,0,0,0,0,0],"split_type":[0,0,0,0,0,0,0,0,0,0,0,0,0],"sum_hessian":[1.0595912E3,5.636719E2,4.959193E2,5.4418494E2,1.948694E1,3.1058167E2,1.8533766E2,1.4350063E1,1.709876E2,1.4111739E2,1.6946428E2,1.6311156E2,3.810734E2],"tree_param":{"num_deleted":"0","num_feature":"46","num_nodes":"13","size_leaf_vector":"0"}},{"base_weights":[-0E0,-1.2920485E-1,5.764466E-3,5.8563728E-2,-1.2790336E-1,-0E0,-4.113808E-2,3.0863374E-3,3.702747E-2],"categories":[],"categories_nodes":[],"categories_segments":[],"categories_sizes":[],"default_left":[0,0,0,0,0,0,0,0,0],"id":64,"left_children":[1,-1,3,7,5,-1,-1,-1,-1],"loss_changes":[6.377325E0,0E0,7.090514E0,4.4625397E0,5.040896E0,0E0,0E0,0E0,0E0],"parents":[2147483647,0,0,2,2,4,4,3,3],"right_children":[2,-1,4,8,6,-1,-1,-1,-1],"split_conditions":[-1.5141633E0,-1.2920485E-1,4.4818535E-1,-7.035835E-3,9.924371E-1,-0E0,-4.113808E-2,3.0863374E-3,3.702747E-2],"split_indices":[44,0,45,45,0,0,0,0,0],"split_type":[0,0,0,0,0,0,0,0,0],"sum_hessian":[1.0519238E3,7.803937E0,1.0441199E3,7.707339E2,2.7338602E2,1.5124411E2,1.2214189E2,6.6283154E2,1.0790239E2],"tree_param":{"num_deleted":"0","num_feature":"46","num_nodes":"9","size_leaf_vector":"0"}},{"base_weights":[-2.7678495E-3,-1.8504824E-1,4.10886E-2,1.5459037E-1,9.801901E-3,8.454673E-3,-2.2775337E-2,-4.2300415E-1,-4.9536165E-2,7.240602E-3,-8.86345E-2,7.25428E-3,-3.504852E-2],"categories":[],"categories_nodes":[],"categories_segments":[],"categories_sizes":[],"default_left":[0,0,0,0,0,0,0,0,0,0,0,0,0],"id":65,"left_children":[1,7,3,-1,5,-1,-1,9,11,-1,-1,-1,-1],"loss_changes":[9.175412E0,5.346375E0,2.2313477E1,0E0,6.0391054E0,0E0,0E0,8.233856E0,3.668987E0,0E0,0E0,0E0,0E0],"parents":[2147483647,0,0,2,2,4,4,1,1,7,7,8,8],"right_children":[2,8,4,-1,6,-1,-1,10,12,-1,-1,-1,-1],"split_conditions":[6.533908E-4,-4.057505E-1,1E0,1.5459037E-1,1E0,8.454673E-3,-2.2775337E-2,-1.4975715E0,7.788188E-1,7.240602E-3,-8.86345E-2,7.25428E-3,-3.504852E-2],"split_indices":[6,44,6,0,42,0,0,44,44,0,0,0,0],"split_type":[0,0,0,0,0,0,0,0,0,0,0,0,0],"sum_hessian":[1.0727211E3,2.259423E2,8.4677875E2,2.110514E1,8.2567365E2,6.6009875E2,1.6557486E2,7.0596085E1,1.5534622E2,1.3038575E1,5.7557507E1,8.771966E1,6.762657E1],"tree_param":{"num_deleted":"0","num_feature":"46","num_nodes":"13","size_leaf_vector":"0"}},{"base_weights":[9.182296E-3,4.7489554E-2,-1.5711975E-1,1.452584E-2,1.5210833E-1,-1.0510119E-2,1.4114854E-2,-3.069276E-1,-0E0,8.816098E-3,-8.309016E-2,-7.8400984E-2,-0E0],"categories":[],"categories_nodes":[],"categories_segments":[],"categories_sizes":[],"default_left":[0,0,0,0,0,0,0,0,0,0,0,0,0],"id":66,"left_children":[1,3,7,5,-1,-1,-1,11,9,-1,-1,-1,-1],"loss_changes":[6.3876896E0,2.460959E1,3.5508785E0,6.1373663E0,0E0,0E0,0E0,4.2981157E0,4.409485E0,0E0,0E0,0E0,0E0],"parents":[2147483647,0,0,1,1,3,3,2,2,8,8,7,7],"right_children":[2,4,8,6,-1,-1,-1,12,10,-1,-1,-1,-1],"split_conditions":[1E0,1.1302536E-2,9.331619E-3,4.5624836E-3,1.5210833E-1,-1.0510119E-2,1.4114854E-2,2.8176461E-3,1.2788657E0,8.816098E-3,-8.309016E-2,-7.8400984E-2,-0E0],"split_indices":[40,40,0,1,0,0,0,12,44,0,0,0,0],"split_type":[0,0,0,0,0,0,0,0,0,0,0,0,0],"sum_hessian":[1.0724736E3,8.920741E2,1.8039948E2,8.6764496E2,2.4429132E1,3.97124E2,4.7052097E2,8.461571E1,9.578377E1,8.328328E1,1.2500491E1,4.3187016E1,4.1428696E1],"tree_param":{"num_deleted":"0","num_feature":"46","num_nodes":"13","size_leaf_vector":"0"}},{"base_weights":[-2.949578E-2,3.1274967E-2,-9.792197E-2,-3.0493217E-2,1.54194E-1,-0E0,-2.5453642E-1,5.9723402E-3,-2.9907452E-2,-5.325038E-2,-0E0,-9.659451E-3,3.709144E-2],"categories":[],"categories_nodes":[],"categories_segments":[],"categories_sizes":[],"default_left":[0,0,0,0,0,0,0,0,0,0,0,0,0],"id":67,"left_children":[1,3,5,7,-1,11,9,-1,-1,-1,-1,-1,-1],"loss_changes":[4.658198E0,3.7149E1,7.442898E0,6.690958E0,0E0,5.043621E0,5.7354097E0,0E0,0E0,0E0,0E0,0E0,0E0],"parents":[2147483647,0,0,1,1,2,2,3,3,6,6,5,5],"right_children":[2,4,6,8,-1,12,10,-1,-1,-1,-1,-1,-1],"split_conditions":[9.897155E-1,3.8199227E-3,-3.8609758E-1,1E0,1.54194E-1,2.3717026E-3,1.1302536E-2,5.9723402E-3,-2.9907452E-2,-5.325038E-2,-0E0,-9.659451E-3,3.709144E-2],"split_indices":[22,22,43,19,0,27,40,0,0,0,0,0,0],"split_type":[0,0,0,0,0,0,0,0,0,0,0,0,0],"sum_hessian":[1.0534259E3,5.2620575E2,5.272201E2,4.9257642E2,3.362934E1,3.3471857E2,1.9250154E2,3.3210727E2,1.6046915E2,1.397062E2,5.279533E1,2.7390265E2,6.0815937E1],"tree_param":{"num_deleted":"0","num_feature":"46","num_nodes":"13","size_leaf_vector":"0"}},{"base_weights":[-1.0102784E-2,6.909749E-2,-7.676972E-2,-2.4845708E-2,1.7607893E-1,-2.1596934E-1,-0E0,-3.5620105E-2,1.4945088E-2,-6.9554426E-2,-1.0661401E-2,6.438817E-3,-2.5935458E-2],"categories":[],"categories_nodes":[],"categories_segments":[],"categories_sizes":[],"default_left":[0,0,0,0,0,0,0,0,0,0,0,0,0],"id":68,"left_children":[1,3,5,11,-1,9,7,-1,-1,-1,-1,-1,-1],"loss_changes":[5.617092E0,5.287902E1,6.54952E0,4.8556876E0,0E0,5.6910734E0,9.379734E0,0E0,0E0,0E0,0E0,0E0,0E0],"parents":[2147483647,0,0,1,1,2,2,6,6,5,5,3,3],"right_children":[2,4,6,12,-1,10,8,-1,-1,-1,-1,-1,-1],"split_conditions":[9.88582E-1,5.7586604E-3,4.3632695E-3,1E0,1.7607893E-1,3.2182636E-3,1.9921353E-3,-3.5620105E-2,1.4945088E-2,-6.9554426E-2,-1.0661401E-2,6.438817E-3,-2.5935458E-2],"split_indices":[4,4,16,10,0,10,19,0,0,0,0,0,0],"split_type":[0,0,0,0,0,0,0,0,0,0,0,0,0],"sum_hessian":[1.0568995E3,4.5482208E2,6.020774E2,4.167789E2,3.804319E1,2.1607834E2,3.8599908E2,1.12398285E2,2.736008E2,6.7157364E1,1.4892097E2,2.68132E2,1.4864691E2],"tree_param":{"num_deleted":"0","num_feature":"46","num_nodes":"13","size_leaf_vector":"0"}},{"base_weights":[4.0101856E-2,-4.188244E-3,1.0687289E-1,1.0386385E-2,1.7008696E-1,1.29740825E-2,-4.5781057E-2,4.524873E-2,-1.0341976E-1,-1.0714493E-1,-4.5388862E-3,-0E0,5.021654E-2],"categories":[],"categories_nodes":[],"categories_segments":[],"categories_sizes":[],"default_left":[0,0,0,0,0,0,0,0,0,0,0,0,0],"id":69,"left_children":[1,7,3,5,-1,-1,-1,11,9,-1,-1,-1,-1],"loss_changes":[3.51501E0,3.1460001E0,4.1002033E1,9.524027E0,0E0,0E0,0E0,5.574218E0,7.0388064E0,0E0,0E0,0E0,0E0],"parents":[2147483647,0,0,2,2,3,3,1,1,8,8,7,7],"right_children":[2,8,4,6,-1,-1,-1,12,10,-1,-1,-1,-1],"split_conditions":[8.190049E-3,-4.9871078E-1,5.7586604E-3,9.891889E-1,1.7008696E-1,1.29740825E-2,-4.5781057E-2,-7.5065434E-1,-4.7220036E-1,-1.0714493E-1,-4.5388862E-3,-0E0,5.021654E-2],"split_indices":[5,45,4,40,0,0,0,43,44,0,0,0,0],"split_type":[0,0,0,0,0,0,0,0,0,0,0,0,0],"sum_hessian":[1.0451415E3,5.915621E2,4.5357938E2,4.1929288E2,3.4286484E1,3.4826813E2,7.1024765E1,3.6733997E2,2.2422209E2,1.7076628E1,2.0714546E2,3.131299E2,5.4210068E1],"tree_param":{"num_deleted":"0","num_feature":"46","num_nodes":"13","size_leaf_vector":"0"}},{"base_weights":[-2.6845206E-2,1.8288395E-1,-5.3130634E-2,-5.1096283E-2,4.3057176E-1,-2.0764245E-1,-9.485723E-4,-0E0,-7.654693E-2,-4.4402383E-2,9.06296E-2,2.019092E-2,-5.368027E-3,7.900985E-2,-0E0],"categories":[],"categories_nodes":[],"categories_segments":[],"categories_sizes":[],"default_left":[0,0,0,0,0,0,0,0,0,0,0,0,0,0,0],"id":70,"left_children":[1,3,5,9,13,7,11,-1,-1,-1,-1,-1,-1,-1,-1],"loss_changes":[5.243585E0,7.3268833E0,6.787885E0,5.929148E0,3.1327505E0,1.5985227E1,3.1459546E0,0E0,0E0,0E0,0E0,0E0,0E0,0E0,0E0],"parents":[2147483647,0,0,1,1,2,2,5,5,3,3,6,6,4,4],"right_children":[2,4,6,10,14,8,12,-1,-1,-1,-1,-1,-1,-1,-1],"split_conditions":[-1.4826388E0,-1.4992306E0,-4.057505E-1,-7.4312556E-1,-5.782233E-1,9.6468866E-1,-1.0373893E0,-0E0,-7.654693E-2,-4.4402383E-2,9.06296E-2,2.019092E-2,-5.368027E-3,7.900985E-2,-0E0],"split_indices":[44,44,44,45,43,0,43,0,0,0,0,0,0,0,0],"split_type":[0,0,0,0,0,0,0,0,0,0,0,0,0,0,0],"sum_hessian":[1.0467089E3,9.882044E1,9.478884E2,4.2466785E1,5.635366E1,2.1903499E2,7.2885345E2,1.2484824E2,9.418674E1,3.556418E1,6.902608E0,1.2503376E2,6.038197E2,4.7245514E1,9.108144E0],"tree_param":{"num_deleted":"0","num_feature":"46","num_nodes":"15","size_leaf_vector":"0"}},{"base_weights":[-2.041248E-2,1.2646468E-1,-7.9693556E-2,4.276771E-2,1.5337166E-1,3.3516955E-2,-2.03183E-2,-5.0757885E-2,-4.7660223E-1,5.336026E-3,-2.0030795E-2,-0E0,-8.116397E-2],"categories":[],"categories_nodes":[],"categories_segments":[],"categories_sizes":[],"default_left":[0,0,0,0,0,0,0,0,0,0,0,0,0],"id":71,"left_children":[1,3,7,5,-1,-1,-1,9,11,-1,-1,-1,-1],"loss_changes":[8.795906E0,1.6673698E1,6.4929905E0,8.967785E0,0E0,0E0,0E0,5.682822E0,2.4976377E0,0E0,0E0,0E0,0E0],"parents":[2147483647,0,0,1,1,3,3,2,2,7,7,8,8],"right_children":[2,4,8,6,-1,-1,-1,10,12,-1,-1,-1,-1],"split_conditions":[1E0,7.562875E-3,9.164859E-1,9.924371E-1,1.5337166E-1,3.3516955E-2,-2.03183E-2,9.956367E-1,1.5680781E-1,5.336026E-3,-2.0030795E-2,-0E0,-8.116397E-2],"split_indices":[34,34,43,0,0,0,0,10,45,0,0,0,0],"split_type":[0,0,0,0,0,0,0,0,0,0,0,0,0],"sum_hessian":[1.0312849E3,2.7642935E2,7.548556E2,2.577915E2,1.8637838E1,1.3875357E2,1.1903795E2,7.1372943E2,4.1126175E1,3.2893857E2,3.8479086E2,2.073868E0,3.9052307E1],"tree_param":{"num_deleted":"0","num_feature":"46","num_nodes":"13","size_leaf_vector":"0"}},{"base_weights":[-1.4713084E-2,-9.3605064E-2,4.5880232E-2,-0E0,1.4771643E-1,1.7383607E-3,-1.7082979E-1,-5.4605533E-3,1.399604E-1,7.1885455E-3,-4.1611575E-2,2.2812055E-3,-3.808637E-2],"categories":[],"categories_nodes":[],"categories_segments":[],"categories_sizes":[],"default_left":[0,0,0,0,0,0,0,0,0,0,0,0,0],"id":72,"left_children":[1,5,3,11,-1,7,9,-1,-1,-1,-1,-1,-1],"loss_changes":[5.274374E0,4.3106785E0,2.8880644E1,3.095723E0,0E0,1.096041E1,8.158628E0,0E0,0E0,0E0,0E0,0E0,0E0],"parents":[2147483647,0,0,2,2,1,1,5,5,6,6,3,3],"right_children":[2,6,4,12,-1,8,10,-1,-1,-1,-1,-1,-1],"split_conditions":[3.8199227E-3,9.9180996E-1,1.0284496E-2,9.164859E-1,1.4771643E-1,7.562875E-3,-1.4793205E0,-5.4605533E-3,1.399604E-1,7.1885455E-3,-4.1611575E-2,2.2812055E-3,-3.808637E-2],"split_indices":[22,34,24,43,0,34,44,0,0,0,0,0,0],"split_type":[0,0,0,0,0,0,0,0,0,0,0,0,0],"sum_hessian":[1.0613578E3,4.904525E2,5.7090533E2,5.413333E2,2.9572014E1,1.958391E2,2.946134E2,1.8440184E2,1.1437244E1,8.6598946E1,2.0801448E2,4.970814E2,4.4251923E1],"tree_param":{"num_deleted":"0","num_feature":"46","num_nodes":"13","size_leaf_vector":"0"}},{"base_weights":[-5.654575E-3,-5.1425096E-2,1.20632656E-1,2.9546281E-2,1.3273913E-1,-9.430022E-2,9.833135E-2,1.4743665E-1,-0E0,1.4978192E-2,-2.3456438E-2,-4.300071E-3,3.744476E-2],"categories":[],"categories_nodes":[],"categories_segments":[],"categories_sizes":[],"default_left":[0,0,0,0,0,0,0,0,0,0,0,0,0],"id":73,"left_children":[1,5,3,11,-1,9,7,-1,-1,-1,-1,-1,-1],"loss_changes":[5.661391E0,4.9892416E0,1.3874807E1,3.935907E0,0E0,8.173311E0,1.6687044E1,0E0,0E0,0E0,0E0,0E0,0E0],"parents":[2147483647,0,0,2,2,1,1,6,6,5,5,3,3],"right_children":[2,6,4,12,-1,10,8,-1,-1,-1,-1,-1,-1],"split_conditions":[3.8423266E-3,1.8856268E-2,4.3632695E-3,1.1302536E-2,1.3273913E-1,-1.2009026E0,9.967817E-1,1.4743665E-1,-0E0,1.4978192E-2,-2.3456438E-2,-4.300071E-3,3.744476E-2],"split_indices":[18,39,16,40,0,43,39,0,0,0,0,0,0],"split_type":[0,0,0,0,0,0,0,0,0,0,0,0,0],"sum_hessian":[1.0277264E3,7.7845886E2,2.492676E2,2.2833313E2,2.0934456E1,6.2669446E2,1.5176443E2,1.77303E1,1.3403413E2,1.395932E2,4.8710126E2,1.6672845E2,6.160468E1],"tree_param":{"num_deleted":"0","num_feature":"46","num_nodes":"13","size_leaf_vector":"0"}},{"base_weights":[4.9276784E-4,4.915265E-2,-8.97538E-2,9.299715E-3,1.3997076E-1,-1.5057286E-2,1.078471E-2,-3.1613272E-1,-1.5697557E-2,1.305847E-1,-1.1502604E-2,-6.327115E-2,-0E0],"categories":[],"categories_nodes":[],"categories_segments":[],"categories_sizes":[],"default_left":[0,0,0,0,0,0,0,0,0,0,0,0,0],"id":74,"left_children":[1,3,7,5,-1,-1,-1,11,9,-1,-1,-1,-1],"loss_changes":[4.443381E0,2.1554125E1,4.3011246E0,4.754386E0,0E0,0E0,0E0,3.385334E0,1.177991E1,0E0,0E0,0E0,0E0],"parents":[2147483647,0,0,1,1,3,3,2,2,8,8,7,7],"right_children":[2,4,8,6,-1,-1,-1,12,10,-1,-1,-1,-1],"split_conditions":[9.9312204E-1,1.0284496E-2,1.3536257E-3,5.7586604E-3,1.3997076E-1,-1.5057286E-2,1.078471E-2,1.2404037E-2,9.7997034E-1,1.305847E-1,-1.1502604E-2,-6.327115E-2,-0E0],"split_indices":[24,24,2,4,0,0,0,37,2,0,0,0,0],"split_type":[0,0,0,0,0,0,0,0,0,0,0,0,0],"sum_hessian":[1.0489342E3,7.1125397E2,3.376802E2,6.859059E2,2.534811E1,2.2619505E2,4.5971082E2,6.915452E1,2.685257E2,1.2675274E1,2.5585043E2,5.5841125E1,1.331339E1],"tree_param":{"num_deleted":"0","num_feature":"46","num_nodes":"13","size_leaf_vector":"0"}},{"base_weights":[1.1635685E-2,-1.0510257E-1,2.2218214E-2,-2.1262636E-2,8.836053E-2,6.859571E-4,1.6136172E-1,3.291351E-4,-3.3163965E-2],"categories":[],"categories_nodes":[],"categories_segments":[],"categories_sizes":[],"default_left":[0,0,0,0,0,0,0,0,0],"id":75,"left_children":[1,-1,3,7,5,-1,-1,-1,-1],"loss_changes":[5.192683E0,0E0,3.2646234E0,3.7326734E0,3.3299095E1,0E0,0E0,0E0,0E0],"parents":[2147483647,0,0,2,2,4,4,3,3],"right_children":[2,-1,4,8,6,-1,-1,-1,-1],"split_conditions":[-1.5141633E0,-1.0510257E-1,8.190049E-3,9.9163634E-1,5.7586604E-3,6.859571E-4,1.6136172E-1,3.291351E-4,-3.3163965E-2],"split_indices":[44,0,5,39,4,0,0,0,0],"split_type":[0,0,0,0,0,0,0,0,0],"sum_hessian":[1.0473871E3,9.036586E0,1.0383506E3,5.891533E2,4.4919727E2,4.1886948E2,3.0327795E1,5.1042975E2,7.872356E1],"tree_param":{"num_deleted":"0","num_feature":"46","num_nodes":"9","size_leaf_vector":"0"}},{"base_weights":[2.684701E-2,3.9623022E-2,-3.173365E-1,1.0857606E-1,-1.7964426E-2,9.38564E-3,1.3449158E-1,-1.1196749E-2,2.4895376E-2,-4.4197142E-1,-0E0,-7.385309E-2,-0E0],"categories":[],"categories_nodes":[],"categories_segments":[],"categories_sizes":[],"default_left":[0,0,0,0,0,0,0,0,0,0,0,0,0],"id":76,"left_children":[1,3,9,5,7,-1,-1,-1,-1,11,-1,-1,-1],"loss_changes":[3.448114E0,4.4134803E0,1.6817281E0,1.3856489E1,5.2643185E0,0E0,0E0,0E0,0E0,3.663025E-1,0E0,0E0,0E0],"parents":[2147483647,0,0,1,1,3,3,4,4,2,2,9,9],"right_children":[2,4,10,6,8,-1,-1,-1,-1,12,-1,-1,-1],"split_conditions":[1.5677776E0,9.999884E-1,3.8199227E-3,1.9921353E-3,9.5279574E-1,9.38564E-3,1.3449158E-1,-1.1196749E-2,2.4895376E-2,2.6319263E0,-0E0,-7.385309E-2,-0E0],"split_indices":[43,19,22,19,44,0,0,0,0,45,0,0,0],"split_type":[0,0,0,0,0,0,0,0,0,0,0,0,0],"sum_hessian":[1.0422189E3,1.01685266E3,2.5366259E1,4.9509134E2,5.217613E2,4.741438E2,2.0947544E1,4.1528674E2,1.0647453E2,2.14553E1,3.9109597E0,1.8106356E1,3.348943E0],"tree_param":{"num_deleted":"0","num_feature":"46","num_nodes":"13","size_leaf_vector":"0"}},{"base_weights":[2.3290936E-2,6.9255084E-2,-1.1782189E-1,3.154781E-2,1.5190649E-1,-2.5955817E-1,1.33127E-1,-7.054704E-2,-0E0,1.4811031E-2,-6.124924E-3,-0E0,6.372295E-2],"categories":[],"categories_nodes":[],"categories_segments":[],"categories_sizes":[],"default_left":[0,0,0,0,0,0,0,0,0,0,0,0,0],"id":77,"left_children":[1,3,5,9,-1,7,11,-1,-1,-1,-1,-1,-1],"loss_changes":[6.5309334E0,2.47369E1,8.824105E0,4.156172E0,0E0,8.848606E0,3.5743678E0,0E0,0E0,0E0,0E0,0E0,0E0],"parents":[2147483647,0,0,1,1,2,2,5,5,3,3,6,6],"right_children":[2,4,6,10,-1,8,12,-1,-1,-1,-1,-1,-1],"split_conditions":[1E0,2.3717026E-3,8.190049E-3,1E0,1.5190649E-1,1.3536257E-3,3.2182636E-3,-7.054704E-2,-0E0,1.4811031E-2,-6.124924E-3,-0E0,6.372295E-2],"split_indices":[27,27,35,28,0,31,10,0,0,0,0,0,0],"split_type":[0,0,0,0,0,0,0,0,0,0,0,0,0],"sum_hessian":[1.0366465E3,8.0412805E2,2.325185E2,7.783278E2,2.5800232E1,1.5906282E2,7.3455666E1,8.534288E1,7.371995E1,4.2978082E2,3.4854697E2,4.7714413E1,2.5741255E1],"tree_param":{"num_deleted":"0","num_feature":"46","num_nodes":"13","size_leaf_vector":"0"}},{"base_weights":[2.031333E-2,-5.7364322E-2,1.03014424E-1,2.0822477E-2,1.6348082E-1,1.1891986E-2,-2.8395824E-2,-1.02158666E-1,8.803994E-2,1.2411007E-2,-2.4704928E-2,1.0569725E-1,4.1533112E-6],"categories":[],"categories_nodes":[],"categories_segments":[],"categories_sizes":[],"default_left":[0,0,0,0,0,0,0,0,0,0,0,0,0],"id":78,"left_children":[1,7,3,5,-1,-1,-1,9,11,-1,-1,-1,-1],"loss_changes":[6.803604E0,3.3546576E0,3.8635624E1,5.7735677E0,0E0,0E0,0E0,5.305487E0,2.4506328E0,0E0,0E0,0E0,0E0],"parents":[2147483647,0,0,2,2,3,3,1,1,7,7,8,8],"right_children":[2,8,4,6,-1,-1,-1,10,12,-1,-1,-1,-1],"split_conditions":[9.331619E-3,8.9480627E-1,4.5624836E-3,6.660567E-1,1.6348082E-1,1.1891986E-2,-2.8395824E-2,-1.2002122E0,4.9048772E-1,1.2411007E-2,-2.4704928E-2,1.0569725E-1,4.1533112E-6],"split_indices":[0,45,1,43,0,0,0,43,44,0,0,0,0],"split_type":[0,0,0,0,0,0,0,0,0,0,0,0,0],"sum_hessian":[1.0289268E3,5.0499203E2,5.239347E2,4.8853873E2,3.5395973E1,3.96923E2,9.161571E1,4.0780566E2,9.718635E1,8.9326904E1,3.1847876E2,5.7808957E0,9.140546E1],"tree_param":{"num_deleted":"0","num_feature":"46","num_nodes":"13","size_leaf_vector":"0"}},{"base_weights":[9.7294984E-4,6.2973894E-2,-3.832174E-2,2.1503169E-4,1.460442E-1,-2.9538107E-1,-0E0,3.0709205E-3,-7.083827E-2,1.3124778E-2,-1.3205646E-2,-8.395209E-3,-8.447436E-2],"categories":[],"categories_nodes":[],"categories_segments":[],"categories_sizes":[],"default_left":[0,0,0,0,0,0,0,0,0,0,0,0,0],"id":79,"left_children":[1,3,5,9,-1,11,7,-1,-1,-1,-1,-1,-1],"loss_changes":[2.595274E0,2.137235E1,6.8121057E0,3.2982388E0,0E0,3.201664E0,3.3630555E0,0E0,0E0,0E0,0E0,0E0,0E0],"parents":[2147483647,0,0,1,1,2,2,6,6,3,3,5,5],"right_children":[2,4,6,10,-1,12,8,-1,-1,-1,-1,-1,-1],"split_conditions":[9.9180996E-1,5.7586604E-3,7.562875E-3,9.897155E-1,1.460442E-1,8.8551235E-1,1.1144419E0,3.0709205E-3,-7.083827E-2,1.3124778E-2,-1.3205646E-2,-8.395209E-3,-8.447436E-2],"split_indices":[4,4,34,22,0,25,45,0,0,0,0,0,0],"split_type":[0,0,0,0,0,0,0,0,0,0,0,0,0],"sum_hessian":[1.0226568E3,4.3722668E2,5.854301E2,4.140903E2,2.3136374E1,8.746068E1,4.9796942E2,4.8475128E2,1.321814E1,2.3125722E2,1.828331E2,5.527532E1,3.2185364E1],"tree_param":{"num_deleted":"0","num_feature":"46","num_nodes":"13","size_leaf_vector":"0"}},{"base_weights":[1.4189604E-2,-6.950505E-3,1.3868447E-1,1.2705144E-1,5.124994E-2,1.3872442E-2,-2.2219907E-1,1.3277334E-2,-5.726563E-3,-5.9039988E-2,-0E0,-5.3913508E-2,1.6519688E-2],"categories":[],"categories_nodes":[],"categories_segments":[],"categories_sizes":[],"default_left":[0,0,0,0,0,0,0,0,0,0,0,0,0],"id":80,"left_children":[1,5,3,-1,11,7,9,-1,-1,-1,-1,-1,-1],"loss_changes":[3.2490222E0,4.674279E0,7.4334936E0,0E0,3.1181974E0,3.2532017E0,3.1338534E0,0E0,0E0,0E0,0E0,0E0,0E0],"parents":[2147483647,0,0,2,2,1,1,5,5,6,6,4,4],"right_children":[2,6,4,-1,12,8,10,-1,-1,-1,-1,-1,-1],"split_conditions":[8.190049E-3,9.164859E-1,1E0,1.2705144E-1,-1.371474E0,9.9718237E-1,1.1637478E0,1.3277334E-2,-5.726563E-3,-5.9039988E-2,-0E0,-5.3913508E-2,1.6519688E-2],"split_indices":[35,43,35,0,44,10,44,0,0,0,0,0,0],"split_type":[0,0,0,0,0,0,0,0,0,0,0,0,0],"sum_hessian":[1.0278616E3,8.507851E2,1.7707643E2,1.3589317E1,1.634871E2,7.587143E2,9.207083E1,3.4222592E2,4.1648834E2,4.7688477E1,4.438235E1,1.1852192E1,1.5163492E2],"tree_param":{"num_deleted":"0","num_feature":"46","num_nodes":"13","size_leaf_vector":"0"}},{"base_weights":[4.8139864E-3,-4.4291694E-2,8.3078876E-2,4.2558197E-2,1.2858932E-1,-1.1494368E-2,1.7630324E-2,-1.1147082E-2,-2.844446E-1,-1.18801594E-1,-0E0,-9.151654E-3,2.0718912E-2],"categories":[],"categories_nodes":[],"categories_segments":[],"categories_sizes":[],"default_left":[0,0,0,0,0,0,0,0,0,0,0,0,0],"id":81,"left_children":[1,7,3,5,-1,-1,-1,11,9,-1,-1,-1,-1],"loss_changes":[4.0750976E0,3.5079672E0,9.794369E0,3.968027E0,0E0,0E0,0E0,3.8199024E0,1.0427833E1,0E0,0E0,0E0,0E0],"parents":[2147483647,0,0,2,2,3,3,1,1,8,8,7,7],"right_children":[2,8,4,6,-1,-1,-1,12,10,-1,-1,-1,-1],"split_conditions":[5.5057993E-3,6.875641E-1,5.133683E-3,1.7552363E-2,1.2858932E-1,-1.1494368E-2,1.7630324E-2,1.16347555E-5,9.331619E-3,-1.18801594E-1,-0E0,-9.151654E-3,2.0718912E-2],"split_indices":[30,44,28,25,0,0,0,21,0,0,0,0,0],"split_type":[0,0,0,0,0,0,0,0,0,0,0,0,0],"sum_hessian":[1.01785803E3,5.9325543E2,4.246026E2,4.0928043E2,1.5322152E1,1.3859804E2,2.706824E2,5.368043E2,5.645109E1,2.273892E1,3.371217E1,4.2246506E2,1.1433928E2],"tree_param":{"num_deleted":"0","num_feature":"46","num_nodes":"13","size_leaf_vector":"0"}},{"base_weights":[-7.7108527E-3,-5.7368387E-2,7.692847E-2,1.2186068E-2,1.3049953E-1,-2.3684999E-2,-2.4241869E-1,-6.087959E-2,-0E0,3.5405965E-3,-1.6361076E-2,-5.779836E-3,2.221256E-2],"categories":[],"categories_nodes":[],"categories_segments":[],"categories_sizes":[],"default_left":[0,0,0,0,0,0,0,0,0,0,0,0,0],"id":82,"left_children":[1,5,3,11,-1,9,7,-1,-1,-1,-1,-1,-1],"loss_changes":[4.1796246E0,3.0746453E0,1.4288824E1,2.7594235E0,0E0,2.791358E0,5.119456E0,0E0,0E0,0E0,0E0,0E0,0E0],"parents":[2147483647,0,0,2,2,1,1,6,6,5,5,3,3],"right_children":[2,6,4,12,-1,10,8,-1,-1,-1,-1,-1,-1],"split_conditions":[1.0284496E-2,4.4818535E-1,3.8199227E-3,1.2666167E0,1.3049953E-1,9.924371E-1,1.1302536E-2,-6.087959E-2,-0E0,3.5405965E-3,-1.6361076E-2,-5.779836E-3,2.221256E-2],"split_indices":[24,45,22,44,0,37,40,0,0,0,0,0,0],"split_type":[0,0,0,0,0,0,0,0,0,0,0,0,0],"sum_hessian":[1.0126185E3,6.689345E2,3.4368396E2,3.2332895E2,2.0355022E1,5.851934E2,8.37411E1,5.8732067E1,2.5009027E1,3.4796326E2,2.3723016E2,2.1433269E2,1.0899627E2],"tree_param":{"num_deleted":"0","num_feature":"46","num_nodes":"13","size_leaf_vector":"0"}},{"base_weights":[4.1481677E-2,-1.2875967E-1,5.1381025E-2,1.3589104E-2,1.821673E-1,1.5103744E-1,8.448681E-3,-6.5097194E-3,1.5975492E-2],"categories":[],"categories_nodes":[],"categories_segments":[],"categories_sizes":[],"default_left":[0,0,0,0,0,0,0,0,0],"id":83,"left_children":[1,-1,3,7,5,-1,-1,-1,-1],"loss_changes":[5.9916415E0,0E0,4.271287E0,4.7527995E0,1.7155401E1,0E0,0E0,0E0,0E0],"parents":[2147483647,0,0,2,2,4,4,3,3],"right_children":[2,-1,4,8,6,-1,-1,-1,-1],"split_conditions":[-1.5141633E0,-1.2875967E-1,1.8856268E-2,2.8176461E-3,9.900212E-1,1.5103744E-1,8.448681E-3,-6.5097194E-3,1.5975492E-2],"split_indices":[44,0,39,12,39,0,0,0,0],"split_type":[0,0,0,0,0,0,0,0,0],"sum_hessian":[1.0330956E3,6.172254E0,1.0269233E3,8.2152844E2,2.0539494E2,2.1865034E1,1.8352992E2,4.8352548E2,3.3800296E2],"tree_param":{"num_deleted":"0","num_feature":"46","num_nodes":"9","size_leaf_vector":"0"}},{"base_weights":[3.7388848E-3,-4.2002182E-2,7.750098E-2,2.7447058E-2,1.3618869E-1,7.630543E-2,-8.772738E-2,3.833905E-2,-8.703768E-3,-2.6140092E-2,-0E0,1.9318473E-2,-5.4462426E-3],"categories":[],"categories_nodes":[],"categories_segments":[],"categories_sizes":[],"default_left":[0,0,0,0,0,0,0,0,0,0,0,0,0],"id":84,"left_children":[1,5,3,11,-1,7,9,-1,-1,-1,-1,-1,-1],"loss_changes":[3.5510209E0,3.2337313E0,1.38721695E1,3.065331E0,0E0,4.286643E0,3.1248512E0,0E0,0E0,0E0,0E0,0E0,0E0],"parents":[2147483647,0,0,2,2,1,1,5,5,6,6,3,3],"right_children":[2,6,4,12,-1,8,10,-1,-1,-1,-1,-1,-1],"split_conditions":[8.190049E-3,-1.2009026E0,5.7586604E-3,1E0,1.3618869E-1,9.808077E-1,9.331619E-3,3.833905E-2,-8.703768E-3,-2.6140092E-2,-0E0,1.9318473E-2,-5.4462426E-3],"split_indices":[5,43,4,6,0,37,0,0,0,0,0,0,0],"split_type":[0,0,0,0,0,0,0,0,0,0,0,0,0],"sum_hessian":[1.0082425E3,5.880159E2,4.2022656E2,4.0178888E2,1.8437708E1,1.3873508E2,4.4928082E2,7.1619705E1,6.711537E1,2.0960114E2,2.3967969E2,1.7844733E2,2.2334154E2],"tree_param":{"num_deleted":"0","num_feature":"46","num_nodes":"13","size_leaf_vector":"0"}},{"base_weights":[-0E0,8.625735E-2,-4.3263208E-2,-2.724237E-1,-3.5400698E-3,-7.269871E-2,4.2036276E-2,8.697232E-2,-6.087247E-3,-4.0079275E-1,1.18802235E-1,-1.0640479E-2,2.3244716E-2,-7.384644E-2,-0E0],"categories":[],"categories_nodes":[],"categories_segments":[],"categories_sizes":[],"default_left":[0,0,0,0,0,0,0,0,0,0,0,0,0,0,0],"id":85,"left_children":[1,9,3,5,7,-1,-1,-1,-1,13,11,-1,-1,-1,-1],"loss_changes":[3.8512988E0,4.413668E0,4.9211445E0,1.1095018E1,1.0778228E1,0E0,0E0,0E0,0E0,8.785536E-1,2.8397832E0,0E0,0E0,0E0,0E0],"parents":[2147483647,0,0,2,2,3,3,4,4,1,1,10,10,9,9],"right_children":[2,10,4,6,8,-1,-1,-1,-1,14,12,-1,-1,-1,-1],"split_conditions":[-9.152721E-1,-1.5042082E0,-7.5065434E-1,7.207476E-1,-6.7103773E-1,-7.269871E-2,4.2036276E-2,8.697232E-2,-6.087247E-3,1.3536257E-3,1.3536257E-3,-1.0640479E-2,2.3244716E-2,-7.384644E-2,-0E0],"split_indices":[43,44,43,44,43,0,0,0,0,41,2,0,0,0,0],"split_type":[0,0,0,0,0,0,0,0,0,0,0,0,0,0,0],"sum_hessian":[1.01469836E3,3.4975284E2,6.649455E2,8.251641E1,5.824291E2,6.449193E1,1.8024479E1,2.7881191E1,5.545479E2,1.3648377E1,3.3610446E2,3.8595318E1,2.9750916E2,1.2102934E1,1.5454435E0],"tree_param":{"num_deleted":"0","num_feature":"46","num_nodes":"15","size_leaf_vector":"0"}},{"base_weights":[1.208684E-2,1.8896808E-1,-3.8833125E-4,-5.8281925E-2,2.9952624E-1,-2.3443544E-1,1.6449735E-2,-0E0,6.0162738E-2,